[n]
1

[smoother]
kylm.model.ngram.smoother.KNSmoother

[smooth_unigrams]
true

[max_length]
51

[vocab_cutoff]
0

[start_symbol]
<s>

[terminal_symbol]
</s>

[unknown_symbol]
<unk>

\data\
ngram 1=8440
\1-grams: 
-99.0000	<s>
-0.8304	</s>
-0.9753	<unk>
-2.0590	!
-4.1852	(
-4.8730	)
-1.7124	*
-2.0577	.
-3.6075	0
-3.7100	1
-3.8443	2
-3.9312	3
-4.4052	4
-4.1852	5
-4.4052	5?????こい
-4.8730	7
-4.8730	:
-1.4848	?
-4.4052	TV
-3.7720	w
-2.6105	良?
-4.1852	良?!
-4.4052	良?.
-3.9312	良??
-4.8730	良??ありがと?
-4.1852	良??プ?ル
-4.8730	良??コンビニ
-4.8730	良??スイカ
-4.4052	良???
-4.8730	良??以?そう?
-4.8730	良??体調
-4.4052	良??冷蔵庫
-4.8730	良??出来
-4.8730	良??塩?難しい
-4.8730	良??大?犬
-4.8730	良??御
-4.8730	良?????
-4.4052	良??景色
-4.8730	良???電
-4.4052	良??浜風
-4.4052	良??海
-4.8730	良??渡??
-4.8730	良??車?富士山
-4.8730	良??長?思い出??
-4.4052	良??風通し
-4.1852	良?ありがと
-4.8730	良?ありがと?
-4.0399	良?こと
-4.4052	良?な?
-4.4052	良?ほ?思う
-3.4241	良??
-4.4052	良???ある
-4.8730	良?バカンス
-4.1852	良?も?
-4.4052	良?わ??
-4.8730	良?カルシウ???オススメ
-4.8730	良?クル?好??乗り
-4.4052	良?スイカ
-4.4052	良?ソファ
-4.4052	良???
-4.4052	良??天?気持ち
-4.4052	良???楽し?
-4.8730	良?乾??風
-4.8730	良?仕??
-4.8730	良?冷?
-4.8730	良???続け?
-4.8730	良?天?天?大丈夫
-4.4052	良?対処
-4.4052	良?帽?好?
-4.4052	良?思う
-4.4052	良??ある
-4.8730	良?成績
-4.8730	良?曲
-4.8730	良???お?よう
-4.1852	良??欲しい
-4.8730	良??選ぶ
-4.4052	良?比べ?られ??海??
-4.8730	良?温?大好?
-4.4052	良?継?大?
-4.8730	良?臭?する
-4.8730	良???
-4.8730	良?車中
-4.8730	良?透?
-4.8730	良?限る
-4.8730	良?飲??ノン
-4.8730	良?多い
-4.1852	良好
-3.8443	色
-4.8730	色?こと
-4.4052	色?形
-4.8730	色?気?
-4.4052	色?知?得る
-4.4052	色?種?ある
-4.1852	色?種?花火
-4.8730	色んな
-4.4052	色白
-2.2904	?
-2.7970	?*
-4.4052	?1
-4.8730	?4
-4.8730	?7
-4.8730	?9
-4.8730	?9???国?空港
-4.4052	??
-4.8730	?良??横??
-4.4052	?良??海
-4.4052	?良?曲
-4.8730	?良?聞く
-4.1852	??
-4.8730	???サングラス
-4.8730	???中
-4.8730	???????見る
-4.8730	???原稿
-4.8730	???海
-4.0399	??しり
-4.1852	??トヨタ
-3.2956	??ロボッ?*
-4.4052	??よろしく
-4.1852	??スイカ
-4.4052	???人
-4.8730	??休み
-4.8730	??冷蔵庫
-4.8730	??外国
-4.8730	???スイカ
-4.4052	??東京
-4.8730	??焼きそば
-4.4052	???パスポ??取?する
-4.8730	??種
-4.8730	??粉じ?すご?
-4.8730	??野菜
-3.8443	?あな??
-4.8730	?あな?ある
-4.8730	?あな???好??
-4.4052	?あな??
-4.8730	?あな?作る
-4.8730	?あな?日本?達?
-4.8730	?あな??付け?下さ??熱中
-4.8730	?あな??信じる
-4.1852	?あと
-4.4052	?あま
-4.8730	?あったか??見る
-4.4052	?あつ???熱中
-4.4052	?あせ??できる
-4.4052	?あいさつ
-4.8730	?あら
-3.7720	?ありがと
-3.6075	?ありがと?
-4.8730	?ありがと?*
-4.8730	?ありがと????
-4.4052	?ありがと???
-4.4052	?ある
-4.4052	?あれ
-3.3425	?かき氷
-4.4052	?かな?寂し?人
-4.8730	?かな?被害
-4.8730	?かぐ
-4.8730	?かめ
-4.4052	?かわ?しい
-4.8730	?かくれんぼ
-3.2532	?しり
-4.1852	?すべ?話
-4.8730	?すいません
-4.8730	?する
-4.1852	?ずっと
-4.4052	?せっかく
-4.4052	?ごめんなさい
-4.4052	?ごめ?
-4.1852	?ごめ????な?
-4.4052	?そうです?
-4.1852	?そう?
-4.8730	?そち??
-4.1852	?そよ風
-3.3952	?それ
-3.9312	?そんな
-4.8730	?そんなに
-4.0399	?そ?
-4.8730	?たま
-3.9312	?たくさん
-4.8730	?ご飯
-4.8730	?おか?味
-4.8730	?おか?大好?
-4.8730	?おなじみ
-4.8730	?おな?すく
-4.8730	?おな?引っ込める
-4.4052	?おう
-4.8730	?おっ
-3.8443	?おすすめ
-4.4052	?おで?セブン
-4.4052	?おご??かき氷
-4.1852	?おいしい
-4.4052	?おや
-4.4052	?おやすみなさい
-4.4052	?お?よう
-4.1852	?こち??つまらな???
-4.4052	?こたつ
-4.4052	?ここ
-4.8730	?こい
-4.4052	?これ
-4.4052	?こん
-3.7720	?こんち
-4.1852	?こんな
-3.6075	?こんにちは
-4.0399	?こんばんわ
-3.8443	?こんばん?
-3.7720	?こ?
-4.8730	?こ???歯
-4.8730	?こ??食べ?スイカ
-4.1852	?さっ?プ?ル
-4.8730	?さす?
-4.4052	?きつ?質??成果
-4.8730	?きれ??富士山
-4.4052	?お昼
-4.4052	?お疲れ??犬
-4.1852	?お盆
-4.8730	?お礼
-4.8730	?お茶
-4.8730	?お話?する
-3.9312	?お?
-4.8730	?ち?*
-4.8730	?ち?ぽ?好?
-4.8730	?つまんな???耐え??
-4.8730	?つ???
-4.8730	?できる
-4.8730	?とって?びっくり
-4.1852	?どきど?する
-4.8730	?どっち
-4.8730	?ど?
-4.4052	?ど?
-4.8730	?ど??電話
-3.9312	?ど?出かけ??
-4.8730	?ど?大差
-4.4052	?ど?本編
-4.4052	?ど?治?良??外国
-3.9312	?ど?たしまして
-4.8730	?ど?
-4.0399	?どんな
-4.4052	?なくな??*
-4.4052	?なんで
-4.4052	?な?
-4.8730	?な?乗る
-4.8730	?のど
-4.4052	?はじめまして
-3.8443	?は?
-3.5641	?は???
-4.8730	?は?こんばんわ
-4.8730	?は?*
-4.8730	?ば?
-4.8730	?ひま
-4.8730	?ひ?の
-3.9312	?びっくり
-4.8730	?ぶど?好??果物
-4.4052	?ほ?
-4.1852	?ま??
-4.8730	?まるで
-4.8730	?みたい
-4.8730	?みなとみらい
-4.8730	?みんな
-4.4052	?み?られ?巨大
-3.8443	??
-4.4052	??*
-4.4052	??
-3.9312	???
-4.8730	??
-4.4052	???
-4.4052	???
-4.1852	??
-4.8730	???おいしい
-4.8730	???コンサー?持つ
-4.4052	??する
-4.8730	??ぱ??
-4.4052	??ぱ?召し上が?くださる
-4.0399	??
-4.4052	???行く
-4.4052	???そうです?
-4.8730	??ありがと
-4.8730	??さん
-4.8730	??は?
-4.1852	???しみ
-4.8730	??プ?ル
-4.8730	??よ?
-4.8730	????*
-4.8730	???ぶ?
-4.4052	??刺身
-4.4052	?????
-4.8730	???欲しい
-4.8730	??土産
-4.8730	??好?家?ある
-4.1852	??天?つられ?
-4.8730	???日向ぼっ??
-4.8730	??家???暮らす
-4.8730	??寿司
-4.8730	??手??簡??スタイリング
-4.8730	??祭?ある
-4.8730	??祭?楽しい
-4.8730	??祭?行く
-4.8730	??知り合?方
-4.8730	??若?夜遊び
-4.4052	???楽しい
-3.0739	??
-4.8730	?????な??
-4.4052	???
-4.8730	??ける
-4.8730	??さい
-3.1015	??
-4.4052	????
-4.1852	??
-3.8443	???
-4.4052	?チェリー
-4.4052	?チ?ズ
-4.8730	?ハイ?オール
-4.4052	?ニューヨーク
-4.8730	?パリ
-4.8730	?パワー
-4.8730	?パン?ビキ??える
-4.4052	?パパイヤ
-4.8730	?パ??
-4.0399	?ヘッド?ン
-4.4052	?ヘビ
-4.8730	?プリンス
-3.8443	?プ?ル
-4.8730	?トロピカル
-4.8730	?ト???
-4.8730	?ト??旨味
-4.4052	?ト?ス??ト?ス?ト?スター
-4.4052	?ト?ス?美味しい
-4.8730	?ベラン?楽し?
-4.8730	?ベス?かっ?良?
-4.8730	?ペッ??
-4.8730	?ドライ?行く
-4.4052	?ホタル
-4.8730	?ノン
-4.1852	?ブルー
-4.8730	?ボ??ゲー?かう
-4.1852	?ピザ
-4.8730	?ピッチャー
-4.8730	?マンゴー
-3.7100	?マグロ
-4.0399	?マッサージ
-4.8730	?ミネラル
-4.0399	?ナス
-4.8730	?バイ?ひど?
-4.4052	?バイ??
-4.4052	?バイク
-4.8730	?バニラ
-4.8730	?ビニール
-3.6557	?ビ?ル
-4.4052	?フルー?中
-4.4052	?フェイス
-4.4052	?ネッ?好?
-4.4052	?ネッ?大好?
-4.4052	?ネッ?面白?
-3.6557	?メロン
-3.9312	?メール
-4.8730	?メーカー
-4.4052	?ヨ?
-4.4052	?ランニング
-4.8730	?ラーメン
-4.8730	?ラ?
-4.8730	?ラ?
-4.8730	?ラジオ
-4.0399	?リラ?ス
-4.8730	?リンガーハッ?有名
-4.8730	?リンゴ
-4.8730	?レジャー
-4.8730	?レストラン
-4.4052	?ロボッ?*
-4.4052	???つける
-4.1852	???スペシャル
-4.4052	???家?する
-4.8730	??ション
-4.8730	??ビング
-4.1852	??エ?
-4.8730	???かく
-4.4052	??タル
-4.1852	????カラオケ
-4.8730	????水族館
-4.8730	?めっち?好?好??
-4.0399	?めん
-4.1852	?めんど??学年
-4.0399	?もう
-4.1852	?もうすぐ
-4.8730	?もったいな??日帰?勿?無?
-3.8443	?もっと
-4.4052	?もぐもぐ
-4.8730	?わか?
-4.4052	?わか?わか?酢の物
-4.8730	?わあ
-4.8730	?わさび
-4.4052	?わいわい
-4.0399	?よい
-4.4052	?よろしく
-3.8443	?よく
-4.8730	?ろう
-4.4052	?アルバイ?好?
-4.8730	?アルバイ?好??アルバイ?ほしい
-4.8730	?アルバイ?楽しい
-4.1852	?ア??
-4.8730	?イチゴ
-4.4052	?イルミネーション
-4.4052	?インドア
-4.4052	?インフルエンザ
-4.4052	?インコ
-4.8730	?イタリア
-4.8730	?ウィーン
-4.4052	?ウクライ?マレーシア
-4.1852	?ウサギ
-4.4052	?ウシ
-4.8730	?オーロラ
-4.4052	?オス
-4.8730	?カブト?
-4.8730	?カメ?
-4.4052	?カリフォルニア
-4.8730	?カリウ?塩?排?
-4.8730	?カリウ?普?食?摂る
-4.8730	?カレー
-4.4052	?カロリー
-4.4052	?カスタマイズ
-4.8730	?ガンガン
-4.8730	?キャー
-4.4052	?キャ?チ?
-4.4052	?キス
-4.8730	?ギター
-3.7100	?クラウン
-3.8443	?クラゲ
-4.4052	?クラシ?
-4.4052	?クル?*
-4.8730	?クル?欲しい
-4.4052	?クワガタ
-3.6557	?クーラー
-4.4052	?ゲー?ンター
-4.8730	?ゲー?する
-4.1852	?ゲー?スト?リー
-4.8730	?ゲー?財?寂し?
-3.9312	?コンビニ
-4.8730	?ゴリラ
-4.8730	?サン?美味しい
-4.4052	?サンキュー
-4.4052	?サ?ー
-4.4052	?シュークリー?カスター?クリー?好?
-4.8730	?シラス
-4.8730	?シー?フラ?
-4.8730	?ジャン??味
-4.1852	?スポ??リンク
-4.8730	?スポ???動か?の
-4.1852	?スポ??苦??どち?好???興味
-4.8730	?スポ??嫌い
-3.9312	?スリ
-4.4052	?スーパ?
-4.1852	?ス?ドグラス
-4.8730	?スイミング
-2.9678	?スイカ
-4.1852	?スカイ
-4.1852	?スキャ?
-4.0399	?セブン
-4.4052	?セキセイインコ
-4.8730	?ソフトバンク
-4.8730	?ソル
-4.8730	?タ???価
-4.8730	?タイマ?
-3.8443	??
-4.0399	??ぱ??迫?ある
-4.4052	??マグロ
-4.8730	?????*
-4.8730	??覚え?予?
-4.8730	??がい
-3.7720	??
-4.8730	????!
-4.8730	?????熱中
-4.4052	?不??*
-4.8730	?上手
-3.9312	?中国
-4.4052	?中身
-4.1852	?丸?たこ焼?焼き上げ??たこ焼?熱?美味しい
-4.1852	??人
-4.4052	??日
-4.8730	???お茶
-4.8730	????
-4.8730	???可愛い
-4.8730	???息
-4.4052	???楽し?
-4.4052	???無??
-4.8730	??
-4.1852	??暮らし
-4.8730	?乾燥
-4.1852	??ぶ?!
-4.4052	?付録
-4.8730	?仙人
-4.8730	?仙道
-4.8730	?仕?帰?買?
-4.8730	?仕?楽しい
-4.4052	?仕?結果
-4.4052	?仕?行く
-3.8443	?今年
-3.3184	?今日
-4.8730	?今朝
-4.8730	?以??夜?列?乗る
-4.8730	???チェリー
-4.1852	???サザエ
-4.8730	??ありえる
-4.8730	???する
-4.8730	????
-4.8730	??暑い
-4.8730	??時期
-4.4052	??果物
-4.4052	??特に
-4.4052	?予告
-3.1015	?予防
-4.4052	?京都
-4.1852	?人
-4.8730	?人数
-4.4052	?人??
-4.8730	?人?レストラン
-4.4052	?人?おかしい
-4.1852	?人?上?
-4.1852	?人?愉快
-4.8730	?人身
-4.8730	?伊勢
-4.8730	?保育?プ?ル
-3.6557	?俺
-4.8730	?低い
-4.8730	?作?
-4.1852	?体調
-4.8730	?体?出?
-4.8730	?体??行く
-4.8730	?使??大??使??良?
-4.1852	??する
-4.4052	??クーラー
-4.8730	??スポ??する
-4.4052	??健康
-4.8730	??売?て??コンビニ
-4.8730	??起こる
-4.4052	??意?する
-4.4052	??時間
-4.8730	??求め??
-4.8730	??終わ??
-4.4052	??話?????
-4.4052	?便利
-4.8730	?健康
-4.4052	?倒れ?大??熱中
-4.8730	?値
-4.4052	??めんど?
-4.4052	?北海??
-4.4052	?北海?修学??行く
-4.8730	?北海?大丈夫
-4.4052	?北海?快適
-4.8730	?北海?懐かしい
-4.4052	?北海?楽しい
-4.1852	?北海?行く
-4.4052	?初めて
-4.8730	?到?問?の
-4.4052	?刺??
-4.4052	?再販
-4.4052	?冗?好?
-4.8730	?冬
-4.8730	?冷たい
-3.7100	?冷房
-4.1852	?冷蔵庫
-4.1852	?凍る
-4.4052	?凶暴
-4.4052	?出張
-4.8730	?出来?買?
-4.8730	?出産
-4.8730	?出荷
-4.8730	?函館
-4.4052	?入れる
-4.4052	?全国
-4.8730	?公?横?
-4.8730	?公?行く
-4.4052	???得る
-4.8730	????
-4.4052	?効?すぎ?二?化炭??
-4.4052	?単?勧??悪
-4.8730	?危な?思う
-4.1852	??
-4.8730	?動画
-4.8730	?前?先?
-4.8730	?前??
-4.1852	??こま?水?補給
-4.1852	??マツ?好??マツ?*
-4.8730	??鬼
-4.4052	?和?
-4.4052	?和菓?好?
-3.7720	?哲学
-4.0399	?去年
-4.4052	?同じ
-4.8730	?同感
-4.8730	?名古?コンビニ
-4.8730	?呼ぶ
-4.8730	?友人
-4.4052	?受?人
-4.1852	?双?座
-4.8730	?取り込?の
-4.4052	?口調
-4.4052	?嘗て
-4.4052	??つ?こと
-4.8730	???真?
-4.8730	??大?
-4.8730	??得意
-4.8730	?四国
-4.4052	?固?の
-4.4052	?問?ありがと?
-4.1852	?地図
-4.8730	?地?人?面白??地?大好?
-4.8730	?地??らし?
-4.8730	?地?面白?
-4.4052	?塩
-4.8730	?塩?と?こと
-4.8730	?塩?と?て??塩??
-4.4052	?塩????
-4.8730	?塩味
-3.7720	?奥
-4.8730	?好?
-4.4052	?好??
-4.8730	?好??神木
-4.8730	?好?人
-4.8730	?好?料理
-4.8730	??
-4.1852	?夏休み
-4.8730	?夏みかん
-4.4052	?夏バ?な??温度
-4.8730	?夏バ??つける
-4.8730	?夕張
-4.8730	?夕張メロン
-4.8730	?外?生ぬるい
-4.4052	?多め
-3.8443	?多?
-3.8443	?夜景
-4.8730	?変化
-3.6075	?外国
-4.0399	?外?
-4.8730	?夢
-4.0399	?大
-4.8730	?大した
-4.8730	?大きな
-3.7720	?大丈夫
-3.8443	?大人
-4.4052	?大勢
-4.8730	?大好?
-4.4052	?大??熱中
-4.4052	?天
-4.8730	?天?良??海
-4.8730	?天?ホン?良?
-4.8730	?天?予?
-4.8730	?天?休み
-4.8730	?天???
-4.8730	?天?晴??
-4.4052	?天?青空
-4.8730	?太平?方
-4.1852	?太極拳
-4.4052	?夫
-4.4052	?失礼
-4.4052	??!
-4.8730	??あちこち
-4.8730	???
-4.8730	???
-4.1852	???ぱ?スイカ
-4.4052	??北海?行く
-4.8730	??地?知??地?感?する
-4.8730	??暑い
-4.8730	??日差?暑い
-4.8730	??明か??
-4.8730	??氷??
-4.8730	??海
-4.8730	??祭?はしご
-4.8730	??網戸
-4.8730	??美味しい
-4.8730	??見え?迷?しま??地下鉄
-4.8730	??風邪
-4.8730	?声
-4.8730	?嬉し??*
-4.4052	?嬉し??クーラー
-4.4052	?定?選?する
-4.4052	?安い
-4.8730	?完?
-4.8730	?宝?山
-3.8443	?実家
-4.8730	?宮????町
-4.8730	?家?愛す
-4.4052	?家?食べ?行く
-4.8730	?宿
-4.8730	?宿??
-3.9312	?山
-4.8730	?山形
-4.4052	?山???
-4.8730	?山梨
-4.8730	?山?景色
-4.1852	??
-4.4052	???
-4.8730	?子犬
-4.4052	?子?喜?
-4.8730	?子?連?気軽
-4.8730	?学ぶ
-4.8730	?学?学業
-4.8730	?小学?ころ
-4.8730	?小???
-4.8730	????
-4.4052	?寒い
-4.8730	?富士山
-4.4052	?寝る
-4.8730	?寝台
-4.1852	?寝坊
-4.8730	?対?チリ
-4.4052	??釜め?食べ??軽井沢
-4.4052	?席
-4.8730	?帽?か???帽?ほしい
-4.8730	?帽?な?立派
-4.0399	?平凡
-4.8730	?平日
-4.4052	?幸
-4.8730	?底な?深??奥
-4.4052	??
-4.8730	?得意
-4.8730	?復?大?
-4.4052	?徳島
-4.8730	??
-4.4052	????する
-4.4052	?快適
-3.6075	??哲学
-4.4052	???渡??景色
-4.8730	????強?
-4.0399	?赤
-4.1852	?赤色
-4.4052	??弱
-4.8730	???な??
-4.4052	???
-4.8730	?感じ
-4.8730	?感動
-4.4052	?怖い
-4.0399	?恵み
-4.8730	?手洗い
-4.4052	?手??
-3.8443	?打ち上げ花火
-4.8730	??かく
-4.8730	??持つ
-4.8730	????よい
-4.0399	?成果
-4.8730	?成?な?過?見る
-4.8730	?我?
-4.4052	?悪???ぶ?探?
-4.4052	?探?ソファ
-4.4052	?折り畳?雨?セール
-3.8443	?抹茶
-4.8730	?揚げ?浸?麻
-4.8730	?数値
-4.4052	?携帯
-4.8730	?政治
-4.8730	?料理
-4.8730	?斉藤
-4.4052	?新しい
-4.8730	?新幹??
-4.8730	?新幹?大丈夫
-4.8730	??
-3.5247	?暑い
-4.4052	?暗い
-4.0399	?暖房
-4.4052	?暮らし
-4.8730	??と?寝る
-4.8730	?日?当た?痛い
-4.8730	?日向ぼっ?気持ち?
-4.8730	?日帰??
-4.8730	?日帰?勿?無?
-4.1852	?日差?さえぎる
-4.8730	?日差?きつ?
-4.8730	?日差?苦しい
-4.8730	?日差?遮?くれ?そこ
-3.5247	?日本
-4.8730	?日本人
-4.8730	?日本?繊細
-4.4052	?日陰
-4.4052	?旦那
-4.1852	?早??天?荒れ?気味
-4.8730	???お
-4.4052	??????
-4.8730	???予??思い出
-4.8730	???出来??
-4.4052	???友達
-4.8730	???寒い
-4.8730	???疲れる
-4.8730	?時?
-3.9312	?時間
-4.8730	?普段
-4.1852	?景色
-4.1852	?晴れる
-4.8730	?晴??
-4.1852	?晴?日
-4.4052	?昨日
-4.4052	?昼
-4.8730	?昼?????早起?気持ち
-3.7100	??
-4.8730	??ハムスター
-4.8730	??大好?
-4.8730	??
-4.8730	?来??部活
-4.8730	?来?歌??見る
-3.6075	?東京
-4.4052	?朝方
-4.8730	?期?する
-4.8730	?有名
-4.4052	?木陰
-4.8730	?本当に
-4.8730	?本?塩
-4.8730	?机
-4.8730	???公?太極拳
-4.4052	??クーラー
-4.8730	??日差?暑い
-4.8730	??洗濯
-3.7720	??海
-4.4052	??行く
-4.8730	??連?ドラ?はま?
-4.1852	??雨
-4.8730	??電話
-4.4052	???気温
-4.4052	????
-4.8730	????コンビニ
-4.4052	????作る
-4.4052	????軽自動?人??軽自動??
-4.8730	???くる
-4.8730	???カメラ
-4.8730	????する
-4.8730	???台風
-4.0399	???暑い
-4.8730	???番??
-4.8730	???話?聞く
-4.0399	?果物
-4.8730	??好?
-4.8730	???つける
-4.4052	???バランス
-4.4052	??凍る
-4.8730	??大好?
-4.8730	??柔らかい
-4.8730	?梨
-3.9312	??
-4.8730	?極楽寺
-3.8443	?楽しみ
-3.4551	?楽しい
-4.4052	?楽し?
-4.4052	?機?ある
-4.8730	?次
-4.8730	?殺?できる
-4.8730	?歌???らし?
-4.8730	?武士
-4.8730	?歯医?治?点数
-4.8730	?歯医?美人
-4.8730	?歯医???
-4.0399	?死ぬ
-4.8730	?死?出?する
-4.4052	?毎日
-4.8730	??月?染め
-4.8730	??染め
-3.9312	?気?
-3.5641	?気持ち
-4.8730	?気持ち?
-4.0399	?気温
-4.8730	?民放
-4.4052	?水
-4.8730	?水色
-4.8730	?水?取る
-4.8730	?水?多め
-4.4052	?水?発?取る
-4.8730	?水?可愛い
-4.4052	?水?取る
-4.4052	?水???
-4.8730	?水遊?
-4.8730	?氷??*
-4.8730	??つける
-4.8730	?江ノ島
-4.4052	???ぱ???味
-4.4052	???滑る
-4.8730	??面白?
-4.8730	?沖?海
-4.0399	?沖?行く
-4.8730	?沢山
-4.4052	?油断
-4.4052	?治?不?ある
-4.8730	?法被
-4.1852	?泳?の
-4.4052	?流す
-4.8730	?浜風
-4.4052	?浮?輪
-4.0399	?浴衣
-2.8575	?海
-4.4052	?海??
-4.8730	?海??
-4.4052	?海?法?違う
-4.4052	?海?行く
-4.4052	?海?長?
-4.8730	?海峡
-4.8730	?海水
-3.9312	?海水浴
-4.4052	??
-4.8730	?消化
-4.8730	?涼しい
-4.8730	??温かい
-4.4052	?深海
-4.8730	?濡れる
-4.4052	?渓?楽し?
-4.4052	?温度
-4.8730	?温???
-4.8730	?温???無??
-4.8730	?温?面白?
-4.4052	?港
-4.8730	?溢れる
-4.8730	??
-4.4052	?湘南
-4.4052	?湿度
-4.8730	?漢?カタカ?ある
-4.4052	?漢方
-4.8730	?火
-4.8730	?火山
-4.4052	?点滴
-4.8730	?無人島
-4.8730	?焼きそば
-4.4052	?熟?
-2.9784	?熱中
-3.7100	?特に
-4.8730	?猛暑
-4.1852	?猫
-4.8730	?登?みたい
-4.4052	?磯
-4.4052	?瓶
-4.4052	?甘い
-4.4052	?生き
-4.8730	?生涯
-4.8730	?田?田?思い出?て?
-4.4052	??わさび
-4.8730	??シラス
-4.8730	??
-4.4052	?畳める
-4.8730	???
-4.8730	???
-4.4052	?皮
-4.8730	?皿
-4.8730	?真っ赤
-4.4052	?眺める
-4.0399	??
-4.8730	?盛り
-4.4052	?目
-4.1852	?直?乗?する
-4.8730	?睡?と?の
-4.8730	?睡??
-4.8730	??
-4.8730	?祈る
-4.8730	?神??!
-4.8730	?知り合???ス
-4.8730	?知???普段
-4.8730	?知?え?
-4.8730	?短
-4.8730	?短髪
-4.8730	?砂??良?
-3.9312	?研究
-4.4052	???
-4.8730	?確?
-4.4052	?確?変数
-4.8730	??*
-4.1852	???外国
-4.4052	?????興味
-4.8730	????恋し?
-4.8730	??あな???買?
-4.8730	??そ?まま
-4.4052	??チェ?
-4.8730	??マグロ
-4.1852	??メロン
-4.1852	??スイカ
-4.4052	??会社
-4.8730	??場??ベス??
-4.8730	??好??あな??
-4.4052	??好??港
-4.4052	??外?
-4.8730	??大好?!
-4.8730	??大好??良???人
-4.8730	???食べ??実家
-4.8730	??山
-4.4052	??思う
-4.4052	???カー????カー?使?
-4.4052	??水?持ち歩??
-4.4052	??甘い
-4.8730	??知?????読?
-4.8730	??短??猛暑
-4.4052	??買?こと
-4.1852	????する
-4.4052	??食べ?こと
-4.8730	?種
-4.8730	?空
-4.4052	?空き缶
-4.8730	?空?綺?
-4.4052	??開け???よい
-4.4052	??使??書???左?書?
-4.8730	?立ち読み
-4.8730	?箱根
-3.9312	?糖?
-4.4052	?粉じ?多い
-4.8730	?粉じ?大?発?する
-4.8730	?精霊流し
-4.8730	??
-4.4052	??
-4.8730	??
-4.4052	??
-4.8730	??
-4.4052	?終わ??しる
-4.8730	?結?相?欲しい
-4.8730	?継?価格
-4.8730	?継?難しい
-4.8730	?網
-4.8730	?線?花火
-4.8730	??多い
-4.4052	?縁日
-4.8730	?美味しい
-4.4052	?羨ましい
-4.4052	??以?焼ける
-4.8730	??食べ?!
-4.4052	??香?しい
-4.8730	?自?そ?まま
-4.1852	?自?電?ピア?ある
-4.8730	?自?食べ?の
-4.4052	?芝生
-3.7720	?花火
-4.8730	?興味
-4.8730	?興味深?ロボッ?かっこい?
-4.8730	?船
-4.1852	?苺
-4.4052	?荷物
-4.8730	?萩
-4.8730	?藤?竜?かっこよ?
-4.8730	?藤?竜??
-4.8730	?行う
-3.1965	?行く
-4.0399	?表参道
-4.4052	?補給
-4.4052	?見た目
-3.8443	?見る
-4.4052	?視?
-4.1852	?見?
-4.4052	?話??替わる
-4.1852	?詳しい
-4.4052	?笑い?すま?
-4.8730	?読書
-4.8730	?調査
-4.8730	?賭?師
-4.8730	?買?!
-3.9312	?買?
-4.8730	?嫌い
-4.1852	?越前
-3.7720	?趣味
-4.8730	??気持ち?
-4.4052	??能?得る
-4.8730	?車中
-4.4052	?軽井沢
-4.8730	???
-4.1852	??好??
-4.8730	?農家
-4.1852	?近所
-4.4052	?逗??
-4.4052	?逗?好?
-4.8730	?連
-4.4052	?週末
-4.8730	??なんで
-4.8730	??????楽し?
-4.8730	???しか?
-4.8730	???する
-4.8730	???と????見る
-4.8730	???な?がち
-4.8730	????
-4.8730	???平凡
-4.4052	????
-4.0399	????哲学
-4.4052	???楽し?
-4.8730	???疲れる
-4.4052	???耐え??
-4.8730	???耐え?られ?て?
-4.0399	???嫌う
-4.1852	????
-4.8730	?????
-4.4052	?????
-4.8730	?????しれ?
-4.4052	??????
-4.4052	???くださる
-4.8730	?邦画
-4.0399	?運動
-4.1852	?道教
-4.8730	?適??
-4.4052	??
-4.8730	?部
-4.8730	?部?涼しい
-4.8730	?都道府県
-4.1852	?醤油
-4.4052	?野球
-3.8443	?野菜
-4.4052	?釣?上手?
-4.4052	?釣?得意
-4.4052	?釣?快適
-4.8730	?銘柄
-4.8730	???あったま?
-4.8730	??大好?
-4.8730	?長?見る
-4.8730	?長?暑い
-4.4052	?雌花
-4.8730	?雑?好?
-4.8730	?難しい
-3.1965	?雨
-4.1852	?電?ピア?欲しい
-4.1852	?電?代
-4.8730	?電話
-4.0399	??
-4.4052	?限?イチゴ
-4.8730	?限界
-4.8730	?除??行う
-4.4052	?面白?スイカ
-4.4052	??くる
-4.4052	?露
-4.8730	?露天風?良?
-4.4052	?韓国
-4.8730	?音楽
-3.5641	?風
-3.8443	?風邪
-4.8730	?食べ物
-4.0399	?食生活
-4.8730	?食物
-4.4052	?食?もう
-4.1852	?食欲
-4.8730	?飲み物
-4.4052	?飲?ヨーグル?みたい
-4.4052	?飲??遊園
-4.4052	?飼??ヘビ
-4.8730	????
-4.8730	???食べ????食う
-4.1852	?馬
-4.8730	??忘れ?て?の
-4.4052	?高?
-4.8730	?高?
-4.8730	?鬱陶しい
-4.4052	??冬
-4.8730	??釣れる
-4.8730	?鳥??安?
-4.1852	?鳴??!
-4.4052	?麦茶
-4.8730	?麦?帽?背中
-4.4052	?鼻
-4.8730	?鼻水
-4.8730	あが?もん
-4.8730	あが?よい
-4.8730	あな?.
-3.8443	あな??
-4.4052	あな??悩み
-4.1852	あな??新しい
-4.8730	あな?すご?知?て?みたい
-4.4052	あな?ど??
-4.8730	あな?ど?出身
-4.8730	あな???つ
-4.8730	あな?イチゴ
-4.8730	あな?オフィス
-4.4052	あな?スイカ
-4.4052	あな??
-4.8730	あな???行く
-4.8730	あな??暮らし
-4.4052	あな?今年
-3.9312	あな??座
-4.1852	あな?健康
-4.4052	あな??忘れ?こと
-4.4052	あな??持つ
-4.1852	あな?名前
-4.4052	あな?可愛い
-4.8730	あな?塩
-4.1852	あな?好?人
-4.4052	あな?大丈夫
-4.8730	あな?家
-4.8730	あな?平???
-4.4052	あな?得意
-4.8730	あな??時間
-4.8730	あな?扱??
-4.8730	あな?新?選?!
-4.8730	あな?朝方
-3.8443	あな??つける
-4.8730	あな??付け??
-4.4052	あな??付け?くださる
-4.8730	あな?独身
-4.8730	あな?現在
-4.8730	あな?男性
-4.8730	あな????人
-4.8730	あな?腎臓
-4.4052	あな?興味
-4.8730	あな?荷物
-4.4052	あな?行う
-4.8730	あな?行く
-4.8730	あな?詩人
-4.8730	あな?話??
-4.8730	あな??
-4.8730	あな??こと
-4.4052	あな?趣味
-4.4052	あな?野球
-4.4052	あな?面白?人
-3.4885	あと
-3.6557	あま
-4.8730	あま?大きい
-4.8730	あえて
-3.7100	ああ
-4.4052	あう
-4.8730	あっ
-4.8730	あつ??
-4.8730	あつ?熱中
-4.0399	あざ
-4.8730	あぁ
-4.8730	あし?
-4.8730	あら
-3.1464	ありがと
-2.8262	ありがと?
-3.6075	ありがと?!
-4.4052	ありがと??*
-4.4052	ありがと??????涼しい
-4.4052	ありがと??よい
-4.8730	ありがと??今日
-4.8730	ありがと???暑い
-4.4052	ありがと??暑い
-4.8730	ありがと????暑い
-4.1852	ありがと??楽し?
-4.4052	ありがと???つける
-4.8730	ありがと???付け?熱中
-4.8730	ありがと??熱中
-4.4052	ありがと??関東
-4.8730	ありがと?おう
-4.8730	ありがと?こち?ありがと?
-4.8730	ありがと?こち???ありがと?
-4.8730	ありがと?とんで?
-4.1852	ありがと?ど?ま
-4.8730	ありがと?なに
-4.8730	ありがと?な?
-4.4052	ありがと?は?
-4.4052	ありがと??*
-3.8443	ありがと???
-4.4052	ありがと????
-4.8730	ありがと??
-4.1852	ありがと??
-4.8730	ありがと??
-4.8730	ありがと?主人公
-4.1852	ありがと?健康
-4.1852	ありがた??提??
-2.0734	ある
-3.8443	あれ
-4.8730	あれこれ
-4.4052	あんな
-4.8730	あん?気持ち
-4.8730	あけ?奥
-4.4052	あげ?!
-4.8730	あげ?.
-4.8730	あげ?くださる
-4.4052	あげ?しれ?
-4.8730	あげ?の
-4.8730	あげ??
-4.8730	あげ?よい
-3.5641	あ?
-4.1852	あ?れる
-4.0399	くう
-4.0399	くだ
-3.0118	くださる
-4.8730	くだも?
-4.4052	くだらな?
-4.8730	くつろぐ
-4.4052	くい
-2.9278	くる
-4.1852	くるくる
-4.8730	くれ?
-4.8730	くれ??
-4.8730	くれ??便利
-4.4052	くれ?て??ありがと?!
-4.8730	くれ?て?の
-4.0399	くれ?よい
-4.8730	くれ???
-4.1852	くん
-4.8730	かかわる
-3.5247	かか?
-4.8730	かか??
-4.8730	かか??趣味
-4.4052	かか??電?代
-4.8730	かか?お
-3.5641	かか?の
-4.8730	かか?よい
-4.8730	かか?スポ??お
-4.8730	かか?女性
-3.9312	かか?趣味
-4.4052	かか?電?代
-3.0739	かき氷
-4.8730	かぎ??
-4.4052	かな??
-4.8730	かな??
-4.8730	かな?疲れる
-4.1852	かな?苦労
-4.8730	かに
-4.4052	かみしめ?な??
-3.9312	かっこい?
-4.8730	かっこい?*
-4.8730	かっこい??
-4.4052	かっこい??マツ?施設
-4.4052	かっこい?ありがと?
-4.8730	かっこい??
-4.8730	かっこい?もん
-4.8730	かぐ
-4.4052	かさ?
-4.8730	かさ?電?代
-4.8730	かし??
-4.1852	かも
-4.1852	からっきし
-4.8730	から?教え?から?飛?
-4.8730	から?飛?
-4.8730	から?食べ??
-4.1852	からめる
-4.8730	かわ??????
-4.8730	かわ??同情
-4.8730	かわ???虫
-4.4052	かわ?な?
-3.4885	かわ?
-4.8730	かわ?人
-4.8730	かわ?雨
-4.4052	かわ?
-4.4052	かん
-4.8730	かけ?.
-4.1852	かけ??
-4.4052	かけ?w
-4.8730	かけ?おいしい
-4.4052	かけ?て??クーラー
-4.8730	かけ?て??健康
-4.4052	かけ?て?エアコン
-4.8730	かけ?て??.
-4.8730	かけ?て?酷?.
-4.4052	かけ?の
-4.8730	かけ?まくる
-4.8730	かけ?み?こと
-4.8730	かけ?られ??
-4.8730	かけ??
-4.8730	かけ?塩
-4.8730	かけ?方?有名
-4.4052	かけ????大好?
-4.8730	かけ?派
-4.8730	かけ?甘い
-4.8730	かけ?美味しい
-4.8730	かけ?読?こと
-4.8730	かけ?長??
-4.8730	かけ?食べ??
-4.4052	かけ?食べ?の
-4.8730	かけ?食べ?み?多め
-4.1852	かく
-4.8730	かくれんぼ
-4.4052	か?りつ?
-4.4052	けっこう
-4.8730	けい
-4.4052	お過ごし
-3.1625	お
-3.5247	お願い
-4.8730	じっくり
-4.8730	じっと?する
-4.8730	じゃ?.
-4.8730	じゃ?しれ??熱中
-4.8730	じゃ?ヨーロ?
-4.8730	じゃ?もっと
-4.8730	じゃ?好?音楽
-4.4052	じゃ?明日
-4.8730	じゃ?犬
-4.4052	げん??
-4.4052	しか?.
-3.8443	しま??
-4.1852	しま??寝坊
-4.8730	しま??救?
-4.4052	しま??早起?午前
-4.8730	しま?の
-4.4052	しま??
-4.1852	しま?サン?
-4.8730	しま???予防
-4.8730	しま???更かす
-4.4052	しま???興味
-4.4052	しだ?
-4.8730	しつこい
-4.8730	しおから?トン?教え?くださる
-4.8730	しゃべ?
-4.4052	しゃべ??インコ
-4.8730	しゃべ?の
-4.8730	しょっぱ?な?塩
-4.8730	しょっぱ?の
-4.4052	しょっぱ??
-4.4052	しょ?
-4.8730	しょ?
-4.8730	しよ?な???
-4.8730	しら
-3.0235	しり
-3.7100	しる
-3.1965	しれ?
-4.1852	しれ?*
-4.4052	しれ?.
-4.1852	しれ??
-4.4052	しれ??*
-4.8730	しれ?????
-4.8730	しれ??今日
-4.8730	しれ??我?
-4.8730	しれ????暖房
-4.4052	しれ???
-4.4052	しれ??海?良?
-4.8730	しれ??消化
-4.1852	しれ?こたつ
-4.4052	しれ??
-4.4052	しれ?国
-4.4052	しれ?授業
-4.8730	しれ??つける
-4.8730	しれ?習?
-4.8730	しれ????哲学
-4.8730	しれ???紛らわせ?
-4.4052	しれ?運転
-4.1852	しんかい
-3.2146	ええ
-3.1464	えっ
-4.0399	えい
-4.8730	えら?
-4.4052	えら?!
-4.4052	えら?美味しい
-3.3425	える
-3.3184	え?
-4.8730	え?と
-4.8730	すか
-3.3425	すき
-4.4052	すて?思う
-4.1852	すぎ
-4.8730	すぎ?
-4.8730	すぎ??
-4.4052	すぎ???
-4.8730	すぎ?の
-4.4052	すぎ?スイカ
-4.8730	すぎ??アリ
-4.8730	すぎ??火照?くる
-4.8730	すぎ?熱中
-4.1852	すなわち
-4.4052	すべて
-4.4052	すべ?
-4.8730	すべ?の
-4.8730	すべ?話
-4.4052	すみません
-4.4052	すっごい
-4.4052	すずしい
-4.4052	すす?
-4.8730	すでに
-3.6075	すご?
-4.4052	すご?!
-4.1852	すご?.
-4.4052	すご??ありがと?
-4.8730	すご??なに
-4.8730	すご??自己
-4.4052	すご?ありがと
-3.7100	すご?ありがと?
-4.8730	すご??
-4.4052	すご?ペッ?洋服
-4.8730	すご???オフィス
-4.8730	すご???気温
-4.4052	すご?凶暴
-4.8730	すご?強???好?
-4.4052	すご?思う
-4.8730	すご??構え?現?主義
-4.4052	すご?楽しい
-4.8730	すご?横断
-4.8730	すご?機械
-4.8730	すご?気持ち?
-4.8730	すご?雨
-4.8730	すご?高い
-4.1852	すいません
-4.1852	すい?
-4.8730	すい??
-1.8927	する
-4.0399	すく
-3.9312	す?
-4.1852	す?らし?
-4.8730	す?らし?ワールドカ??
-4.1852	ずっと
-4.8730	せが?れる
-4.8730	せが?予?
-4.8730	せっかく
-3.1965	せる
-4.4052	せん
-4.1852	がち
-3.7100	がい
-4.8730	がりがり
-4.4052	がんがん
-4.4052	がんば?!
-4.1852	ぜ?
-3.7720	ごきげんよう
-4.8730	ごと
-4.0399	ごみ
-3.7100	ごめんなさい
-3.5641	ごめ?
-4.4052	ごめ?急
-4.8730	ごめ?打つ
-4.8730	ごろごろ
-4.8730	ご??
-4.8730	ご??あと
-4.8730	ご???食べ?ご??あったか?
-2.1619	そうです?
-3.5641	そうね
-3.2532	そう?
-4.8730	そう??こと
-4.8730	そち?天?天?休み
-4.4052	そち?話しかける
-3.8443	そっ
-4.0399	そっち
-4.4052	そそ?.
-4.0399	そこ
-4.4052	そこ?中
-4.4052	そよ風
-2.4291	それ
-4.8730	それぞれ
-3.0480	そんな
-3.7720	そんなに
-3.2146	そ?
-4.4052	そ?まま
-4.8730	そ???洗濯
-4.8730	そ??食べ?の
-4.8730	たか?すぎ?
-4.1852	たべ?
-4.8730	たべ????
-4.8730	たべ??
-4.4052	たべ?スイカ
-3.6075	たま
-3.6557	たまに
-4.8730	たま?
-3.9312	たち
-4.8730	ただ?
-4.4052	たこ焼?
-4.1852	たこ焼??
-4.1852	たこ焼?プレー?ある
-4.1852	たこ焼?目
-4.8730	たい?かめ
-3.6557	たしかに
-3.2956	ため
-4.8730	たん
-3.1792	たくさん
-4.4052	たくましい
-4.1852	た?しい
-3.8443	ご覧
-3.3425	ご飯
-3.7100	おかしい
-4.8730	おか?する
-4.4052	おか?思う
-4.8730	おか?美味しい
-4.8730	おなじみ
-4.1852	おな?すく
-4.4052	おな?で?
-4.8730	おな?出?おな?臭?
-3.4241	おにぎり
-4.4052	おま??
-3.2146	おう
-4.4052	おう?好?
-4.4052	おぼれる
-3.6557	おっ
-4.8730	おっしゃ?とおり
-4.8730	おす
-3.6075	おすすめ
-3.7720	おお
-4.0399	おお?
-4.8730	おお?!
-4.8730	おで???
-4.4052	おで?入?て?の
-4.8730	おで?買?の
-4.0399	おい
-2.5122	おいしい
-4.8730	おいで
-4.8730	おしえる
-4.8730	おしっ?する
-4.8730	おし??髪の?ストレー?好??
-4.4052	おし?*
-4.4052	おし??する
-4.8730	おし??好?
-4.8730	おし?どんな
-4.8730	おし?可愛い
-4.0399	おし?
-4.8730	おめでと?ありがと
-4.4052	おもしろ?*
-4.8730	おもしろ??おもしろ?
-4.8730	おもしろ?おもしろ?
-4.4052	おもしろ?こと
-4.4052	おもしろ??
-4.8730	おもしろ?短髪
-4.8730	おもしろ?記?ある
-4.8730	おも??しり
-4.8730	おも???
-4.1852	おもろい
-4.1852	おや
-3.7100	おやすみ
-3.8443	おやすみなさい
-4.4052	おる
-4.4052	おれ
-4.4052	おろ?ソース
-4.8730	おん
-3.6075	おく
-4.8730	お?がい
-4.8730	お??
-4.4052	お??!
-2.9001	お?よう
-4.1852	お?らい
-4.4052	こが??
-4.1852	こな??
-4.8730	こな?て?家?こなせる
-2.2606	こと
-4.8730	こと???忘れ?する
-4.8730	こま?水?補給
-4.4052	こま?補給
-4.4052	こう
-4.8730	こぼ?熱?コーヒ?
-4.8730	こち?ありがと????
-4.4052	こち?ありがと????
-4.4052	こち?ある
-4.8730	こち??
-4.4052	こだわり
-3.8443	こだわる
-3.7720	こたつ
-4.0399	ここ
-4.8730	ここ???行く
-4.4052	こい
-3.7720	これ
-4.8730	ころ
-4.1852	こわ?なんで
-3.8443	こん
-3.5641	こんち
-4.1852	こんな
-2.2993	こんにちは
-4.8730	こんにち?
-3.6557	こんにち?!
-4.8730	こんにち???話??
-4.8730	こんにち??お?よう
-4.4052	こんにち???ぶ?どんな
-4.8730	こんにち????
-4.4052	こんにち??海
-4.4052	こんにち??行く
-4.8730	こんにち?ち?
-3.7100	こんばんわ
-2.7079	こんばん?
-3.2956	こ?
-4.4052	こ??大好?こ??頼?
-4.4052	こ??サラ?入れる
-4.8730	こ??沖?行く
-4.4052	こ??笑う
-4.0399	お互い
-4.8730	お互い?.
-4.8730	お互い?す?
-4.8730	お互い?仕方
-4.8730	さか?日差?辛い
-4.4052	さておく
-4.8730	さみしい
-4.8730	さだ
-4.8730	さっ?
-4.8730	さっ?する
-4.4052	さっ???
-4.8730	さっ??
-4.4052	さす?無?困???
-4.8730	さよ??.
-4.8730	さよ???
-4.8730	さよ??する
-4.8730	さよ??告げ??
-4.4052	さわ?
-3.3952	さん
-4.8730	さ?しい
-3.8443	きっと
-4.4052	きつね
-4.0399	きつ?
-4.4052	きつ??
-4.8730	きつ?仕?な???給?もら???給?ひど?
-4.1852	きめ細かい
-4.0399	きゅ?
-4.8730	きょ?ス??キ
-4.8730	きょ?暑い
-4.8730	きらきら
-4.4052	きら??スイカ
-4.8730	きる
-4.4052	きれ?
-4.4052	きれ?.
-4.4052	きれ??打ち上げ花火
-4.4052	きれ??海
-4.4052	きれ??見る
-4.4052	きれ?ある
-4.4052	きれ?ところ
-4.8730	きれ?ス?ドグラス
-4.8730	きれ?可愛い
-4.8730	きれ?思う
-4.4052	きれ??海
-4.1852	きれ?海
-4.8730	きれ?線?花火
-4.8730	きれ??綺?
-4.8730	きれ????
-4.8730	きく
-4.8730	お化?家
-4.8730	お化?部?出?しれ?
-4.8730	お前
-4.4052	お好み焼?好?
-4.4052	お好み焼?好??
-4.8730	お子さ??名前
-3.8443	お家
-4.8730	お寺
-4.4052	お?かけ
-3.4885	お昼
-4.8730	お正?過ご?
-4.8730	お母さ?
-4.8730	お湯
-4.1852	お疲れさま
-4.1852	お疲れ?
-3.8443	お父さん
-3.2956	お盆
-3.8443	お笑い
-4.8730	お茶
-4.4052	お菓?好??
-4.8730	お菓?添?物
-4.1852	お話
-3.6075	お?
-4.8730	ちがう
-4.8730	ちっち?
-4.8730	ち??ち?
-4.4052	ち??美味しい
-4.0399	ち?
-3.4241	ち?*
-3.3952	ち?
-4.4052	ち?ワン
-4.0399	ち?と
-4.8730	ち?ぽ?具
-4.8730	ち?ち?
-4.1852	つくれ?しれ?信用度
-4.8730	つかまえる
-3.1965	つける
-4.4052	つと
-4.0399	つながる
-4.4052	つぼ焼?美味しい
-4.8730	つまらな?.
-4.8730	つまらな?サ?ー
-4.8730	つまらな??????
-4.4052	つま?
-4.8730	つ?
-4.4052	つ??良?帽?欲しい
-4.8730	つ???つ??
-4.4052	つ??しれ?
-4.8730	つ??の
-4.1852	つ?行く
-4.8730	つ??買?しま?.
-4.8730	つ????皮
-4.4052	つもり
-3.7720	つらい
-4.8730	つ?味
-4.4052	づくり
-4.8730	づらい
-4.1852	て?れる
-3.2739	て?
-4.0399	て?!
-4.8730	て?.
-2.8187	て??
-4.4052	て??あな?こと
-4.8730	て??そ?
-4.8730	て??たま
-4.4052	て??バイ?人?関?大?
-4.8730	て??今日
-4.8730	て??京都
-4.8730	て??塩??つける
-4.1852	て??得意
-4.4052	て??新幹?楽
-4.8730	て???海
-4.4052	て??????行く
-4.1852	て??海
-4.8730	て??自転?大好?
-4.8730	て????寝る
-4.8730	て??過??
-4.8730	て?する
-4.8730	て?そ?
-4.8730	て?おいしい
-4.0399	て?こと
-4.4052	て?ち?ど
-4.8730	て?て?なで?なで?
-3.0356	て?の
-4.4052	て???どの
-4.4052	て?プ?ル
-4.8730	て?よく
-4.8730	て?スイ?
-4.8730	て?ゼロ
-3.7720	て??
-4.8730	て??*
-4.0399	て??.
-3.4241	て???
-4.4052	て???どんな
-4.8730	て?????見れ??
-4.8730	て???博?食?美味しい
-4.8730	て???????
-4.4052	て???
-4.8730	て??鰹?まぶ?
-4.8730	て?今日
-4.8730	て????な??
-4.8730	て?到?する
-4.8730	て?同じ
-4.8730	て?台風
-4.4052	て?困??欲しい
-4.8730	て?図書館
-4.8730	て?変え???な?*
-4.8730	て?夕飯
-4.4052	て?大丈夫
-4.8730	て?家庭
-4.8730	て?学?な?
-4.4052	て?応用
-4.8730	て???涼???
-4.8730	て?本当に
-4.8730	て??海
-4.8730	て?梨
-4.8730	て?楽しめ?奥
-4.4052	て?波
-4.8730	て?海
-4.8730	て??しる
-4.8730	て??嬉し???連?ドラ?影響
-4.1852	て?聞く
-4.8730	て?行く
-4.4052	て?質?答え
-4.8730	て????
-4.8730	て???嫌う
-4.8730	て?間違?夕方
-4.8730	て?飽きる
-4.8730	でかい
-2.7137	できる
-4.1852	で??
-4.4052	で??かき氷
-4.8730	で?くる
-4.4052	で?の
-4.8730	で?も?
-3.7100	で??
-4.4052	で???
-4.4052	で?子ど?遊?
-3.9312	とかす
-4.0399	とおり
-3.3952	ところ
-4.4052	とって?楽し?
-4.8730	とって?美し??見る
-4.8730	とま??
-4.1852	と?*
-4.8730	と??
-4.4052	と???財?携帯
-4.4052	と??用?完璧
-4.4052	と?????
-3.5641	と?ある
-4.8730	と???疲れる
-4.4052	と?仕?奥
-4.4052	と??する
-4.4052	と?大???定?よく
-4.4052	と?履物
-4.8730	と?怖い
-4.8730	と?見る
-4.8730	と?貴??管?細?注?払う
-4.1852	とれる
-4.8730	とんぼ
-4.8730	とんこつ
-4.4052	と?
-4.0399	と?*
-4.8730	と??
-4.4052	と??ビタミン
-4.4052	と??始め?しり
-4.8730	と???ゴール?
-2.9184	と?する
-4.8730	と?せる
-4.8730	と?ちの
-4.8730	と?の
-4.8730	と?はま??
-4.4052	と?はま?の
-4.4052	と??散歩
-4.1852	と??
-4.8730	と?ノ?ベル
-4.4052	と???盛り上が?
-4.4052	と???盛り上が?て??
-4.4052	と???続け?
-4.4052	と?勝つ
-4.0399	と?好?
-4.8730	と?始め?
-4.4052	と?惹?れる
-3.7720	と?楽し?
-4.4052	と?盛り上が??
-4.8730	と?続く
-4.8730	と?行く
-3.7100	と?面白?
-4.4052	と?面白?の
-4.8730	ど
-4.4052	どち??
-4.8730	どち?良?製?思う
-4.8730	どち?なに
-4.4052	どち????あ?
-4.1852	どち??
-4.8730	どち?好??
-4.4052	どち??
-4.4052	どち??
-3.3184	どっち
-3.7720	どの
-4.8730	ど?
-4.8730	ど?*
-4.0399	ど??
-4.4052	ど??する
-3.6075	ど?
-4.8730	ど?ある
-4.8730	ど?すご?の
-4.8730	ど?する
-4.4052	ど?それ
-4.4052	ど?よく
-4.8730	ど??
-4.8730	ど?出かけ?予?ある
-4.8730	ど?優?する
-4.4052	ど?好??
-4.8730	ど?売??
-4.8730	ど?寝る
-4.4052	ど?携帯
-4.8730	ど?有名
-4.4052	ど?泳?行く
-4.8730	ど?海
-4.8730	ど?海水浴
-4.8730	ど?特に
-4.8730	ど??
-3.7720	ど?行く
-4.8730	ど?買?行く
-4.8730	ど?買?選択肢
-4.8730	ど?面白??
-4.8730	ど?面白???
-3.1015	ど?たしまして
-3.7720	ど??こと
-4.1852	ど??意味
-4.4052	ど??飲み物
-4.4052	ど?て?海
-3.5641	ど?
-4.8730	ど??みたい
-4.8730	どー???自由
-4.8730	どー?!
-4.1852	どもる
-3.0607	どんな
-4.4052	どんなに
-4.8730	ど?大きい
-4.8730	ど?時間
-4.8730	ど?頑張?天?台風
-4.4052	ど?食べ??
-4.0399	なくな?
-4.8730	なくな?*
-4.8730	なくな?.
-4.8730	なくな?かけ??.
-4.8730	なくな???する
-3.8443	なくす
-4.8730	ながめ?
-4.8730	なおかつ
-4.1852	なさる
-4.8730	なで?
-4.8730	なで?ありがと?
-4.4052	なで?くださる
-3.6557	なで?なで?
-2.9574	なに
-3.1464	な?
-4.0399	な?*
-4.1852	な?.
-3.9312	な??
-4.8730	な?良??スイカ
-4.4052	な??わか??つぼ焼?楽し?
-4.4052	な??スイカ
-4.8730	な??世話
-4.4052	な??修学??思い出??
-4.8730	な??合う
-4.4052	な??宮??
-4.1852	な??日差?強?すぎ?辛い
-4.8730	な?????読?
-4.1852	な????させ?くださる
-4.8730	な??買?
-4.1852	な??金串
-4.8730	な??難しい
-4.8730	な?ありがと?
-4.8730	な?かき氷
-4.8730	な?かに
-4.8730	な?お
-4.8730	な?え?
-4.8730	な?な?
-4.8730	な?な?ど?
-4.0399	な?の
-4.4052	な??
-4.4052	な??*
-4.4052	な???
-4.8730	な??
-4.8730	な?バ?ベキュー
-4.4052	な?・
-4.4052	な?わか?コンピュータ
-4.8730	な?カエル
-4.8730	な?スイカ
-4.8730	な??.
-4.4052	な???
-4.4052	な????エ?
-4.8730	な???オーロラ
-4.4052	な??ビ?チバレー
-4.4052	な??当選
-4.4052	な??
-4.8730	な?困??エアコン
-4.8730	な?夕方
-4.4052	な?大
-4.8730	な???できる
-4.8730	な?方
-4.8730	な?暑い
-4.4052	な?日
-4.4052	な?日本
-4.8730	な?日本人
-4.4052	な???寝る
-4.8730	な?楽しみ
-4.4052	な??する
-4.4052	な?沖??
-4.8730	な?生き????タイマ?
-4.8730	な?生き???効?悪?
-4.4052	な??もっと
-4.8730	な?美人
-4.8730	な?自?磨??自信
-4.4052	な?蔦
-4.8730	な?読???わあ
-4.8730	な????
-4.8730	な?限界
-3.9312	な??
-4.8730	なめる
-3.1792	なるほど
-4.4052	ならでは
-3.9312	なれる
-3.4885	なんか
-4.8730	なんと?
-4.8730	なんと?な?.
-4.0399	なんだ?
-4.8730	なんだ?趣?ある
-3.1965	なんで
-3.2956	な?
-3.7100	な?.
-3.7720	な??
-4.8730	な??
-4.8730	な??かき氷
-4.8730	な???
-4.8730	な??ノン
-4.4052	な??モバイル
-4.8730	な??ワン??フォーゲル
-4.4052	な???エ?
-4.8730	な??哲学
-4.8730	な????開け?寝る
-4.8730	な??感動
-4.4052	な??怖い
-4.4052	な???
-4.8730	な??携帯
-4.4052	な??暖房
-4.8730	な??日差?暑い
-4.4052	な??本当に
-4.8730	な??気晴らし
-4.8730	な??気持ちよい
-4.8730	な??海
-4.1852	な??熱中
-4.8730	な??目
-4.8730	な???多い
-4.8730	な???する
-4.8730	な??食べ?の
-4.8730	な??鬼
-3.7720	な?くる
-4.8730	な?しま??オーク
-4.8730	な?しょ?
-4.4052	な?しれ??海
-4.4052	な?する
-4.4052	な?ごめ??1
-4.4052	な?そう?
-4.8730	な?そり?発??
-4.1852	な?こと
-3.9312	な?ち?
-4.8730	な?て?.
-4.4052	な?て??
-4.1852	な?て?w
-4.1852	な?な?
-4.8730	な?な??な?
-4.8730	な?な?ば
-4.4052	な?な??
-4.8730	な?の
-4.8730	な?ほしい
-4.8730	な??
-4.0399	な??
-3.9312	な??
-4.0399	な?ニュース
-4.4052	な?パスポ??重?度
-4.8730	な?もん
-4.8730	な?れる
-4.4052	な?カルピス
-4.8730	な?サービス
-4.8730	な?スノ?ボ??楽しい
-4.8730	な?タコ
-4.4052	な??
-4.8730	な???
-4.8730	な??バレーボ?ル
-4.8730	な?????
-4.8730	な???仕?好??
-4.8730	な??スポ??する
-4.4052	な?券売
-4.8730	な?夏バ?ひど?
-4.4052	な???さん
-4.8730	な?対?する
-4.8730	な?後味
-4.8730	な?日本?表現
-4.8730	な??
-4.8730	な?楽しみ
-4.4052	な?気持ち
-4.4052	な??つける
-4.8730	な?注???
-4.8730	な?海
-4.0399	な?熱中
-4.4052	な?知?て?耳
-4.4052	な?経?学
-4.8730	な?聞く
-4.8730	な?脱水
-4.8730	な?行楽
-4.8730	な?趣味
-4.8730	な?雌花
-4.8730	な??
-4.4052	な?風邪
-4.4052	におい
-4.8730	にんじ?味
-4.8730	にんじ?好??
-4.4052	ぬれる
-4.8730	ぬ?
-4.8730	ね?まんま
-4.8730	ね?台風
-1.9304	の
-4.8730	のせる
-4.8730	のぼ?こい
-4.8730	のぼ?ち?めし
-4.4052	のぼ?の
-4.4052	のぼ?上げ???
-4.8730	のぼ?力強?
-4.8730	のぼ?欲しい
-4.8730	はかど?の
-4.8730	はかど??
-4.8730	はかど???
-4.4052	はかど?読書
-3.6557	はじめまして
-4.4052	はじめ?
-4.8730	はじめ??
-4.8730	はじめ??ぶ?欲しい
-4.8730	はしゃ?
-4.8730	はしゃ?こと
-4.4052	はたち
-4.8730	はおる
-3.8443	はちみつ
-4.4052	はね?仕?趣味
-3.6557	はま?
-4.8730	はま??
-4.4052	はま??カフェ
-4.0399	はま?て?の
-4.8730	はま?の
-4.8730	はま??
-2.8041	は?
-3.9312	は?!
-3.7720	は?.
-4.4052	は??
-4.0399	は??
-4.4052	は??*
-4.4052	は???ビ?ル
-4.4052	は???メロン
-4.8730	は?????
-4.8730	は??あな?バイク
-4.4052	は??ありがと?ど?たしまして
-4.4052	は??あれ
-4.8730	は??かな?深?足
-4.4052	は??ひと?静か
-4.8730	は??ま??ア??
-4.8730	は???
-4.4052	は??マスク
-4.8730	は??もちろん
-4.8730	は??もも
-4.4052	は??よい
-4.4052	は??よる
-4.1852	は??サーフィン
-4.4052	は??スイカ
-4.8730	は???ポイン?増や?
-3.6557	は???
-4.4052	は??今日
-4.4052	は????メロン
-4.4052	は????ブドウ
-4.4052	は???ある
-4.4052	は??健康
-4.4052	は????で???相性
-4.8730	は??可愛い
-4.8730	は??好???食べ?過ぎ?注?する
-4.8730	は??好??馬
-4.8730	は??夏休み
-4.0399	は??大??恵み
-4.8730	は??大好?ボ??ゲー?好?
-4.4052	は???果物
-4.8730	は??子犬
-4.1852	は??子?炎天?中
-4.1852	は???行く
-4.4052	は????
-4.4052	は??憧れる
-4.4052	は??暑い
-4.4052	は??早起?する
-4.8730	は??晴れる
-4.8730	は??果てしな??家?苦?
-4.4052	は??楽しい
-4.4052	は??正??食生活
-4.0399	は???つける
-4.4052	は??油断
-4.8730	は??海
-4.8730	は??温?大好??温???
-4.0399	は??特に
-4.8730	は???イチゴ
-4.8730	は??肌寒い
-4.8730	は??部?中
-4.8730	は??釣?行く
-4.8730	は??頑張??ほしい
-4.8730	は??髪
-4.8730	は?ありがと
-4.1852	は?すご?
-4.0399	は?がんば?くださる
-4.8730	は?そっ
-4.8730	は?おお?
-4.4052	は?こんにち?
-4.8730	は?こんばん?
-4.8730	は?さす?
-4.8730	は?お疲れ?
-4.8730	は?は?
-4.4052	は?は?ごめんなさい
-4.4052	は?は??
-4.8730	は?は?
-4.8730	は?ふ?*
-4.8730	は?ほ??
-4.4052	は?ま?
-4.8730	は??つかれ?
-4.8730	は??
-4.8730	は?ドン
-4.4052	は?わか?
-4.8730	は?よろしく
-4.8730	は?サンキュー
-4.8730	は??
-4.8730	は?大丈夫
-4.8730	は?応援
-4.4052	は?長靴
-3.8443	はー?
-4.4052	はー?!
-4.8730	はー?.
-4.4052	はー?ど?
-4.4052	はー?よろしく
-3.7720	は?*
-4.4052	は?は?は?*
-4.8730	は種
-4.4052	ば?ば?ば?*
-4.1852	ばれる
-4.8730	ば?
-4.4052	ば?*
-4.8730	ひたる
-4.8730	ひさし
-4.4052	ひと??
-4.4052	ひと?見る
-4.8730	ひと?1
-4.8730	ひと??
-4.4052	ひと?過ぎ?
-4.1852	ひど?
-4.4052	ひど?ごめ?
-4.4052	ひど?の
-4.8730	ひど?バイ?する
-4.8730	ひま
-4.4052	ひ?て?
-4.4052	ひ?て?の
-4.8730	ひ?大??風邪
-4.1852	ひ??つける
-4.8730	ひ??え?
-4.8730	びしょ濡?な?びしょ濡?行く
-4.8730	びしょ濡?な?台風
-4.1852	びっくり
-4.8730	ふける
-4.8730	ふざけ?て??
-4.4052	ふ??座
-4.4052	ふ??
-4.8730	ふ?好?
-4.8730	ふー??なに
-4.8730	ふー??マンゴー
-4.8730	ふー??頭
-4.4052	ふ?*
-4.4052	ふ?ふ?
-4.4052	ふ???
-4.4052	ぶっ
-4.8730	ぶど??
-4.8730	ぶど?好?
-4.8730	ぶど??つ?
-4.8730	ぶど?食べ??ぶど?好?
-4.8730	ぶ??
-4.8730	ぶ??安い
-4.8730	へええ
-4.8730	へえ?
-4.8730	へっ
-4.8730	へ?!
-4.8730	へ???!
-4.8730	へ???知り合??自転?は?
-4.4052	へ?へ?
-4.1852	へ??
-3.6557	へー
-4.8730	へ?あつ?
-4.8730	へ?じす
-4.8730	へ?きたな?
-4.8730	へ?中
-4.8730	へ?大
-4.8730	へ?汚い
-4.8730	べたべ?する
-4.8730	べらぼ?高い
-3.3952	ほしい
-3.6075	ほとんど
-4.1852	ほほ
-4.8730	ほ?!
-4.4052	ほ??
-4.8730	ほ?良?停電
-4.8730	ほ?良?台風
-4.4052	ほ????
-4.8730	ほ??日本
-4.4052	ほ?くど??
-4.8730	ほ?おお?
-3.4551	ほ??
-4.8730	ほ?チョコ
-4.4052	ほ?よく
-4.8730	ほ?下げ?
-4.8730	ほ?優れる
-4.4052	ほ?好??雨
-4.8730	ほ?好?スイカ
-4.4052	ほ?好?梨
-4.4052	ほ?多い
-4.8730	ほ?安?する
-4.8730	ほ?思う
-4.8730	ほ?有効
-4.8730	ほ??な?カロリー
-4.4052	ほ???つながる
-4.8730	ほ?羊羹
-4.8730	ほ?髪
-3.8443	ほんと
-3.9312	ほんとに
-4.4052	ほんと?!
-4.1852	ほ?*
-4.8730	ぼ??
-4.8730	ぼ?楽し?
-4.4052	ぼーっと
-4.4052	ぼ?ち?な?ち?
-3.7100	ま
-4.8730	まくる
-4.8730	まじめ
-4.4052	まして
-4.8730	まさかの
-4.8730	まさし
-4.4052	まて?せる
-4.4052	まとめ買?する
-4.8730	まと?
-4.8730	まね
-4.8730	まぶ?
-4.4052	まま
-3.4551	ま?
-3.3952	ま?.
-4.8730	ま???
-4.8730	ま??夕張
-4.4052	ま??売れる
-4.8730	ま??気?
-4.1852	ま?しょ?
-4.8730	ま?そうです?
-4.1852	ま?それ
-4.8730	ま?おう
-4.8730	ま?おいしい
-4.8730	ま?こ??頼?こ??頼??
-4.8730	ま?ち?*
-4.4052	ま?まじま?*
-4.4052	ま?ま?
-4.4052	ま?ま??きっと
-4.4052	ま?ま??ま?ま?
-4.4052	ま?ま?スイカ
-4.8730	ま??
-4.4052	ま??
-4.8730	ま?多?
-4.4052	ま?大?雨
-4.8730	ま?天?天
-4.8730	ま??過ご???降る
-4.8730	ま?学??学?気楽
-4.4052	ま?思う
-4.8730	ま?日本人
-4.8730	ま?普??仕?大??支?仕?出?しれ?
-4.1852	ま?海
-4.8730	ま?自然?自然?歌う
-4.4052	ま?詮索
-4.4052	ま?遊?
-4.1852	まわる
-4.8730	み
-3.4885	みかん
-3.0235	みたい
-4.4052	み??
-4.8730	み?味噌?作る
-4.4052	み?好?.
-3.3952	みんな
-4.1852	み?
-4.8730	み?!
-4.0399	み??
-4.1852	み??ま?面白????????夢
-4.4052	み??尾瀬
-4.8730	み??楽
-4.4052	み?おいしい
-4.8730	み?て?天?予?
-4.4052	み??
-4.4052	み??
-4.8730	み?パリ
-4.8730	み???宝?大好?
-4.4052	み?打ち上げ花火
-4.8730	み??
-4.8730	み?楽し?
-4.8730	み?蔦
-4.1852	み???持て余す
-3.1015	?
-3.7720	?!
-3.2739	?*
-4.4052	?1
-3.8443	??
-4.8730	??
-4.8730	?
-4.0399	??
-4.1852	???
-3.9312	??
-4.1852	??!
-3.7720	??*
-4.8730	??こい
-4.8730	??行く
-4.8730	???
-4.4052	??好?
-4.4052	??好?きつね
-4.8730	??好??
-4.8730	??大好?
-4.8730	??有名
-4.8730	??美味しい
-4.8730	??食べ??空?夜空
-3.9312	?
-2.8657	??
-4.4052	??
-4.8730	?????*
-4.4052	???
-4.8730	??人
-4.8730	??使?余る
-4.8730	??活用
-4.0399	?
-3.2146	??
-4.8730	???
-2.7970	?
-4.8730	??
-4.4052	?
-4.4052	?ば???セブン
-3.9312	???
-4.8730	??シロ??
-4.4052	??味
-4.4052	??好?
-4.4052	??練乳
-4.8730	?????欲しい
-4.4052	?する
-4.8730	?たん
-4.8730	?ち?まえる
-4.4052	?ぱ?ある
-4.8730	?ぱ?な?大?ごみ
-4.8730	?ぱ?スイカ
-4.4052	?ぱ?出?くる
-4.8730	?ぱ?知?それ
-4.8730	?ぱ?見る
-4.8730	?ぱ?食べ??くだも?
-4.4052	?ぱ?食べ??庭
-4.8730	?ぱ?食べ?て?大丈夫
-4.4052	?ぱ?食べ?スイカ
-4.4052	?ぱ?飲??日?予防
-3.1015	?
-4.8730	??????する
-4.1852	??する
-4.8730	??どの
-4.8730	???人
-4.8730	??以?高い
-4.8730	??通り
-4.8730	??.
-4.4052	???
-4.8730	????バイ?寒い
-4.8730	?
-4.8730	?
-4.0399	??塩
-4.8730	??
-4.8730	???
-4.8730	?????笑い
-4.8730	???スイカ
-4.8730	??お
-4.8730	??する
-4.8730	??とんぼ
-4.8730	??は??ぼちぼち
-4.8730	??は??昼?終わ?楽しみ
-4.8730	???
-4.0399	???
-4.8730	??もう
-4.8730	??よく
-4.4052	??クーラー
-4.4052	???
-4.4052	????
-4.4052	???ぱ?おう
-4.4052	????つ?こと
-4.8730	??奥
-4.4052	??応用
-4.8730	??海
-4.4052	??知?!
-4.8730	???よく
-4.8730	??自由
-4.4052	??萩
-4.8730	??行く
-4.4052	?あら
-4.8730	?ありがと
-4.4052	?ありがと?
-4.4052	?ある
-4.4052	?すご?好??くだも?
-4.8730	?せんべ?スキ
-4.8730	?せんべ?買??奥
-4.4052	?ざす
-4.8730	?そ?
-4.1852	?つかれ?さま
-4.4052	?ところ
-4.8730	?な??らし?大人
-4.8730	?な??
-4.8730	?に?ごっ?
-4.0399	?は?
-4.8730	?は?*
-4.4052	?ばあち?
-4.8730	?へ??
-4.4052	??.
-4.4052	???*
-4.8730	??
-4.8730	??今日
-4.1852	??
-4.1852	??
-4.1852	???
-4.1852	?よ?
-4.8730	?ジメジメ
-4.8730	??!
-4.8730	??*
-3.9312	??
-4.8730	????家??人
-4.4052	????くる
-3.9312	??
-4.8730	??人
-4.4052	??ぶ?.
-4.4052	?仕??する
-4.8730	?仕?終わ??
-4.8730	?仕?頑張?くださる
-4.4052	?休み
-4.4052	?会う
-4.8730	?供物
-4.4052	?値段
-4.4052	?利
-4.4052	?券売
-4.1852	?刺身
-4.8730	???!
-4.8730	?半身
-4.8730	?勧める
-4.4052	?勧?海水浴
-4.4052	??み?こと
-4.4052	??
-4.4052	?好み
-3.7720	?好??
-4.8730	?好???
-4.8730	?大?
-4.8730	?大?あざ
-4.4052	?大?ありがと?*
-4.1852	?大?する
-4.1852	?天?良?もん
-3.9312	?声
-4.8730	?家???暮らす
-3.5641	?寿司
-4.4052	?年?.
-4.4052	?増す
-4.4052	?墓参?行く
-4.8730	???ぱ?ある
-4.8730	??並ぶ
-4.1852	??多い
-4.4052	??忙し?
-4.4052	?弁?おいしい
-4.4052	?弁?食べ??食????
-4.8730	?引き立つ
-4.0399	??
-4.8730	???オーク
-4.8730	?当地
-4.8730	?役
-4.0399	?持つ
-4.1852	?散歩
-4.4052	?水
-3.9312	?用?する
-4.8730	?祭???祭?参加
-4.8730	?祭?と?
-4.8730	?祭?バター
-4.8730	?祭?好??
-4.0399	?祭?行く
-4.8730	??好??
-4.8730	?自?願う
-4.8730	?蕎麦
-4.8730	?趣味
-4.8730	?足?
-4.8730	?身?感じ?こと
-4.8730	?近所
-4.8730	??ほろ???
-4.8730	???好??
-4.8730	???人
-4.8730	??好??
-4.8730	??買?行く
-4.4052	??飲??お話
-4.8730	??飲?れる
-4.8730	?重?日当た?良?
-4.8730	?関?な?パパイヤ
-4.8730	?風??
-4.1852	?風?あが?食べ?の
-4.8730	?風?入れる
-4.8730	?風??流す
-4.8730	?
-1.6604	?
-4.8730	?たい
-4.4052	?ぶ
-4.8730	??*
-4.4052	??.
-4.4052	???*
-4.4052	???あな??
-4.8730	???それ
-4.8730	??????日
-4.1852	????暮らし
-4.4052	????大丈夫
-4.4052	???家?行う
-4.4052	???起こす
-4.8730	???男性
-4.4052	????
-4.4052	???鼻
-4.8730	??えっ
-4.8730	??そんな
-4.1852	??なんで
-4.4052	?
-4.8730	?
-3.3952	?
-3.5641	??
-4.4052	?ー
-4.1852	?っしゃ??
-4.8730	??!
-4.8730	??しい
-2.1319	?
-4.8730	?おす
-4.4052	?さい
-3.4551	?しい
-4.8730	??
-4.4052	??ある
-4.1852	??
-4.4052	?んな
-2.3061	?
-4.4052	??食べ?.
-4.0399	??
-4.0399	??.
-4.4052	???*
-4.8730	???座?参加
-4.1852	???日焼?止?苦?
-4.8730	????塩??
-4.4052	???熱中
-4.8730	??しれ??大?!
-4.8730	??トリ?
-4.8730	??スイカ
-4.8730	??健康
-4.4052	??命
-4.1852	??口
-4.8730	??天??
-4.4052	??思う
-4.4052	??靴
-4.4052	??風邪
-3.0875	?
-3.1965	??
-4.8730	??ふ
-4.1852	???
-4.1852	???.
-4.8730	????それ
-4.4052	????の
-4.4052	???する
-4.1852	チャンネル
-4.8730	チャンス
-4.8730	チャ?
-3.4551	チョコ
-4.1852	チェリー
-4.8730	チ??こと
-4.8730	チ??入団
-4.4052	チ???
-3.9312	チ?ズ
-4.4052	ハロー
-4.8730	ハロウィン
-4.4052	ハワイ
-3.6075	ハンバ?グ
-4.8730	ハンコ
-4.4052	ハッピ?
-4.8730	ハッピ?エン?気持ち
-4.4052	ハ?ドル
-4.8730	ハ???
-4.4052	ハ??こと
-4.4052	ハ??て?ゲー?泣??
-4.4052	ハ??の
-3.9312	ニューヨーク
-3.8443	ニュース
-4.8730	ニンニク
-3.7720	パリ
-4.8730	パリパリ
-4.8730	パワー
-3.7100	パン
-4.8730	パン?可愛い
-4.8730	パイナップル
-3.7100	パソコン
-4.4052	パチンコ
-4.8730	パック
-4.4052	パッション
-4.4052	パナソニック
-4.1852	パパイヤ
-4.4052	パフェ
-4.4052	パ?リーグ
-4.8730	パ??おすすめ
-4.8730	パ???*
-4.8730	パ??液
-4.4052	パ?ク
-4.8730	ヘルシー
-4.8730	ヒューマン
-4.8730	プラモ?
-4.4052	プライバシー
-3.9312	プリンタ
-4.8730	プロフェ?ョナル
-3.9312	プログラミング
-2.7763	プ?ル
-4.8730	トラン?する
-4.8730	トラン??
-4.8730	トラン?楽しい
-4.8730	トリ?
-3.8443	トレーニング
-4.8730	トロ
-4.1852	トロピカル
-4.4052	トン
-4.8730	トン?好??
-4.8730	トン?大?飛?
-4.8730	トン?飛?
-4.4052	トイレ
-4.8730	ト???ぱ?入れる
-4.8730	ト???
-3.8443	ト??ト??
-4.8730	ト??冷?
-4.4052	ト??出??小学校
-4.8730	ト??味
-4.1852	ト??可愛い
-4.8730	ト???な?
-4.4052	ト???大きい
-4.8730	ト??見せ?
-4.8730	ト??面白?
-4.8730	ト?ス?マ?ガリン
-4.8730	ベン?座???話??ベン?離れる
-4.8730	ベス??
-4.8730	ベス??スイカ
-4.8730	ベス?可愛い
-4.8730	ベス??な?の
-4.8730	ベス?違い
-4.8730	ベタ
-4.4052	ペッ??
-4.4052	ペッ?飼?て??
-4.8730	ペッ?飼??
-4.8730	ドラえも?.
-4.8730	ドラえも?ロボッ?ドラえも?大好?
-4.8730	ドラえも?オープニング
-4.8730	ドラ?好?
-4.8730	ドラ?撮影
-4.8730	ドラ??よく
-4.8730	ドラ?見る
-4.8730	ドラ?辛い
-4.1852	ドライ?する
-4.4052	ドライ?なんか
-4.4052	ドライ?好??
-4.8730	ドライ?愛?楽し?
-4.4052	ドライ?晴??
-4.8730	ドキドキ
-3.6557	ドコモ
-4.8730	ホルモン
-4.4052	ホン?良?
-4.8730	ホン?深?
-4.8730	ホッ?
-4.8730	ホ?ル
-4.4052	ホ??パ??
-3.8443	ノリ
-4.8730	ノリノリ
-3.9312	ノ?ベル
-4.0399	ブリ
-4.0399	ブルー
-4.1852	ブック
-4.1852	ブドウ
-4.8730	ブ??
-4.8730	ボラン?ア
-4.8730	ボサボサ
-4.8730	ボストン
-4.4052	ボタン
-4.8730	ボ?ル
-4.8730	ボ??ゲー?大好?
-4.4052	ピンク色
-4.8730	ピエロ
-4.8730	ポッ?入れる
-4.8730	ポッ??
-4.4052	ポテトチ??ス
-4.4052	ポピュラー
-3.7100	マラソン
-4.8730	マリア?諸島
-3.9312	マリオ
-4.4052	マン
-4.8730	マントル
-4.0399	マンボウ
-4.8730	マイ
-4.4052	マジ
-4.8730	マスク
-3.7720	マスクメロン
-4.8730	マスター?どっち
-4.8730	マスター?相性
-4.8730	マスター?美味しい
-4.8730	マダガスカル
-4.1852	マツ?好?
-4.1852	マツ?好??
-4.8730	マツ?工場
-4.8730	マニピュレータ
-3.7100	マニュアル
-3.8443	マニア?
-4.8730	マ?ク
-3.9312	ミルク
-4.4052	ミッキー
-4.4052	ミニストッ?好?
-4.8730	ミネラル
-4.4052	ナン
-4.1852	ナン??
-4.4052	ナン?敷?高い
-3.9312	ナス
-4.1852	バランス
-4.0399	バレ
-3.5247	バレンタイン
-3.8443	バレーボ?ル
-4.8730	バレ?
-4.4052	バレ?て??
-4.4052	バイ?ある
-4.8730	バイ?する
-4.4052	バイ??
-4.8730	バイ???
-4.1852	バイク
-4.1852	バスケ
-4.4052	バッグ
-4.8730	バナ?バナ?酵?多い
-4.8730	バニラ
-4.1852	バ?
-4.1852	バ?ベキュー
-4.0399	ビヤ
-4.8730	ビキ?ひとつ
-4.0399	ビタミン
-4.4052	ビックリ
-4.1852	ビニール
-3.7720	ビ?チバレー
-3.4241	ビ?ル
-4.8730	ビ???つ??
-4.4052	ビ??行く
-4.1852	フランス
-4.8730	フランス?覚え?の
-3.8443	フリー
-3.7100	フリーター
-4.4052	フルー??*
-4.8730	フルー?アレルギー
-3.8443	フルー?中
-4.4052	フルー?入??
-4.1852	フルー?美味しい
-4.8730	フルー?酵?強?感じ
-4.4052	フレン?ト?ス?大好?!
-4.4052	フレン?ト?ス?美味しい
-4.4052	フレーバ?
-3.7100	ファミコン
-4.8730	ファンタジー
-4.8730	ファース??ン
-4.4052	ファ?ョン
-4.8730	フィンラン?行く
-3.9312	フェリー
-4.8730	フジ
-4.4052	ネギ
-4.8730	ネコ
-4.0399	ネタ
-4.8730	ネッ?ラジオ
-4.1852	ネッ?ショ?ング
-4.4052	ネッ?予?する
-4.4052	ネッ?探?
-3.7720	メリ?
-2.8826	メロン
-4.4052	メートル
-3.9312	メール
-4.4052	メ?ージ
-4.1852	モバイル
-3.7720	モモ
-4.4052	モーニング
-4.8730	モー?限?する
-4.8730	モ?
-4.1852	モ?ー
-4.8730	モカ
-4.8730	ヤ?ー
-4.8730	ヤ?腹?
-3.3425	ヨーロ?
-4.8730	ラベン??
-4.0399	ラン
-3.6557	ランニング
-4.1852	ラン?でかけ?の
-4.1852	ラン?楽しみ
-3.5641	ラーメン
-4.8730	ラ?ー
-4.8730	ラ?ュ
-4.4052	ラ?
-4.4052	ラ?ライ?矢澤
-4.8730	ラ?感じ
-4.1852	ライン
-4.8730	ライ??
-4.4052	ライ?好??ブルー
-3.9312	ライオン
-4.1852	ラジオ
-4.4052	リボン
-3.9312	リラ?ス
-4.8730	リン?入?の
-4.1852	リンゴ
-4.8730	リアルタイ?検索
-4.1852	リス
-4.1852	ルビ?
-4.4052	レ
-4.4052	レベル
-3.7100	レモン
-4.8730	レーザー
-4.8730	レ?欲しい
-4.4052	レジ
-4.8730	レジャー
-4.8730	ロボッ??
-4.8730	ロボッ?かっこい?
-4.8730	ロボッ?かっこい?レベル
-4.8730	ロボッ?かっこよ?
-4.8730	ロボッ??好?の
-4.8730	ロボッ?乗る
-4.4052	ロボッ?好?
-4.8730	ロボッ?好??
-4.8730	ロボッ?興味
-4.8730	ロボッ?見る
-4.8730	ロボッ?軽金?使?れる
-4.8730	ロマンチック
-4.8730	ロング
-3.8443	ローソン
-4.4052	ロ?
-4.8730	ロ?ンロール
-4.1852	ワン
-4.4052	ワンピ?ス
-4.0399	ワールドカ??
-4.4052	ワーク
-4.1852	ワイワイ
-4.4052	ワイン
-4.8730	ワサ??
-4.8730	ワサ?苦???
-4.8730	ヶ?ある
-3.0739	・
-3.6075	?
-4.8730	?
-3.9312	?
-4.8730	?ージ
-3.4885	?ー
-4.8730	?
-4.8730	??
-4.8730	?フォン
-4.8730	??する
-4.8730	??な????見やすい
-4.8730	??シャー??
-4.8730	??スペシャル
-4.4052	???
-4.8730	???
-4.8730	??好??
-4.4052	??夜中
-4.8730	??大好?
-4.8730	???
-4.8730	??番???番?スペシャル
-3.7100	??見る
-4.8730	??見れ????
-4.4052	???かる
-4.8730	??録画
-4.4052	?トツ
-4.8730	??家?する
-3.7720	?ション
-4.4052	?ー
-4.8730	?ズニ?ラン?上海
-4.8730	?ズニ?ラン?思い出???
-4.1852	?ズニ?ラン?楽しい
-4.1852	?ズニ?ラン?行う
-4.8730	?ズニ?ラン?行く
-4.0399	?ビング
-3.9312	?エ?
-4.8730	?ー?出?しれ?
-4.1852	?ャレ
-4.8730	??
-4.8730	?キ
-3.8443	?ス
-3.9312	?カリ
-4.1852	???盛り上が?????楽しい
-4.8730	???行く
-4.8730	??タ
-4.1852	めち?ち???.
-4.8730	めち?ち?意?する
-4.8730	めだ?かめ
-4.8730	めっする
-4.8730	めっち?????
-4.8730	めざ?
-4.4052	めし
-3.4551	めん
-4.8730	めんどくさ?.
-4.8730	めんどくさ??スイカ
-4.8730	めんどくさ?の
-4.8730	めんどくさ?嫌う
-4.8730	めんど?
-4.4052	めんど?雨
-3.0607	もう
-4.1852	もうすぐ
-4.8730	もう?
-4.4052	もち
-3.7100	もちろん
-4.8730	もったいな?.
-4.4052	もったいな??海
-3.4551	もっと
-4.8730	もす
-4.8730	もぐ?
-4.8730	もぐ??
-4.8730	もしかして
-4.4052	もしもし
-4.8730	もらえる
-4.4052	もら??次
-4.8730	もら?すご??しい
-4.8730	もら?な?効き目
-4.8730	もら?も?
-4.8730	もら?方
-3.2532	もん
-2.8740	も?
-4.8730	も?すご?
-4.8730	も?すご?も?
-3.3425	わか?
-3.6557	わか?.
-4.8730	わか??
-4.4052	わか??
-4.1852	わか???ドコモ
-4.8730	わか??かき氷
-4.8730	わか??もう?
-4.8730	わか??カリウ?摂取
-4.8730	わか??夢
-4.8730	わか??大?
-4.4052	わか???気温
-4.4052	わか??梨
-4.8730	わか??男
-4.8730	わか??話
-4.8730	わか?ありがと
-4.8730	わか?くれ??しい
-3.8443	わか?ごめんなさい
-4.8730	わか?づらい
-4.1852	わか?て?!
-4.4052	わか?て?かき氷
-4.4052	わか?て?の
-4.4052	わか?な?人??
-4.8730	わか?ニッケル
-4.8730	わか?・
-4.4052	わか?わか?
-4.4052	わか???
-4.8730	わか??ぱ
-4.4052	わか???
-4.4052	わか??ある
-4.8730	わか?火??大??
-4.4052	わか?男
-4.8730	わか??
-4.4052	わか?買?
-4.1852	わか???耐え??
-4.4052	わが
-4.4052	わあ
-4.4052	わた???好?.
-4.0399	わた?名前
-4.1852	わた?大好??プ?ル
-4.8730	わた???
-4.8730	わた??
-4.4052	わた??好??きれ?
-3.7100	わさび
-3.9312	わぁ
-4.8730	わいわい
-4.4052	わり
-4.0399	わけ
-4.8730	わけ??*
-4.1852	わく
-4.8730	わ??
-4.8730	わ??!
-4.8730	わ??ありがと?
-4.4052	るる
-3.9312	よう
-4.4052	よっしゃ
-4.8730	よっぽど
-4.8730	よお
-2.7377	よい
-4.0399	よし
-3.9312	よる
-4.8730	よろしい
-3.5641	よろしく
-2.7022	よく
-4.4052	よ??わか?
-4.8730	らっしゃ?
-4.0399	らっしゃ?*
-4.1852	らっしゃ???
-4.1852	らっしゃ??哲学
-4.8730	らっしゃ?ただ?
-4.8730	らっしゃ?の
-4.4052	らっぱ
-4.8730	られ?
-4.4052	られ??
-4.8730	られ??気まま
-4.8730	られ?な??どんな
-4.1852	られ?の
-4.1852	られ???
-4.8730	られ?珍し?色
-4.4052	られ?読書
-2.4770	れる
-4.8730	りん?しり
-4.4052	りん?ごま
-4.8730	ろう
-3.9312	アニメ
-3.9312	アドバイス
-4.4052	アマゾン
-4.8730	アメリカン
-4.8730	アメー??
-4.8730	アメー?仕?
-4.8730	アリ
-3.9312	アルバイ?する
-4.8730	アルバイ?含める
-4.4052	アルバイ?好?
-4.4052	アルバイ?始め??
-4.8730	アルバイ?終え??
-4.8730	アルバイ?終わ?!
-3.9312	アルコール
-4.8730	アレルギー
-4.1852	アンパン
-4.1852	ア??
-3.6075	アイス
-4.4052	アウトドア
-4.4052	アウ?面白?
-3.7720	アクション
-4.8730	アクセン?な?良?アクセン?好?
-4.8730	アサ?好?
-4.4052	アジア
-3.3681	イチゴ
-4.4052	イベン??深海
-4.8730	イメージ
-4.8730	イラス?描く
-4.4052	イルミネーション
-3.3184	イレブン
-4.8730	イン?人
-4.8730	イン?入?こと
-4.8730	イン?大好?
-4.4052	イン?料理
-4.8730	イ?飼??イ?かわ?
-4.4052	ウナギ
-4.8730	ウーロン茶
-3.8443	ウィルス
-4.4052	ウイルス
-3.8443	ウォーキング
-4.8730	ウォーク
-4.1852	ウォーター
-4.1852	エボラ出??
-4.8730	エリ
-4.4052	エレベ?ター
-4.8730	エレクト?ン
-4.4052	エ?
-3.3425	エアコン
-4.4052	オフィス
-4.1852	オリオンビ?ル
-4.8730	オリジナル
-4.4052	オレンジ
-4.0399	オンライン
-4.4052	オート?チック
-4.8730	オーロラ
-4.4052	オーク
-4.4052	オーケストラ
-4.4052	オーソドックス
-4.1852	オ?イス
-4.8730	オオ?サキ
-4.4052	オス
-4.4052	オススメ
-4.4052	カブト?
-4.8730	カボチャ
-4.1852	カミキリ?
-3.8443	カバ?
-4.0399	カメラ
-4.8730	カメ?
-3.6557	カラオケ
-4.8730	カリウ?摂取
-4.4052	カリウ?高い
-4.4052	カルピス
-4.8730	カル?おいしい
-4.8730	カル?好?
-4.8730	カル?大好?
-3.4551	カレー
-4.0399	カロリー
-4.4052	カワサキ
-3.8443	カー
-4.8730	カー?使?な??たくさん
-4.4052	カ?イイ
-4.8730	カ?ー
-4.1852	カ?
-4.8730	カ??
-4.4052	カイ?サーフィン
-4.4052	カエル
-4.1852	カク?
-4.8730	カジュアル
-4.1852	カセ?
-4.4052	ガンバ大阪
-3.7720	ガンガン
-4.0399	ガー?
-4.8730	ガ?歯ごた???ガ?大好?
-4.4052	キャラ
-4.1852	キャリア
-4.4052	キャ?チ?
-4.8730	キュウリ
-3.6557	キリン
-4.4052	キレイ
-3.8443	キンキン
-4.4052	キー
-4.4052	キーパ?
-4.8730	キーン
-4.4052	キ??
-4.8730	キ?シイ
-4.4052	キ??かっこい?帽?可愛い
-4.4052	キス
-4.1852	ギャラ
-4.4052	ギャンブル
-4.4052	クラ??
-3.3425	クラゲ
-3.7720	クラシ?
-4.4052	クリ?
-4.8730	クリア
-4.4052	クリスマス
-4.8730	クル?な??車中
-4.8730	クル?好???クル?楽し?
-4.8730	クル?行く
-4.4052	クレジ?カー?利用
-4.4052	クレジ?カー?持つ
-4.8730	クワガタ
-3.0356	クーラー
-4.4052	ク?ョン
-4.8730	グランプリ
-3.5247	グラス
-4.8730	グルー?踊り
-4.4052	グルグル
-4.8730	グルタミン酸
-3.8443	ケチャ??
-4.1852	ケーキ
-4.4052	ゲー?
-4.1852	ゲー?*
-4.8730	ゲー?.
-4.4052	ゲー?4
-4.4052	ゲー??
-4.4052	ゲー?ンター
-4.1852	ゲー?ある
-4.0399	ゲー?する
-4.4052	ゲー?はま??
-4.8730	ゲー?ほしい
-4.4052	ゲー?ミュージ?
-4.8730	ゲー?ゲー?対戦
-4.4052	ゲー??ゲー?不得意
-4.8730	ゲー??
-4.8730	ゲー?下手くそ
-4.8730	ゲー???
-4.8730	ゲー?好??
-4.4052	ゲー?好??コイン
-4.8730	ゲー?好?対戦
-4.4052	ゲー?夢中
-4.8730	ゲー?大?
-4.8730	ゲー?大???遊?
-4.8730	ゲー?大好?
-4.8730	ゲー?敷?高い
-4.4052	ゲー?楽しい
-4.8730	ゲー??好?
-4.8730	ゲー?稼?
-4.8730	ゲー?買??
-4.4052	ゲー??かる
-4.8730	ゲー?離れる
-4.0399	ゲー?音楽
-4.1852	コメン?書?
-4.8730	コレクション
-4.4052	コンパク?
-4.4052	コントロール
-3.8443	コンピュータ
-3.4551	コンビニ
-4.8730	コン?
-4.4052	コンサー?参加
-4.4052	コンセン??
-3.3184	コーヒ?
-4.1852	コーラス
-4.4052	コイン
-4.1852	ゴミ箱
-4.8730	ゴル??
-4.8730	ゴ?出?時間
-4.4052	サボる
-4.0399	サメ
-3.9312	サントリー
-4.1852	サンドイ?
-3.7720	サン?
-4.8730	サン??
-4.4052	サン?塩焼?好?サン?美味しい
-4.4052	サンキュー
-4.8730	サンシャイン
-4.4052	サービス
-3.5641	サーフィン
-3.2956	サ?ー
-4.4052	サ?ス
-4.8730	サイ??
-4.4052	サイ?ビ?ル
-4.4052	サイ?暑い
-4.4052	サイ?誘?する
-4.8730	サイ?食べ?する
-4.0399	サイズ
-4.8730	サウ?スイカ
-3.9312	サザエ
-4.8730	シ
-4.4052	シミュレータ
-4.1852	シャワー
-4.8730	シャンパ?ニュ
-4.4052	シャーベッ??
-4.4052	シュークリー??カスター?っぽ?も?
-4.4052	シュークリー?おいしい
-4.4052	シュークリー?食べ?シュークリー?コンビニ
-4.1852	シューズ
-4.4052	ショパン
-4.0399	ション
-4.4052	ショ??
-4.1852	シラス
-4.8730	シリアル
-4.4052	シロ??
-3.6075	シンプル
-4.8730	シール
-4.8730	シー?小さ?
-4.8730	シー?敷??座??庭
-4.8730	シー?欲しい
-4.1852	シーズン
-4.8730	シ?
-4.8730	シ?な?怖い
-4.8730	シアトル
-4.8730	シス?
-4.8730	ジメジメ
-4.8730	ジャンル
-4.4052	ジャスミン
-4.4052	ジュース
-4.0399	ジョ?
-3.2739	ジョギング
-4.4052	スプ?ン
-4.8730	ストレス
-4.8730	ストロ?・
-4.0399	スト?リー
-4.8730	スペシャル
-4.8730	スノ?ボ??する
-4.8730	スノ?ボ????
-4.4052	スポンサー
-4.8730	スポッ?.
-4.8730	スポッ?もん
-4.4052	スポッ?教え?
-4.1852	スポ??リンク
-4.8730	スポ??み?て?の
-4.8730	スポ??メンタル
-4.8730	スポ????
-4.8730	スポ????
-4.1852	スポ??好?
-4.4052	スポ??好??
-4.8730	スポ??好???スポ??熱?
-4.4052	スポ??得意
-4.4052	スポ??思う
-4.8730	スポ??気軽
-4.8730	スポ???見る
-4.8730	スポ??種?よりけり
-4.8730	スポ??結果
-4.4052	スポ??嫌う
-4.4052	スマ??フォン
-4.4052	スライス
-4.1852	スリ
-3.7720	スルー
-3.6557	スーパ?
-4.4052	スー?カレー
-4.4052	ス?ドグラス
-4.4052	ス??
-4.8730	ス??*
-4.8730	ス???
-4.8730	ス??勢?拡大
-3.8443	スイ
-2.1820	スイカ
-3.6075	スカイ
-3.9312	スキ
-4.4052	スキー
-4.8730	スクール
-3.2956	スター??
-4.8730	スター??スター????
-3.6557	スター?する
-4.8730	スタイル
-3.4241	セブン
-4.1852	センター
-4.8730	セ?
-4.8730	セ??ぱ??
-3.6557	ゼロ
-3.9312	ソファ
-4.4052	ソフト
-3.8443	ソフトバンク
-4.4052	ソー?
-3.3952	ソース
-4.4052	ソーセージ
-4.8730	タレ
-4.1852	タワー
-4.0399	タンブラー
-4.1852	タ?
-4.8730	タ?苦労
-4.8730	タイ
-2.5969	?
-3.6075	?!
-3.6557	?*
-3.1625	?.
-2.4027	??
-4.8730	?
-4.1852	?ぱ
-3.8443	?ぱ?
-4.4052	?ぱ?.
-4.1852	?ぱ??マニア?
-4.8730	?ぱ???する
-4.4052	?ぱ???能?持つ
-4.1852	?ぱ?みかん
-4.4052	?ぱ??
-4.4052	?ぱ?プ?ル
-4.1852	?ぱ?ドコモ
-4.4052	?ぱ?健康
-4.8730	?ぱ?子?連?多い
-4.8730	?ぱ?思う
-4.4052	?ぱ???打ち上げ花火
-4.8730	?ぱ?耐え?の
-4.8730	?ぱ?買?ほ?良??
-4.4052	?ぱ?違う
-4.1852	?ぱ?関数
-4.8730	?ぱ?食べ?越せ?育て?の
-3.5247	?
-3.9312	??
-4.8730	????
-4.8730	???半身
-4.4052	??もん
-4.8730	????
-4.8730	??????
-4.8730	??好??パン?動く
-4.4052	??野菜
-4.1852	??電波
-4.8730	??たて
-3.7100	??
-4.4052	??*
-4.4052	??良?タイミング
-4.8730	??ごめ?
-4.1852	??どっち
-4.8730	??なんで
-4.8730	??ま?
-4.1852	???
-4.8730	??ドラ????
-4.8730	??メロン
-4.8730	??よく
-4.8730	??キュウリ
-4.8730	??シ?恐ろしい
-4.8730	??スポ??苦?の
-4.4052	??スーパ?
-4.4052	??スイカ
-4.8730	???人
-4.4052	??仕?帰?の
-4.8730	???する
-4.8730	??国?交通省
-4.8730	??好?
-4.8730	??多め
-4.8730	??大阪
-4.4052	??提?ありがた?
-4.8730	??料理
-4.8730	??新?演?
-4.8730	??暑い
-4.4052	??早?釣?行く
-4.4052	?????
-4.8730	????ゲリラ
-4.8730	??楽しみ
-4.8730	??歌?????
-4.1852	??海
-4.8730	??深海
-4.8730	??甘い
-4.8730	???下戸
-4.4052	????
-4.8730	???泳げる
-4.0399	??興味
-4.4052	??行く
-4.8730	??読書
-4.8730	??買物
-4.8730	????する
-4.4052	???大?
-4.4052	????な?がち
-4.8730	??雨
-4.4052	??音楽
-4.0399	?あな?こと
-4.8730	?あな??する
-4.4052	?ある
-4.8730	?た??
-4.8730	?おう
-4.4052	?こだわり
-4.4052	?こたつ
-4.8730	?な?
-4.0399	?な?な?
-3.6557	?は?
-4.4052	?みたい
-4.4052	????
-4.4052	??
-4.0399	??
-4.8730	???
-4.8730	?ニューヨーク
-4.8730	?ラーメン
-4.1852	?わぁ
-4.1852	?ウィルス
-4.8730	?カミキリ?
-4.8730	?シリアル
-4.4052	?スポ??離れる
-4.8730	??
-4.8730	??人
-4.8730	?予防
-4.8730	?京都
-4.8730	?会議
-4.8730	?修学???
-4.4052	??コンビニ
-4.4052	?北海??
-4.8730	?刺?れる
-4.8730	?冷え症
-4.8730	?吸水
-4.4052	?夕方
-4.1852	?寝坊
-4.4052	?帽?大好?
-4.8730	??時間
-4.8730	?思う
-4.8730	?携帯
-4.4052	???長?
-4.8730	?春
-4.8730	?東?圭吾
-4.8730	?本当?
-4.8730	??海
-4.4052	?楽しみ
-4.4052	?水?不足
-4.0399	?海
-4.8730	?海?行く
-4.8730	?火?多い
-4.8730	?照れる
-4.4052	?物?わか?て?
-4.8730	?男性
-4.4052	?空
-4.4052	?腎臓
-4.8730	?脳み?単?
-4.8730	??
-4.4052	?買?
-3.9312	?趣味
-4.8730	???人
-4.4052	??大?
-4.8730	???な?がち
-4.4052	????
-4.4052	?電?便利
-4.4052	??
-4.1852	?
-4.4052	??お
-4.4052	??こっち
-4.8730	??
-4.8730	??*
-4.0399	??くださる
-4.4052	??しま?こと
-4.8730	??と?犬鳴
-4.4052	??ほしい
-4.4052	??プ?ル
-4.8730	???????
-4.8730	??社?抜け出?の
-4.8730	?こし?
-4.8730	?こし?関?な??
-2.7566	?
-4.8730	??.
-4.8730	??糖?
-4.8730	?らか?ほ?甘い
-4.8730	??こと
-4.8730	?
-4.4052	??
-4.8730	???風邪
-4.8730	???.
-4.8730	????
-4.4052	???世話
-4.4052	???晴れる
-4.4052	???楽しい
-4.4052	???通話
-4.8730	???鮮度
-4.8730	丁寧
-4.8730	下が?
-4.4052	下が?の
-4.8730	下さ?*
-4.8730	下さ???ぱ
-4.8730	下げ?くれ??体温
-3.6557	世界
-4.0399	丈夫
-4.4052	世話
-3.8443	下手
-4.4052	下北
-4.8730	不便
-4.8730	不?????
-4.8730	不調
-4.8730	不?由
-4.8730	不味??
-4.1852	世代
-4.8730	上がったり
-4.8730	上がれる
-4.8730	上が?
-4.8730	上が??
-4.1852	上が?すぎ?方
-3.7100	上が?の
-4.8730	上げ?
-4.8730	不景??
-4.8730	不?
-4.8730	不?議
-4.8730	三重
-4.8730	上品
-4.0399	上手
-4.4052	上手?
-4.4052	上手?な?苦しい
-4.4052	両方
-3.1309	中
-4.0399	中古
-3.9312	中国
-4.8730	中国人
-4.4052	中?日本犬
-4.1852	中学
-4.8730	中学?みたい
-4.4052	中?する
-4.4052	中?部??
-4.4052	中?部?甘い
-4.0399	中華
-4.4052	丸?な??
-4.8730	丸坊主
-4.8730	主役
-3.5247	丼
-3.5641	?
-3.2532	?
-4.8730	?
-4.8730	?
-4.8730	?
-4.4052	??レジャー
-4.8730	??予防
-4.8730	??塩?欲しい
-4.4052	?のせる
-4.4052	?のっける
-4.8730	?仕?終え?.
-4.8730	?以?する
-2.8187	?人
-4.8730	??くださる
-4.8730	?匹
-4.4052	??する
-4.4052	??使える
-4.4052	??稼?
-4.8730	??そう?
-4.8730	?大
-4.8730	?年
-4.0399	?度
-4.8730	???て???
-4.8730	?
-4.8730	?日
-4.1852	?杯
-4.8730	?真面目
-4.8730	?置ける
-4.1852	??不可???大好?
-4.4052	?降り?欲しい
-4.8730	??天の?見え??
-4.8730	?
-4.8730	?に
-4.8730	?????
-4.8730	??する
-4.8730	??な?
-4.8730	???散歩
-3.7100	???
-4.1852	???
-4.8730	??プ?ル
-4.8730	??ビ?ル
-4.8730	??ランニング
-4.8730	??ゲー?遊?
-4.8730	??シベリア
-4.4052	???
-4.4052	????
-4.8730	?????
-4.4052	??出掛け?お?かけ
-4.8730	??勉強
-4.8730	??夕?食べ?行く
-4.0399	??嬉し?
-3.8443	????
-4.4052	??怖い
-4.4052	??思う
-4.8730	??早?
-4.4052	???
-4.0399	??楽しい
-4.1852	??気まずい
-4.4052	??無?
-3.7720	??行く
-4.1852	??見る
-4.8730	??買????お茶
-4.4052	??遊?
-4.8730	??食べ??
-4.4052	??食べ??食???する
-4.4052	??食べ??
-4.8730	??食べ?命
-4.4052	??食べ?行く
-4.1852	??食?する
-3.7720	?
-4.4052	?暮らし
-4.8730	??
-4.4052	乗せ??ピザ
-3.9312	乗り
-4.8730	乗り場
-4.8730	乗り換え
-4.8730	乗り越え?こと
-3.3425	乗る
-4.4052	乗船
-4.8730	乱れる
-4.8730	乾?干?の
-4.8730	乾杯
-4.4052	乾燥
-3.8443	仏教
-4.1852	今?
-4.8730	付き合う
-4.4052	付け
-4.8730	付け??
-4.8730	付け?しれ?
-4.8730	付け??
-3.9312	付く
-3.8443	付録
-4.8730	仙人
-4.1852	仙道
-3.9312	仕方
-4.4052	仕?.
-4.4052	仕??
-4.8730	仕??雑?欲しい
-3.9312	仕?ある
-4.8730	仕?えら?
-4.0399	仕?する
-4.8730	仕?たくさん
-4.8730	仕?おわ?熱中
-4.8730	仕?できる
-4.8730	仕?とりかかる
-4.8730	仕?ふ?れる
-4.4052	仕??ぱ?辞め?
-4.8730	仕??休み
-4.4052	仕?プログラミング
-4.8730	仕?ミス
-4.4052	仕??ク
-4.8730	仕?もん
-4.8730	仕?ストレス
-4.8730	仕??もん
-4.1852	仕??
-4.1852	仕?丁寧
-4.4052	仕?不規則
-4.4052	仕???する
-4.8730	仕???できる
-4.4052	仕?使?物?異?できる
-4.4052	仕???
-4.8730	仕??できる
-4.8730	仕?基本
-4.8730	仕?大丈夫
-4.8730	仕?大??
-4.8730	仕?大阪
-4.8730	仕???
-4.8730	仕?東京
-4.4052	仕?楽しい
-4.8730	仕?欲しい
-4.8730	仕?沖??
-4.8730	仕?流儀
-4.8730	仕?無?
-4.8730	仕??ける
-4.8730	仕?真面目
-4.0399	仕?行く
-4.8730	仕?頑張??仕?大丈夫
-4.4052	仕??
-4.4052	今?
-4.8730	今回
-4.8730	今?京都
-3.1309	今年
-3.5247	今度
-4.4052	今晩
-2.6966	今日
-3.9312	代わり
-4.8730	代入
-4.8730	代表
-4.4052	以?掛か??お
-4.4052	以??それ
-4.4052	以?
-4.4052	以???食べ???しょっぱ?
-4.4052	以??
-4.4052	以?ブリ
-4.4052	以?持つ
-4.4052	以?深?
-4.8730	以?見る
-4.8730	以???かけ??
-4.4052	仮想
-4.8730	仮?する
-4.8730	仮?できる
-4.8730	仮?オリジナル
-4.4052	?
-4.1852	?*
-4.8730	??
-4.8730	?色んな
-4.4052	??2つ
-4.8730	??塩味
-4.8730	??部?クーラー
-4.8730	??静か
-4.8730	??音楽
-4.8730	?おっしゃ?.
-4.8730	?おいしい
-4.4052	?こと
-4.0399	?ところ
-4.8730	?どんな
-4.8730	??仕?好??
-4.4052	??
-4.8730	?プレイヤー
-4.1852	?ラン??
-4.4052	??
-4.8730	?仕事?
-4.8730	?仕?つらい
-4.4052	?休?
-3.4885	??する
-4.1852	??おいしい
-4.8730	?健康
-4.1852	?出??熱中
-4.4052	?台風
-4.8730	?夕方
-4.8730	?大丈夫
-4.4052	???熱中
-4.8730	??北海?涼しい
-4.8730	?売?て???セブン
-4.4052	?学部
-4.8730	?忙し???な?と?????哲学
-4.8730	?時代
-4.1852	?時期
-4.8730	?昼?する
-4.4052	?東京
-4.8730	?比べ??職場
-4.4052	?気温
-4.4052	?研究
-4.1852	?聞く
-4.4052	?職場
-3.8443	?行く
-4.8730	?話
-4.8730	?趣味
-4.8730	????
-4.8730	???する
-4.1852	????
-4.8730	??学?楽
-4.1852	?電?マネー
-4.8730	?食べ?て???
-4.4052	?食べ?も?
-4.8730	?食べ?思う
-3.4241	予?
-3.9312	予??
-4.0399	予?ある
-4.8730	予?合わせる
-4.8730	予?夏休み
-4.8730	予?実家
-4.4052	予?
-4.8730	事情
-3.1965	事故
-4.4052	予想
-4.8730	五十???社長
-3.0739	予防
-4.8730	亡くな?ニュース
-4.4052	亡くな?熱中
-3.3952	京都
-2.9091	人
-4.4052	人工
-3.6075	人数
-4.4052	人?甘み
-4.1852	人?ある
-4.1852	人??
-4.8730	人?メリ?
-4.8730	人?変え?
-3.6557	人身
-4.4052	人?な??コンビニ
-4.8730	人??人
-4.4052	人??信じる
-4.1852	?
-4.1852	??
-3.8443	?ある
-3.5641	?人
-4.8730	??世?美味しい
-4.8730	???
-4.4052	??送信
-4.8730	?多い
-4.1852	?
-3.6557	休み
-4.8730	休め?夏休み
-4.4052	休?
-3.9312	会う
-3.9312	会社
-4.1852	会議
-4.8730	伝え?の
-4.8730	伝わ??しい
-4.8730	休日
-4.8730	伊勢神宮
-4.8730	伸ば?黒髪
-4.4052	似?あう
-4.4052	似?も?
-4.4052	似合う
-4.8730	係数
-4.8730	保つ
-4.4052	保証
-4.4052	信号
-4.8730	信用
-4.4052	信用度
-4.4052	修学???特に
-4.8730	修学??夕張
-4.8730	修学??疲れる
-4.8730	修学??行く
-4.8730	修学??選?する
-4.8730	修?する
-3.7720	俺
-4.8730	?
-4.4052	?湿??高い
-4.8730	??
-3.7100	住?
-4.8730	住所
-4.8730	余?
-4.8730	余る
-4.1852	余?
-4.8730	余?
-4.8730	余?休?
-4.8730	余?楽しみ
-3.5247	低い
-4.8730	低め
-4.8730	作物
-4.8730	作?
-4.4052	作業
-4.8730	作?
-4.8730	作り
-3.3184	作る
-4.8730	作れ?*
-4.4052	作品
-4.8730	体温
-3.2146	体調
-4.8730	体制
-4.4052	何?上手?気持ちよい
-4.8730	何?気持ち
-4.8730	体現
-4.1852	体?できる
-3.6075	使える
-3.9312	使?
-4.4052	使?*
-4.4052	使?.
-4.0399	使??
-4.4052	使?お
-4.1852	使?こと
-4.4052	使?ち?
-4.8730	使?て?の
-3.4885	使?の
-4.8730	使??
-3.9312	使??
-4.4052	使?スマ??フォン
-4.8730	使???
-3.9312	使???
-4.4052	使?専用
-4.8730	使?意味
-4.8730	使?思う
-4.8730	使?食べ?の
-4.8730	使?なせる
-4.8730	使?な?
-4.8730	使?な?て??.
-4.4052	使用
-4.1852	?
-4.1852	?*
-2.9892	??
-4.8730	?良?
-4.8730	?色
-3.5641	?ある
-2.9892	?する
-4.1852	?そ?
-4.1852	?こと
-4.8730	?お話
-4.4052	?な?
-4.4052	?な?の
-4.4052	?ほぐす
-3.9312	??
-4.4052	???重い
-4.0399	?ペッ?飼??
-4.4052	???見る
-4.8730	?よい
-4.8730	?アルバイ?する
-4.4052	?カロリー
-4.8730	?クリスマス
-4.8730	?ジュース
-4.1852	?スポ??する
-4.0399	??
-4.4052	?丈夫
-4.4052	??
-4.8730	?予防
-4.0399	?人
-4.4052	??な?
-4.8730	?借り???
-4.8730	?化け?の
-4.8730	?初?
-4.4052	???の
-4.8730	???人
-4.4052	?冷える
-4.4052	?冷?
-4.8730	???????
-4.8730	?動か?
-4.4052	?味
-4.8730	??
-4.8730	?好??
-4.8730	?好?の
-4.8730	?大丈夫
-4.8730	?大?
-4.4052	?対?する
-4.8730	?年
-4.4052	?度
-4.8730	??
-4.8730	?恋し???
-4.4052	?悪?お?
-4.8730	?持つ
-4.8730	?普段
-4.8730	?書?作る
-4.1852	?楽しい
-4.4052	?歳
-4.8730	?熱中
-4.4052	?特
-4.8730	?発?する
-4.4052	??出身
-4.8730	?睡?求め?こと
-4.4052	?話??
-4.8730	?話??中国
-4.8730	?話?普段
-3.9312	??
-4.8730	?謝る
-4.4052	?買?
-4.8730	??体?ある
-4.1852	?趣味
-4.4052	?身?感じ?こと
-4.8730	???仕?する
-4.8730	?間違?
-4.4052	?面白?こと
-4.8730	?面白?発?な??発?正しい
-3.9312	?食べ??
-4.4052	?食べ?行く
-4.8730	?高い
-4.8730	例??見る
-4.8730	価値
-4.8730	便?する
-2.8338	便利
-4.4052	偏る
-4.8730	偉い
-4.8730	停電
-4.4052	偉大
-3.2335	健康
-4.4052	偽??詐欺
-4.4052	偽物
-4.0399	個人
-4.4052	倒れ?
-4.4052	倒れ??飲み物
-4.0399	借
-4.8730	値
-4.4052	値する
-4.0399	値上げ
-4.1852	値段
-4.8730	?近い
-4.8730	備え?懐中
-4.4052	?ある
-4.1852	?さす
-4.4052	?なくす
-4.8730	?カ?
-4.4052	?持つ
-4.8730	匂い
-4.8730	北島
-4.8730	化け?熟?
-4.8730	北極
-4.4052	北海
-4.8730	北海?良?
-4.8730	北海?良?ところ
-4.8730	北海?チェリー
-4.8730	北海??
-4.8730	北海?好?
-4.8730	北海?大丈夫
-4.4052	北海?大好?
-4.4052	北海?寒い
-4.4052	北海?快適
-4.4052	北海?涼しい
-4.4052	北海?無?
-4.4052	北海?行く
-4.8730	北海?食べ物
-3.8443	化学
-4.8730	匹
-4.4052	区
-4.0399	?
-4.8730	??
-4.1852	?する
-4.8730	?楽しい
-4.4052	?目?
-4.8730	?選ぶ
-4.8730	??
-4.4052	初め
-3.7100	初めて
-4.8730	初?
-4.8730	初期
-4.4052	初??
-4.8730	判断
-4.0399	別
-3.6557	別に
-4.8730	別れる
-4.4052	利?多い
-3.8443	利用
-4.4052	到?する
-4.8730	到?不可能
-4.8730	制御
-4.4052	券
-3.7720	券売
-4.4052	刺?れる
-4.4052	刺?良??刺??よい
-4.8730	刺?強?
-4.8730	刺?欲しい
-3.7100	刺身
-4.8730	刻?れる
-3.9312	??
-4.8730	??.
-4.4052	???
-4.8730	???*
-4.4052	???ありがと
-4.8730	???ベス?体調
-4.8730	???スペシャル
-4.8730	???スイカ
-4.1852	???中学?ころ
-4.1852	???出?て??予防
-4.8730	???楽しい
-4.8730	???深??奥
-4.4052	???野球
-4.8730	??くれ??
-4.8730	??ごめんなさい
-4.4052	??そっ
-4.4052	??こと
-4.8730	??て?!
-4.1852	??の
-4.1852	???
-4.8730	??よい
-4.8730	??スイカ
-4.4052	???健康
-4.4052	???想?する
-4.4052	??囲?楽しい
-4.8730	??好?メニュー
-4.4052	??宝く?期?値
-4.8730	??帰?楽し?
-4.1852	???良?
-4.8730	??急かす
-4.8730	??狸
-4.8730	??見れ???耐え?
-4.8730	??趣味
-4.4052	??
-4.8730	??高度
-4.8730	?
-4.8730	??壊れ????する
-4.8730	?きれ??越前
-4.8730	??
-3.7100	?
-4.8730	?
-4.8730	写り
-3.9312	写真
-4.4052	再販
-4.4052	冗??よい
-3.5641	冬
-4.4052	冬場
-4.8730	冬??
-4.8730	冬?家庭
-3.8443	冷える
-3.4551	冷たい
-4.8730	冷え症
-3.4885	冷?
-4.8730	冷奴
-4.8730	冷?気象
-4.8730	冷??
-3.7720	冷房
-3.7720	冷蔵庫
-4.8730	?
-4.8730	?就職
-4.4052	??貯?する
-4.8730	?
-4.8730	???え?
-4.4052	凍る
-4.8730	出かけ???
-4.4052	出かけ?上着
-4.1852	出?
-4.1852	出??
-4.4052	出??日?奮?する
-4.8730	出?くれ???
-4.1852	出?の
-4.8730	出?ソロアルバム
-4.4052	出?効?ある
-4.8730	出?好??地下鉄
-4.8730	出?家
-4.8730	出?行く
-4.4052	出??
-3.9312	出?
-3.9312	出??
-4.8730	出??クラゲ
-4.8730	出??予防
-4.8730	出???健康
-3.9312	出?くる
-4.8730	出?しれ?
-4.4052	出?て??楽しい
-4.4052	出?て?の
-4.8730	出?て??
-4.8730	出?とかす
-4.0399	出?の
-4.8730	出??
-4.4052	出?クラゲ
-4.8730	出?大??湿度
-4.8730	出?大??高?
-4.8730	出?始め?
-4.8730	出?始め?の
-4.4052	出?楽しい
-4.8730	出??
-4.8730	出???水族館
-4.8730	出勤
-4.1852	出回る
-4.8730	出場
-4.1852	出張
-4.8730	出掛け?
-4.1852	出来
-4.0399	出来?
-4.8730	出来??自由
-4.8730	出荷
-3.4241	?
-3.2956	優しい
-4.4052	優?する
-4.8730	優?
-4.4052	儲かる
-4.8730	先日
-4.8730	光る
-4.0399	先?
-4.1852	先生
-3.1792	入れる
-3.5247	入?
-4.4052	入?*
-4.8730	入?.
-3.9312	入??
-4.1852	入??バスケ
-4.8730	入??熱中
-4.4052	入??研究
-4.8730	入?こと
-4.8730	入?て?飲?すぎ?よい
-4.8730	入?の
-4.8730	入??
-4.4052	入?マ?ガリン
-4.8730	入?れる
-4.8730	入??スイカ
-4.4052	入?値
-4.8730	入?大??大きめ
-4.8730	入?気持ち
-4.4052	入?電波
-4.8730	入?する
-4.8730	入?で?長?打つ
-4.0399	入浴
-4.8730	入試
-4.4052	全般
-4.1852	全部
-4.4052	全長
-4.8730	八
-4.8730	公?食べ?の
-4.1852	具
-4.8730	具???
-4.8730	具??どの
-4.8730	具?悪?
-4.8730	具?悪?な?こと
-4.4052	??幾重に?山ひ?連な??谷
-4.4052	?っぽ?好?
-4.8730	?前?間違??
-4.8730	?応じ?専門
-4.8730	?戻?訳
-4.8730	?教え?くれ??
-4.1852	???
-4.4052	????人身
-4.4052	?管?*
-4.8730	??書?
-4.8730	??
-4.1852	??する
-4.4052	??著し?
-3.2335	??
-4.1852	??*
-3.6075	???
-4.8730	??良?
-4.8730	????スポ???
-4.8730	????大好?!
-4.8730	??せい
-4.8730	??そうです?
-4.8730	??な??荷物
-3.9312	???
-4.8730	????
-4.8730	??意?する
-4.0399	力士
-4.8730	力強?もん
-3.8443	助かる
-4.8730	助ける
-4.8730	努?する
-4.8730	励?
-4.4052	励?で??
-4.8730	効き目
-3.8443	効??
-4.8730	効?すぎ
-4.8730	効?せる
-4.4052	効??
-4.4052	効???
-4.4052	効?部?する
-4.8730	効?部???クーラー
-4.4052	効?部??
-4.4052	効?部?入?と??気持ち?
-4.8730	効?ある
-4.8730	効?な??
-4.8730	効??
-4.8730	効??*
-4.4052	効???マスク
-4.4052	効?高い
-4.4052	効?悪?
-4.8730	効??
-4.8730	??
-4.8730	??甲子園
-4.8730	?つ?頑張?くださる
-4.8730	?
-4.8730	?座右の??
-3.9312	?強?
-4.8730	?高ま?
-4.0399	?
-4.4052	???
-4.4052	?
-4.0399	十?
-4.8730	午?どんな
-4.8730	午?プ?ル
-4.8730	午??
-3.8443	午?雨
-4.4052	単価
-4.1852	単?出?来??面白??しり
-4.1852	卒業
-4.8730	博??
-4.8730	博?の
-4.0399	半?
-4.8730	半??ほしい
-4.8730	半身
-3.9312	危な?
-4.4052	危な?.
-4.8730	危な??
-4.8730	危な?こと
-4.8730	危な?犬鳴
-4.8730	危?
-3.7720	危険
-4.4052	即?する
-4.4052	即?難しい
-4.4052	卵
-3.9312	?
-4.4052	?
-4.4052	勘?する
-4.8730	勘違?する
-4.8730	務め??
-3.9312	動画
-3.7720	動物
-4.0399	勝つ
-4.8730	勝?
-4.1852	勝手
-3.7100	勉強
-4.8730	動け?
-4.8730	動く
-4.8730	勢?弱?
-4.1852	勢?強?
-4.4052	勤?*
-4.4052	勧める
-3.9312	勧??悪
-4.8730	勿?無?
-4.8730	??ある
-4.8730	??出せる
-4.8730	??出??
-4.8730	??奮?つ
-4.8730	????
-4.8730	????
-4.8730	??????難しい
-4.4052	??自尊???
-4.8730	??間違?
-4.8730	前???かっこい??前?できる
-4.4052	前向??する
-4.4052	剣
-3.9312	剤
-4.8730	副作用
-4.1852	割
-4.8730	割?
-4.8730	割り当て?
-4.8730	割?
-4.4052	割?!
-4.4052	割?しま?買える
-4.8730	割?した?良??スイカ
-3.8443	割?する
-4.4052	割?おいしい
-4.4052	割?おし?見え?おし?かわ?
-4.8730	割??
-4.8730	割?スイカ
-4.8730	割??
-4.8730	割?楽し?
-4.8730	割?遊?
-4.8730	割?見る
-4.8730	??東京
-4.8730	?つける
-4.8730	?今年
-4.8730	?小?方
-4.8730	???欲しい
-4.8730	?曲
-4.8730	?流れ?て?
-4.8730	?流?する
-4.1852	?焼?
-4.8730	??
-4.4052	??*
-4.8730	?食べ?メロン
-3.7720	?
-4.4052	?*
-4.8730	??
-4.0399	??
-4.1852	??そんなに
-4.1852	??ぼーっと
-4.4052	??即?無?
-4.8730	?あな?こと
-4.8730	?あな?知人
-4.8730	?しゃべれる
-4.8730	?すご?嬉し?.
-4.8730	?すご???.
-4.8730	?それ
-4.8730	?そんなに
-4.8730	?こと
-4.8730	?こ?
-4.4052	?お父さん
-4.8730	?つける
-4.1852	?とくに
-4.8730	?どっち
-4.8730	???好?.
-4.8730	??
-4.8730	?ハ??.
-4.4052	?プ?ル
-4.8730	?ピッチャー
-4.4052	?ビ?ル
-4.4052	???恥ずかしい
-4.8730	?アドバイス
-4.8730	?アク
-4.8730	?アクション
-4.8730	?カリウ?嫌い
-4.4052	?クーラー
-4.4052	?コンピュータ
-4.1852	?スイカ
-4.8730	??.
-4.4052	?似合う
-4.1852	?何時?楽しい
-4.1852	?健康
-4.4052	?先輩
-4.0399	?好?.
-4.8730	?嬉し?!
-4.8730	??
-4.8730	?学??仕??
-4.8730	?平?!
-4.1852	??行く
-4.8730	???しる
-4.4052	?日本
-4.8730	?活用
-4.1852	?生き??
-4.8730	?直接
-4.8730	?知?こと
-4.8730	?結?耐え?ち?
-4.4052	?見る
-4.8730	?話し相?な??話し相?欲しい
-4.8730	?嫌う
-4.8730	?趣味
-4.4052	??持つ
-4.8730	????
-4.4052	????しる
-4.8730	???しる
-4.8730	?食べ?の
-4.4052	?飲?.
-4.4052	唐??ラーメン
-4.8730	唐辛?ち?っと
-4.8730	?揚げ
-4.4052	和?
-4.8730	和?
-4.4052	和歌山
-4.4052	和風
-4.4052	和??洋??中華
-4.0399	和??
-4.8730	咲
-4.8730	咲?
-4.4052	咲?!
-4.1852	咲??
-4.1852	咲?花
-4.1852	咳
-4.8730	?好?
-4.8730	?感じ
-4.8730	品種
-3.3425	哲学
-4.8730	?
-4.4052	??外?
-4.4052	?携帯
-4.8730	原因
-4.0399	原稿
-3.7720	厳しい
-4.1852	??
-4.1852	合唱
-4.4052	向か??
-4.0399	向く
-3.7100	合う
-4.8730	合わせる
-4.1852	同じ
-3.6075	同士
-4.4052	同?
-4.8730	同時に
-4.8730	名古?出身
-4.4052	名前
-4.8730	否める
-4.8730	含??ト????
-4.4052	吸??注?する
-4.8730	吸?良?
-4.8730	吹ける
-4.4052	吹???ピア?伴?する
-4.8730	吹??
-4.8730	吹?涼しい
-4.8730	?
-4.8730	?しつこい
-4.8730	?そこ
-4.8730	?なに
-4.8730	?ほ?眩しい
-4.8730	?名前
-4.8730	?女の??
-4.8730	?好??
-4.1852	?好?も?
-4.8730	?気持ちよい
-4.8730	?膝枕
-4.8730	?行く
-4.4052	?誰
-4.8730	?風?入?みたい
-4.8730	呂?回る
-4.8730	周?みんな
-4.4052	周?静か
-2.9574	味
-4.8730	味わえ?場?有名
-4.1852	味わう
-4.1852	味付け
-4.8730	味噌?使??
-4.4052	味?好?赤味?好?
-4.8730	呼ぶ
-3.4551	命
-4.4052	参る
-3.9312	参加
-4.8730	参戦
-4.1852	収?
-4.1852	友人
-4.4052	受け?
-4.8730	受け?健康
-4.1852	受け入れる
-4.8730	受け取る
-4.8730	取り上げ??
-4.8730	取り込??
-3.4551	取る
-4.8730	取れ??
-4.8730	取れ?歯医?行く
-4.8730	収集
-3.8443	友達
-4.8730	受?する
-4.0399	口
-4.8730	口??
-4.8730	口説き落と?
-4.1852	口説?
-4.8730	口説?こと
-4.8730	口説??
-4.4052	口調
-4.8730	古?
-4.1852	古?お寺
-4.8730	古?よい
-4.8730	古??*
-4.8730	叩?
-4.8730	叩?良?悪?わか?聞く
-3.0480	可愛い
-3.6557	可愛らしい
-3.8443	可能
-4.4052	台湾
-3.6075	台風
-4.4052	右
-4.8730	右??
-4.8730	右?富士山
-4.8730	叶える
-4.8730	嘘つ?ごめ?
-4.8730	?つくる
-4.8730	?つける
-4.1852	?つ?こと
-4.8730	?つ??
-4.8730	?上手
-4.8730	??ほんと
-4.8730	?大?
-4.8730	?正しい
-4.8730	?気付く
-4.8730	?無?
-4.8730	?真?
-4.8730	?虚し?
-4.4052	?笑う
-4.8730	??
-4.1852	器
-4.0399	器具
-4.4052	器用
-4.0399	基本
-4.8730	埼?方面
-4.8730	四国
-4.8730	四?料理
-4.8730	四条
-4.8730	回収
-3.8443	回す
-3.9312	回る
-4.8730	回転
-4.8730	団?食べ?団?つくる
-4.8730	困?*
-4.4052	困??*
-4.8730	困??箱根
-4.8730	困??蔦
-4.8730	困?しま?天?わる?
-4.8730	困?する
-4.8730	困?も?
-4.8730	困?値上げ
-4.8730	困?東京
-4.8730	困?雨
-4.8730	困難
-4.8730	囲?好?囲?好?
-4.8730	図??態度
-3.7100	図書館
-4.4052	固?好?
-4.4052	国??
-4.4052	国?多い
-4.8730	国?普?進?
-4.1852	国?海?どち??
-4.8730	国産
-4.8730	??
-4.8730	?程度
-4.4052	?飲?で???カメラ
-4.8730	?
-4.8730	?さん
-4.8730	?ロボッ?ロボッ?かっこい?
-4.4052	?使??
-4.8730	?好?
-4.8730	?多い
-3.7720	喜?
-3.7720	喧嘩
-4.8730	喫茶
-4.4052	?不調
-4.8730	??
-4.0399	?痛い
-4.4052	問う
-4.8730	問?!
-4.4052	問?ある
-4.8730	問?塩
-4.8730	問?安?
-4.8730	問?起こる
-4.8730	問??体?
-4.4052	問??する
-4.8730	?
-4.0399	報?れる
-3.4885	場
-4.4052	場??肌寒い
-4.8730	場?こと
-4.4052	場??
-4.8730	場?よりけり
-4.8730	場?スイカ
-4.1852	場?多い
-4.8730	場??釣?こと
-4.4052	??二郎
-4.4052	土地
-4.4052	土?
-4.4052	地
-4.8730	地下鉄
-4.8730	地?ある
-4.8730	地?想?つ?形
-4.8730	地?流れ?
-4.8730	地?美し?
-4.4052	地?祭?楽しい
-4.8730	地?ある
-4.4052	地図
-4.4052	地殻
-4.8730	地?含?全
-4.8730	地?帰?くる
-4.8730	地?温??原因
-4.4052	地表
-4.8730	地?家
-4.8730	地???
-4.1852	?はしゃ?
-4.1852	?行く
-4.0399	塗る
-4.0399	塞ぐ
-3.1792	塩
-4.8730	塩?と?こと
-4.8730	塩?と??
-4.8730	塩???摂る
-4.1852	塩?取る
-4.8730	塩?大?塩??
-4.8730	塩?排?
-4.8730	塩?控えめ
-4.8730	塩?摂る
-4.8730	塩味
-4.8730	塩焼?サン??
-4.8730	?ある
-4.8730	坊主
-4.8730	?多い
-3.2956	奥
-3.9312	奥深?
-4.8730	奥深???哲学
-4.4052	奥深?プログラミング
-3.3952	女
-4.8730	女優
-4.8730	女?日本
-3.3952	女性
-4.4052	女??
-4.4052	奴
-3.8443	好み
-2.1635	好?
-4.8730	好?!
-4.1852	好?*
-3.4885	好?.
-2.5668	好??
-4.8730	好??
-3.7720	好??*
-4.1852	好??あな??
-4.4052	好??あな?好???
-4.8730	好??ありがと
-4.8730	好??かき氷
-4.8730	好??しり
-4.8730	好??すき
-4.8730	好??こって?好?
-4.8730	好???蕎麦
-4.8730	好???
-4.8730	好??チェリー
-4.4052	好??ヘビ
-4.8730	好??プ?ル
-4.8730	好??マグロ
-4.8730	好??バ?ベキュー
-3.9312	好??フルー?中
-4.8730	好??フルー?梨
-3.7720	好??メロン
-4.8730	好??メール
-4.8730	好??モカ
-4.8730	好??ロケ?
-4.1852	好??アンパン
-4.8730	好??アイス
-4.1852	好??オス
-4.4052	好??カルピス
-4.4052	好??シュークリー?大好?
-4.8730	好??スポ??ー
-4.8730	好????遊?
-4.8730	好??人?苦??味
-4.8730	好??固?の
-4.8730	好??塩
-4.4052	好??大好?
-4.8730	好??学校
-4.4052	好??料理
-4.4052	好??時代
-4.8730	好??昨日
-4.4052	好????
-4.4052	好???好?
-4.0399	好??気持ち
-4.8730	好??派
-4.4052	好??海
-4.8730	好??焼きそば
-4.1852	好??犬
-4.4052	好??生クリー?美味しい
-4.8730	好??田?メロン
-4.8730	好??線?花火
-4.4052	好??苺
-4.4052	好??話?ち?
-4.8730	好?????哲学
-4.8730	好???多い
-4.8730	好?すぎ
-4.8730	好?そう?
-4.4052	好?こと
-4.0399	好?の
-4.4052	好??ありがと?
-4.8730	好???
-4.4052	好??刺身
-4.1852	好?チ?ズ
-4.8730	好?プリンス
-4.8730	好?ポテトチ??ス
-4.4052	好?マグロ
-4.1852	好?マスクメロン
-4.1852	好?フランス
-4.4052	好?ファンタジー
-4.4052	好?メロン
-3.9312	好?も?
-4.1852	好?よい
-4.8730	好?アニメ
-4.4052	好?アンパン
-4.8730	好?アクション
-4.8730	好?カルシウ?
-4.8730	好?カレー
-4.8730	好?カク?
-4.8730	好?ガ??
-4.8730	好?ケチャ??
-4.8730	好?コーヒ?
-4.8730	好?サン?美味しい
-4.8730	好?スー?使?
-4.0399	好?スイカ
-4.4052	好??
-3.5641	好???
-4.1852	好???
-4.8730	好???かき氷
-4.8730	好???すき
-4.4052	好???ス?ドグラス
-4.8730	好???スキー
-4.8730	好???読み物
-4.8730	好???
-4.8730	好??ネタ
-4.8730	好???ション
-4.8730	好???ャレ
-4.4052	好??カエル
-4.4052	好??クラゲ
-4.4052	好??塩
-4.4052	好??海
-4.8730	好?今回
-3.5247	好?人
-4.4052	好?作品
-4.8730	好?哲学
-4.4052	好?多い
-4.8730	好?家?ある
-4.8730	好?子ど?水遊?
-4.1852	好?平????哲学
-4.8730	好?感動
-4.1852	好?数学
-4.8730	好?料理
-4.8730	好??
-4.8730	好?本
-4.8730	好?次に
-4.8730	好?水??
-3.9312	好?海
-4.8730	好???好?
-4.8730	好?炭酸
-4.8730	好?犬
-4.4052	好??
-4.4052	好?買?
-4.4052	好???な?
-4.4052	好?運動
-4.4052	好?雑?欲しい
-4.4052	好?雨
-4.8730	好?音楽
-4.8730	好?食べ?の
-3.8443	好?食べ物
-4.1852	好?飲み物
-4.8730	好?の
-4.8730	?
-4.8730	?
-4.4052	???気持ち
-4.4052	??な??あちこち
-3.3184	夏休み
-4.1852	夏みかん
-4.8730	夏バ?する
-4.8730	夏バ?体力
-4.8730	夏バ?引きずる
-4.8730	夏バ??つける
-4.4052	夏バ??付け???夏バ?つらい
-4.0399	夏?
-4.0399	夕張
-4.4052	夕張メロン
-3.9312	夕方
-4.4052	夕日
-2.4943	多い
-4.1852	多め
-4.1852	多彩
-4.4052	多?
-4.8730	多発
-3.9312	多趣味
-4.4052	外?する
-4.4052	変え?
-4.8730	変え??数?わか???
-4.1852	変わ?
-4.8730	変わ??見た目
-4.8730	変わ?しれ?哲学
-4.1852	変わ?する
-4.8730	変わ?こと
-4.4052	変わ?て?ありがと?
-4.8730	変わ?と?ある
-4.8730	変わ???
-4.8730	変わ?味
-4.4052	夜遊び
-3.5641	夜景
-4.1852	夜??スキャ?
-4.1852	夜中
-4.4052	夕??
-4.4052	夕?ありつ?
-4.8730	夕?たべ??
-4.4052	夕?出来?
-4.8730	夕?抜く
-4.8730	夕?済?
-4.4052	夕?食べ??
-4.8730	夕?食べ?行く
-4.8730	変化
-4.8730	変数
-4.8730	変?する
-4.8730	外国
-4.4052	外?
-4.4052	夢
-3.2532	大
-3.6557	大きな
-2.9892	大きい
-2.6293	大丈夫
-3.7100	大人
-3.2146	大?
-4.4052	大?*
-4.8730	大?.
-4.8730	大??
-4.8730	大??くる
-4.8730	大??ゲー?財?寂し?
-4.4052	大??予防
-4.8730	大?????見る
-4.4052	大??手??
-4.4052	大????*
-4.8730	大??気?
-4.8730	大??熱中
-4.8730	大??補給
-4.8730	大?こと
-4.8730	大??
-4.1852	大?予防
-4.8730	大?哲学
-4.4052	大?参加
-4.8730	大?火??重?
-4.8730	大?脳み?糖?
-4.4052	大?話?盛り上が??
-4.8730	大??花火
-4.0399	大??
-4.4052	大?レベル
-4.8730	大?中止
-4.4052	大?出場
-4.8730	大?向か?
-4.8730	大?大??焼?すご??本当に
-4.8730	大????
-4.1852	大?楽しみ
-4.8730	大??
-4.4052	大?花火
-3.9312	大?行く
-4.8730	大?見る
-4.8730	大?連??ワールドカ??
-4.8730	大?りん??ゴリラ
-2.7970	大?
-4.4052	大?!
-4.8730	大??
-4.8730	大??塩??つける
-4.8730	大??敵
-4.4052	大???
-4.8730	大??風通し
-4.4052	大?する
-4.1852	大??
-4.4052	大?予防
-4.8730	大?個人
-4.8730	大?熱中
-4.8730	大?鮮度
-4.4052	大勢
-4.8730	大?犬
-2.5505	大好?
-4.8730	大好?!
-4.8730	大好?*
-4.1852	大好?.
-4.8730	大好??ありがと
-4.8730	大好???
-3.6075	大好??スイカ
-4.4052	大好???強?
-4.8730	大好???
-4.8730	大好?お
-4.4052	大好?の
-4.4052	大好??
-4.4052	大好?ピザ
-4.8730	大好???
-4.8730	大好???スイカ
-4.4052	大好?我が家
-4.8730	大?
-4.8730	大?*
-4.8730	大??
-4.4052	大?????
-4.4052	大??世話
-4.8730	大??冗?す?
-4.4052	大???発?出来?
-4.8730	大???染め
-4.8730	大??水は?良?
-4.8730	大??汚れ
-4.8730	大?そ?
-4.4052	大?こと
-4.8730	大?なんと
-4.8730	大?ラ?ュ
-4.8730	大?大丈夫
-4.4052	大?意?急
-4.0399	大?思う
-4.8730	大?携帯
-4.8730	大?支?運転
-4.4052	大?日本人
-4.8730	大?気持ち
-4.4052	大?海難
-4.8730	大?犬鳴
-4.4052	大?研究
-4.8730	大?農家
-4.8730	大?都?実に
-4.1852	大?雪
-3.7100	大学
-3.9312	大学院
-4.1852	大抵
-4.8730	大?鴨?眺める
-4.8730	大物
-3.7100	大阪
-4.8730	大雨
-4.4052	大陸
-4.8730	天の?綺?
-4.4052	天ぷ?良??サクサク
-4.4052	天ぷ???大好?
-4.8730	天下?
-4.4052	天??
-4.8730	天?良?!
-4.8730	天?良??天???
-4.8730	天?良?出かけ?天???良?
-4.8730	天???
-4.8730	天??天???
-4.4052	天??天?青空
-4.1852	天?そうです?
-4.0399	天?ホン?良?
-4.4052	天?よい
-4.8730	天?予?
-4.4052	天?天?爽?
-4.8730	天?悪?
-4.8730	天?悪?天?み?て?の
-4.1852	天?日
-4.4052	天?晴れる
-4.1852	天?晴??
-4.8730	天??
-4.8730	天??
-4.8730	天???良?
-4.1852	天?気持ち
-4.8730	天????
-4.8730	天?青空
-4.8730	太っ腹
-4.8730	太?ち?
-4.8730	太?て?
-4.4052	太??上着
-4.8730	太平?泳?
-4.4052	太陽熱
-4.0399	失?
-4.1852	失礼
-4.4052	?*
-4.4052	??
-4.8730	??する
-4.4052	??さあ
-4.8730	????
-4.8730	??熱中
-4.8730	?あえて
-4.1852	?おすすめ
-4.1852	?さあ
-4.4052	?きれ?な?祭?参加
-4.8730	?お化?出??
-4.4052	?ど?暑い
-4.1852	?なつ???くる
-4.8730	?まっ
-4.8730	?みんな
-3.8443	??
-4.0399	??
-4.8730	??
-4.8730	?プ?ル
-4.4052	?ビ?ル
-4.8730	?もう
-4.8730	?よく
-4.8730	?アイス
-4.8730	?カレー
-4.4052	?クーラー
-4.8730	?ジョギング
-4.8730	?京都
-4.8730	?使??
-4.4052	??する
-4.4052	?匂い
-4.4052	?冬
-4.8730	?出?
-4.1852	?出?と?サン?
-4.4052	?好?
-4.8730	?好??
-4.8730	?好??猛暑
-4.8730	?大阪
-4.8730	??!
-3.9312	?定番
-4.4052	?展開
-4.8730	?快適
-4.8730	???
-4.8730	?感じ
-4.1852	?感じ??線?花火
-4.1852	?暑い
-4.4052	???行く
-4.4052	?更かす
-4.4052	?東京
-4.8730	?本当に
-4.8730	?柑橘?香り
-4.8730	?果物
-4.8730	?枝?トウモロコシ
-4.8730	?楽しみ
-4.4052	?楽しい
-4.4052	??
-4.8730	?止??
-4.8730	?気持ち
-4.0399	?海
-4.8730	?海水浴
-4.1852	?涼しい
-4.1852	?特に
-4.8730	?真っ盛り
-4.8730	???な?
-4.4052	?祭?楽しい
-4.8730	?祭?用
-4.1852	?祭?行く
-4.8730	?祭典
-4.4052	?花火
-4.8730	?見る
-3.8443	??
-4.4052	?論文
-4.4052	?辛い
-4.4052	??
-4.4052	?野菜
-4.4052	?開放
-4.0399	?風物詩
-4.8730	?風通し
-4.8730	?食べ?れる
-4.4052	?麦茶
-3.8443	壊す
-4.8730	壊れ?も?
-4.8730	士
-4.8730	壮大
-4.8730	声
-4.4052	売??
-4.8730	売??
-4.8730	売?側
-4.4052	売?始め?アイス
-3.5247	嬉し?
-4.8730	嬉し?.
-4.8730	嬉し??
-4.0399	嬉し??大好?
-4.4052	嬉し?クーラー
-4.8730	嬉し?スイカ
-4.1852	嬉し????
-4.8730	嬉し?限り
-4.8730	定期
-4.8730	定番
-4.4052	定?ほ??ある
-3.6075	安い
-4.1852	完?
-4.4052	宝く??
-4.8730	宝?見る
-3.9312	完璧
-4.0399	実に
-3.3425	実家
-4.8730	実?
-4.8730	安?性
-4.8730	安?する
-4.4052	安?大?安??
-4.8730	安?早?
-4.4052	安?買?
-3.9312	安?
-4.0399	室
-4.8730	室??
-4.4052	宮?行う
-4.4052	害虫
-2.8575	家
-4.8730	家??
-4.8730	家?女性
-4.8730	家?好??
-4.8730	家?好??料理
-4.8730	家?果てしな??
-4.8730	家?楽
-4.4052	家??く
-4.8730	家?話
-4.8730	家?遊?
-3.6557	家庭
-4.8730	家??
-4.4052	家??
-4.8730	家???見る
-4.4052	家?多??する
-4.8730	家?大?する
-4.8730	家?海
-4.4052	宿?終わ??
-4.4052	宿?進?
-4.4052	宿?進?で??
-4.4052	?つ?
-4.8730	?つ?*
-4.8730	?つ??の
-4.4052	?な?.
-4.8730	?な??スイカ
-4.1852	?な?て?.
-3.3952	?な?て?の
-3.0235	?大きい
-4.1852	?赤?
-4.8730	?数値
-4.8730	?青い
-4.4052	?食べ??思う
-4.8730	??人
-4.8730	??感?する
-4.8730	???見る
-4.1852	????する
-4.1852	?
-4.1852	屋?
-4.8730	展示
-4.4052	屋良
-4.4052	届く
-4.1852	履??
-3.2335	山
-4.1852	山形
-4.4052	山??品?向か?
-4.8730	山??影響
-4.8730	山??止ま?
-4.1852	山?????
-4.8730	山?登?こと
-4.8730	?さん
-4.4052	?マスクメロン
-4.4052	?楽しみ
-4.1852	?美味しい
-4.8730	?行く
-3.8443	?
-3.8443	??
-4.4052	???知?て?
-4.4052	????美味しい
-4.4052	威勢
-4.8730	???*
-4.8730	???おいしい
-4.8730	???で??たくさん
-4.8730	???使??
-4.4052	子房
-4.4052	子犬
-4.8730	子育て
-4.8730	子ど?かけ?て??日差?強?カリフォルニア
-4.8730	子ど?保育?スイカ
-4.8730	子ど?水遊?
-4.8730	子供だま?楽しい
-4.8730	子?ころ
-4.1852	子?っぽ?
-4.8730	子?と??スポ??ー
-4.8730	子?と????見る
-4.8730	子??くすぐる
-4.8730	子??忘れ??
-4.8730	子??感動
-4.8730	子??繊細
-4.4052	子?泣?もん
-4.8730	子?深海?好??
-4.8730	子?読書
-4.1852	子?遊?
-4.8730	子??ジャン?読??
-4.8730	季??スイカ
-4.4052	季?な??幸
-4.4052	季?な???
-4.8730	季?も?
-4.8730	季?スイカ
-4.8730	季??てくる
-4.4052	季?変わり目
-4.8730	季?気持ち
-4.4052	学
-4.1852	学ぶ
-4.8730	学割
-4.8730	学?学?気楽
-4.8730	学?気楽
-4.8730	学?長?夏休み
-4.8730	?かう
-4.1852	?ゲー?好??ときど?遊?
-4.8730	?並
-4.8730	小さな
-4.4052	小さ?ころ
-4.0399	小さ?の
-4.1852	小さ??
-4.4052	小さ???欲しい
-4.1852	小さ?綺??線?花火
-4.4052	小さ?花火
-4.8730	小さ???ぱ??
-4.0399	小学校
-4.8730	導?
-4.8730	小?唯
-4.0399	少な?
-4.8730	少な?の
-4.8730	少な?ほ??
-4.8730	少な??
-4.8730	少な?羨ましい
-4.1852	少な??
-4.4052	小玉
-3.4885	小説
-4.4052	小鉢
-4.8730	少年
-4.0399	尾瀬
-4.4052	尾花沢
-4.1852	?*
-4.8730	??ビ?ル
-4.8730	???
-4.4052	??好???戦?面白?
-4.8730	??戦?始ま?
-4.8730	寂し?
-4.8730	寂し??大人
-4.8730	寂し?する
-4.4052	寂し?こと
-4.4052	寂し??暮らし
-4.8730	寂し?思う
-4.8730	寂し?海
-3.1965	寒い
-4.8730	富士山
-4.4052	寝不足
-4.8730	寝かせる
-3.3952	寝る
-4.8730	寝台
-3.9312	富豪
-3.9312	対処
-4.0399	対戦
-4.8730	対??溶岩
-4.0399	対?する
-4.8730	対?励?の
-4.8730	対?大?
-4.8730	対???
-4.8730	対話
-4.8730	寿司
-4.1852	?
-4.1852	始ま??みんな
-4.4052	始ま?単??しり
-4.8730	始ま?方
-4.8730	始め?.
-4.8730	始め??歴史
-4.1852	始め?の
-4.4052	始め?奥
-4.4052	姫
-4.4052	姿
-4.8730	建物
-4.8730	建?する
-4.8730	?
-4.8730	?さしかか??
-4.8730	?九?地方
-4.8730	?捜す
-4.8730	??試?行く
-4.4052	市?
-4.4052	希望
-4.8730	帰??正?過ご???
-4.8730	帰???け?の
-4.8730	帰?お盆
-4.4052	帰?の
-4.8730	帰?レンタル
-4.4052	帰?毎日
-4.4052	帰?荷物
-4.1852	帰?する
-4.1852	帰?めんどくさ?
-4.1852	帰??重い
-4.4052	常に
-4.4052	帽?か??こと
-4.4052	帽?か???
-4.8730	帽?ほしい
-4.8730	帽?ほ?良??帽???
-4.4052	帽?可愛い
-4.8730	帽?好?
-4.8730	帽?帽?大好?
-4.4052	帽?忘れ?ち?
-4.8730	帽?被??帽?ほしい
-4.8730	?1
-4.8730	??
-4.4052	??定置
-4.8730	干?ところ
-4.8730	干?ほ??
-4.1852	平凡
-4.4052	平?良?????哲学
-4.8730	平??できる
-4.8730	平??
-3.8443	年
-4.8730	年末年?過ご??
-4.8730	年?アルバイ?始め?アルバイ?終え??
-3.8443	幸
-4.8730	幸?な?欲しい
-4.4052	幼稚園
-4.8730	幽?信じる
-4.8730	幽?家
-4.8730	??
-4.8730	??
-4.0399	川遊び
-4.1852	工学
-4.4052	巧
-4.8730	巨人
-3.7720	差
-4.8730	巷
-4.8730	巻
-4.8730	巻???大?
-4.8730	??
-4.4052	?良?
-4.1852	?ほ?楽しい
-4.4052	?ほ?気持ち?
-4.8730	?み?
-4.8730	?バ?ベキュー
-4.1852	?気持ち
-4.4052	?水
-4.4052	?海
-4.8730	?濁る
-4.8730	?溢れる
-4.1852	?綺?
-4.0399	?行く
-4.8730	増え?
-4.8730	増え??消化
-4.4052	増や?の
-4.1852	増?する
-3.2146	度
-4.4052	度数
-4.4052	度?抜く
-4.1852	座
-4.8730	座?大丈夫
-4.8730	座?する
-4.8730	庭
-4.8730	庶??お
-4.8730	庶?優しい
-4.8730	庶??生活
-4.4052	??
-4.1852	???
-4.8730	???
-4.4052	??て?選択肢
-4.8730	??出荷
-4.8730	?深????行く
-4.8730	?行く
-3.6075	?
-4.1852	??て???
-4.8730	??
-4.8730	????
-4.8730	??趣味
-4.1852	弁?買?買?
-4.4052	引?
-4.4052	引き起こす
-4.8730	引き起??エボラ出??
-4.8730	引き続き
-4.4052	引っ込める
-3.9312	引く
-4.8730	弱ま?.
-4.1852	弱?
-4.8730	弱??.
-4.8730	弱?思う
-4.4052	弱める
-4.1852	張?て?の
-4.1852	張???
-3.7720	強?
-4.8730	強?(
-4.8730	強?.
-4.8730	強??
-4.8730	強?つよい
-4.8730	強める
-4.8730	弾ける
-4.8730	弾?
-4.4052	弾?の
-4.1852	弾??
-4.8730	弾?曲
-4.8730	弾?音
-4.8730	?.
-4.4052	??
-4.4052	?懐かしい
-4.1852	得る
-4.8730	後?残る
-4.8730	後味
-4.4052	従来
-3.7720	後悔
-3.2739	得意
-4.8730	御社
-4.8730	御飯
-4.8730	復?かか?
-4.8730	復?する
-4.8730	復??
-4.0399	?時間
-4.4052	???
-4.8730	???花火
-3.2146	?
-4.8730	?特に
-4.4052	?頑張?仕?上手?
-4.8730	当時
-4.8730	当た?後で
-4.1852	形
-4.8730	形?楽し?
-4.8730	形?遊?
-4.0399	彫刻の森
-4.0399	影響
-4.8730	役割
-4.4052	役立つ
-4.0399	彼女
-4.8730	忘れ?
-4.4052	忘れ?て?大?成績
-4.8730	忙し?
-4.8730	忙し??
-4.4052	忙し????できる
-4.8730	忙し?すぎ?疲れる
-4.0399	忙し?そ??
-4.1852	忙し?の
-4.4052	忙し?????つける
-4.1852	忙し??????
-4.4052	忙し?仕?大きい
-4.8730	志向
-4.4052	応援
-3.3425	快適
-4.8730	??
-3.8443	?ける
-3.9312	?
-4.4052	?
-3.3952	?
-3.0739	?よい
-4.1852	?
-4.8730	?アニメ
-4.4052	?休ま?.
-3.5247	?哲学
-4.8730	?原因
-4.8730	?問????哲学
-4.8730	?問???紛らわせ?
-4.1852	??
-4.8730	?忘れ???子??感動
-4.8730	?持つ
-4.8730	?教え?くださる
-4.8730	?新?みたい
-4.4052	?無
-4.8730	?状??変数
-4.1852	?落ち?
-4.8730	???紛らわす
-3.5641	??
-4.8730	???マスク
-4.4052	???過剰
-4.8730	??しれ??態度
-3.9312	??な?
-4.4052	??な??上着
-4.8730	??の
-4.1852	??履??
-4.8730	??季?.
-4.8730	??後悔
-4.1852	??料理
-4.8730	??簡??
-4.8730	??荷物
-4.4052	????
-4.8730	??雨
-3.3952	??
-4.8730	赤
-3.9312	赤ち?
-4.4052	赤?部?食べ?られ??スイカ
-4.4052	赤味?味噌?作る
-4.8730	赤味?恋し?
-4.1852	走れる
-4.8730	走?
-4.1852	走?こと
-4.4052	走?て??
-4.4052	走?の
-4.8730	起こす
-4.1852	起こる
-4.1852	起きる
-3.6075	懐かしい
-4.4052	憂鬱
-4.8730	憎い
-4.4052	憧れる
-4.8730	惜し?な?
-4.4052	惹?れる
-4.8730	?厚い
-4.4052	?弱
-4.8730	?
-4.4052	??
-4.4052	拒否
-4.8730	???
-4.8730	??持つ
-4.8730	??決める
-3.0739	意味
-4.0399	意外と
-4.1852	意??
-4.8730	意?短?も?
-4.8730	意義
-4.8730	意?する
-4.8730	意?大?
-4.4052	意?強?
-4.4052	意?辛い
-4.8730	意?難しい
-4.8730	愛す
-4.1852	愛す?の
-4.4052	愛らしい
-4.4052	愛知
-3.3681	感じ
-4.8730	感じ??
-4.8730	感じ??奥行き
-4.8730	感じ?もん
-4.8730	感じ?話
-4.1852	感?する
-4.8730	感??
-4.8730	感??忘れ?こと
-4.4052	感?欲しい
-3.4885	感動
-3.9312	感染
-4.4052	愉快
-4.8730	?*
-4.4052	?ある
-4.8730	?少な?
-4.8730	?楽し?
-4.8730	?欲しい
-3.8443	怒る
-3.1309	怖い
-4.4052	思え??
-2.6105	思う
-4.8730	思いっきり
-4.0399	思い出?
-4.8730	思い出?タイトル
-4.8730	思い出??
-4.8730	思い浮かべ??かき氷
-4.1852	急
-4.4052	急?海
-3.5247	性
-3.9312	性格
-3.9312	恋し?
-4.8730	恋し?こと
-4.8730	恋人
-4.1852	恐れ??
-4.1852	恐ろしい
-4.8730	恥ずかしながら
-4.4052	恥ずかしい
-3.7100	慣れる
-4.8730	慰??完?
-4.4052	手?ひ?サイズ
-4.8730	手伝う
-4.8730	手放せる
-4.4052	手書?めんどくさ?手書??汚い
-4.8730	手洗い
-4.8730	手??めんど?
-4.4052	手??大?手??めんどくさ?
-4.8730	手????な?
-4.8730	手??簡?
-4.8730	手??行き届く
-4.8730	手?する
-4.4052	手足
-4.8730	手間
-3.4885	打ち上げ花火
-3.9312	打つ
-4.8730	打?つながる
-3.4551	扱?
-4.8730	扱?て??興味
-3.6075	扱?て?の
-4.8730	扱?て??哲学
-4.8730	扱?の
-4.8730	扱??
-4.1852	?ふさが?
-4.8730	?べたべ?な?の
-4.4052	?アルバイ?出?て?こと
-4.8730	?持つ
-4.4052	??不便
-4.1852	??欲しい
-4.8730	??もつ
-4.4052	??欲しい
-4.8730	成?
-4.1852	我が家
-4.4052	成果
-4.8730	成績
-4.4052	我?
-4.8730	成る
-4.8730	戦
-4.8730	戦?国
-4.1852	戻?!
-4.8730	戻??毎日
-4.8730	捏?
-4.4052	捉え?方
-4.4052	捕らえる
-4.8730	捨て?
-4.4052	悟り
-4.1852	悟る
-3.2739	悪?
-4.4052	悪?.
-4.8730	悪??眼鏡
-4.1852	悪???
-4.1852	悪?する
-4.4052	悪?お菓?入?て?添?物
-4.8730	悪?な?て?ひと
-4.8730	悪???
-4.4052	悪?大丈夫
-4.8730	悪?大?.
-4.8730	悪?家??好??
-4.4052	悪??
-4.8730	悪?著し?
-4.0399	悪夢
-4.4052	悲しい
-4.8730	持て余す
-4.8730	持ち帰??調査
-3.3184	持つ
-4.4052	挑?
-3.6557	挑戦
-4.4052	挨拶
-4.8730	挫?する
-4.8730	挫?可能
-4.8730	振?人
-4.8730	振?派
-4.4052	??できる
-4.8730	??マニア?
-4.8730	掘る
-3.9312	授業
-4.8730	掛か??旦那
-4.8730	掛け??
-4.8730	掛け?方
-4.4052	排?
-3.4885	探?
-4.8730	探??
-4.8730	探?の
-4.8730	探??
-4.8730	探???
-4.8730	探?行く
-4.8730	接戦
-4.8730	接?する
-4.4052	控えめ
-4.1852	控える
-4.4052	掲?する
-3.7100	?
-4.8730	抑え?しれ?
-4.1852	折りたたみ
-4.8730	抜群
-4.8730	抜け出?
-4.4052	抜く
-4.8730	投げ?浮?輪
-4.8730	披露
-4.0399	抱える
-4.8730	抱?まくら
-4.1852	抹茶
-4.4052	押?
-4.8730	押?れる
-4.1852	描け???
-3.9312	描く
-4.8730	提??提?書
-4.8730	揚げ???
-4.1852	提?する
-4.1852	揺れる
-4.8730	揺?れる
-4.8730	?
-4.0399	撮れる
-4.8730	撮??*
-4.4052	撮?の
-4.8730	撮??
-4.4052	撮?花火
-4.8730	救う
-3.9312	教師
-4.0399	教え?
-4.0399	教え?!
-4.8730	教え??
-3.7100	教え?くださる
-4.4052	教え?くれ??
-4.8730	教え?くれ?ありがと????
-4.8730	教え?くれ?の
-4.1852	教え?しれ?
-4.0399	教え?の
-4.4052	教え??
-4.1852	教え??
-4.4052	教え?もらえる
-4.8730	教え??
-4.8730	教え?下さ?.
-4.4052	教え?下さ??
-4.4052	教え?下さ??
-4.8730	教え?下さ?知?
-4.1852	教え?知?
-4.8730	救?
-3.4885	散歩
-4.8730	散?する
-4.1852	数
-4.8730	数値
-3.9312	数学
-4.8730	数?わか???
-4.8730	数?出?スポ???
-4.8730	数?出?数?変え?しれ?
-4.8730	数?変え?
-4.8730	数?変え???それ
-4.1852	整?痛い
-4.1852	整?行く
-4.8730	敵
-4.4052	??
-4.8730	操?する
-4.8730	操?難しい
-4.8730	操?面?
-4.8730	擦?美味しい
-4.4052	擬人
-3.2532	携帯
-4.8730	支援
-4.4052	支?する
-4.8730	支?仕?出?しれ?
-4.4052	改札
-4.4052	改?できる
-4.4052	改??
-4.4052	改?進?
-4.8730	放置
-4.8730	政?対?と?
-4.8730	政?対?と??
-3.5641	政治
-4.8730	料
-3.1159	料理
-4.8730	斉藤
-4.4052	新
-3.7100	新しい
-4.8730	新??
-4.8730	新幹?快適
-4.8730	新幹?止ま?
-4.4052	新幹?行う
-4.8730	新幹??
-4.8730	新?読?新?興味
-2.8495	方
-4.8730	方?な?の
-4.8730	方?思う
-4.8730	方?発?する
-4.1852	施設
-4.4052	?
-4.8730	?下げ?の
-4.4052	?上が??
-4.8730	?上が???下が???
-4.4052	?使??
-4.8730	?足?
-4.4052	?高い
-4.8730	??使?の
-2.5795	暑い
-3.9312	暗い
-4.4052	暖房
-4.8730	暖か?
-4.4052	暖か??天??よい
-4.4052	暖か?な??
-4.4052	暖め?られ??温度
-4.4052	暮らす
-4.8730	暮らし
-4.8730	暴れる
-4.0399	?
-4.4052	??
-4.4052	?ぶ?*
-4.4052	?ぶ?な?の
-4.4052	?ぶ?な??ぶ??
-4.8730	??なで?なで?
-4.8730	???
-4.8730	?ある
-4.4052	?と?ずっと
-4.8730	?と?おし???
-4.8730	?と?漫画
-4.8730	?の
-4.8730	?トラン?する
-4.8730	?持て余す
-4.8730	???
-4.8730	既?既??
-3.0607	日
-3.9312	日?つぶ?
-4.8730	日?つぶ?て?の
-4.8730	日?変数
-4.4052	日?方
-4.8730	日にち
-4.4052	日?良?
-4.1852	日?使???
-4.4052	日?使?日?なくす
-4.8730	日?買??熱中
-4.8730	日?海
-4.4052	日??シャーベッ?食べ??シャーベッ?好?
-4.4052	日帰??泊ま?良?
-4.4052	日帰??
-4.4052	日帰?大丈夫
-4.4052	日帰?行う
-4.8730	日帰?行く
-4.1852	日差?強?
-4.4052	日差?強??日焼?止?きちんと
-4.8730	日差?強??風
-4.8730	日差?強?すぎ??エアコン
-4.4052	日差?強?日差?紫外?強?
-4.8730	日差?熱??日差?さえぎる
-4.8730	日当た?良?ほ??
-4.8730	日当た?抜群
-4.8730	日曜日
-3.2956	日本
-4.8730	日本?!
-3.6075	日本人
-3.9312	日本海
-4.4052	日本?わか???
-4.1852	日本??こし?
-4.8730	日本?上手
-4.8730	日本?上手?
-4.8730	日本?入?*
-4.8730	日本?入?部?出来
-4.1852	日本?奥
-4.4052	日本?多い
-4.8730	日本?敬?難しい
-4.8730	日本?正しい
-4.8730	日本?表現
-3.6557	日焼?する
-4.8730	日焼?プ?ル
-4.8730	日焼?恐れ?の
-4.8730	日焼?止?使?勝て?日焼?止?強?
-4.1852	日焼?止?塗る
-4.8730	日焼??つける
-4.8730	日焼?苦??
-4.8730	日焼???予?
-4.8730	日焼???予?
-4.1852	日焼?面白?
-4.8730	日陰
-4.8730	日?予防
-3.8443	旦那
-3.8443	早?
-4.8730	早???
-4.8730	早?たべ?ほ?おいしい
-4.8730	早?な?社?復帰
-4.8730	早??梨
-4.8730	早?夕?美味しい
-4.8730	早?涼しい
-4.8730	早??投げ??ピッチャー
-4.8730	早?避難
-4.4052	早?雑??
-4.4052	早?食べ?すぎ?熟れ??
-4.8730	早?食う
-4.8730	早??
-4.8730	早?薬
-4.4052	早?早起??ける
-4.4052	早起?する
-4.8730	早起?日
-4.4052	早?発?大?
-4.8730	早?発?大?至?
-4.8730	??
-4.8730	??
-4.8730	??
-4.8730	?オススメ
-4.8730	??
-4.8730	??お
-3.9312	??する
-4.4052	???
-4.8730	??アルバイ?出来??学?勉強
-4.8730	??予??思い出
-4.8730	??備え?
-4.8730	??出来??
-4.4052	???????荷物
-4.8730	??好??
-4.4052	??太?こと
-4.8730	??太?の
-4.1852	??教え?下さ?!
-4.8730	??日??天?ホン?良?
-4.8730	??欲しい
-4.8730	???
-4.8730	??疲れる
-4.8730	??行う
-3.5641	??行く
-4.8730	???
-4.4052	??長?
-4.0399	時には
-4.1852	時?
-4.4052	時代
-3.7100	時期
-3.2739	時間
-4.8730	晩
-4.8730	普?
-4.8730	普?する
-3.8443	普段
-4.4052	普??
-3.8443	景色
-4.8730	晴れや?気?
-3.6075	晴れる
-4.4052	晴??
-4.8730	晴?マ?ク
-4.8730	晴?もっと
-4.8730	晴??
-4.8730	晴?変わ??
-4.1852	晴?日
-4.4052	晴?晴??
-4.8730	?良?カルシウ?豊?
-4.8730	??大??夜?列??
-4.8730	???行く
-4.8730	??睡??
-3.7100	?ある
-4.8730	?はね?友達
-4.8730	?????試?見る
-4.8730	?以?食べ?こと
-4.4052	??
-4.4052	?出??
-4.4052	?場??
-4.4052	?抜く
-4.8730	?漁業
-4.8730	?育て?みたい
-4.8730	?行く
-4.1852	??????
-3.4241	明日
-4.8730	明る??日焼??荒れ?
-4.8730	明け
-4.4052	星空
-4.4052	昔話
-4.1852	春
-3.7720	昨日
-4.8730	是?進める
-3.6557	昼
-4.8730	昼?
-4.8730	昼?と??
-4.8730	昼?大?
-4.8730	昼??よい
-4.4052	昼?気持ち
-4.4052	昼?ありつ?
-4.4052	昼?する
-4.8730	昼?と?予?詮索
-4.8730	昼?定番
-2.7137	?
-4.4052	?ある
-4.4052	??風?入?治???風邪
-4.8730	?暖房
-4.8730	??
-3.8443	曲
-4.8730	曲げる
-4.4052	更新
-4.4052	書ける
-4.4052	書?
-4.8730	書?.
-4.8730	書??
-4.8730	書?て?.
-4.4052	書?の
-4.8730	書??
-4.8730	書?ハンコ
-4.0399	?
-4.4052	材料
-4.4052	来?!
-4.4052	来??バイク
-4.8730	来??外国
-4.8730	来??海
-4.4052	来?て?危険
-4.8730	来?人
-4.8730	来?行く
-4.0399	来週
-3.7100	東京
-4.0399	東山
-4.4052	東日本
-4.4052	東?圭吾
-4.8730	松?食べ?しれ?
-4.0399	板
-4.4052	有り余る
-4.4052	望?
-4.4052	有人
-4.8730	朝?パン
-4.8730	朝?食べ??
-4.8730	期?する
-4.8730	期?ほしい
-4.4052	期?値
-4.4052	有効
-2.8338	有名
-4.4052	有?行く
-4.4052	有?
-4.4052	有難???
-4.8730	木の?かい??日陰
-4.8730	木陰
-4.8730	末
-4.4052	末梢
-3.4885	本
-4.4052	本?
-4.8730	本?さん
-4.4052	本?買??
-3.3681	本当に
-4.4052	本当?
-4.4052	本?!
-4.1852	本??
-4.8730	本??ありがと????
-4.8730	本?スポ???
-4.8730	札?泊ま????オススメ
-3.8443	?*
-3.4551	?
-4.8730	?色?部
-4.8730	??今日
-4.4052	??北海?函館
-4.1852	?えらぶ
-4.4052	?おいしい
-4.8730	?つ?っぱな?する
-4.8730	?つらい
-4.8730	?びしょ濡??髪
-4.8730	??
-4.8730	??
-4.8730	?プ?ル
-4.8730	?ホットド?
-4.8730	?ライオン
-4.8730	?仕?行く
-4.8730	?体調
-4.8730	??見る
-4.8730	?博?行く
-4.8730	???
-4.8730	??ベス?
-4.8730	?地?落ち?しれ?
-4.8730	?地?近づ?の
-4.4052	?好?
-4.4052	?大好?
-4.4052	?天??
-4.8730	?家?こな??
-4.8730	?忙し?無?海
-4.8730	?起きる
-4.4052	?方
-4.4052	?日差?強?
-4.8730	???する
-4.8730	???行く
-4.8730	??海
-4.8730	??ち?
-4.4052	?気温
-3.4551	?海
-4.4052	??
-4.8730	??
-4.8730	?終わ????予??思い出
-3.7100	?行く
-4.4052	?買????上着
-4.8730	?買?水
-4.8730	?趣味
-4.4052	?近海
-4.8730	?連?ドラ?視?
-4.4052	?雨
-4.4052	?青?もう
-4.4052	?青?好?
-4.8730	?青???しれ?
-3.7720	??
-4.4052	??!
-4.4052	??.
-4.8730	???
-4.4052	???くだも?
-4.4052	?????*
-4.8730	????海
-4.8730	???辛?
-4.8730	???
-4.8730	???奥
-4.4052	??気持ち
-4.4052	??気温
-4.4052	?限
-4.8730	??ハッピ?エン??
-3.7100	??
-4.8730	??*
-4.4052	??1
-4.4052	???
-4.8730	???ノン
-4.8730	???ブラ?
-4.4052	????
-4.8730	??ある
-4.8730	??する
-4.4052	??なに
-4.8730	??ハ??て?こと
-4.0399	??ヒ?
-4.8730	??マダガスカル
-4.8730	??バイ?忙し?バイ?楽しい
-4.1852	??ライン
-4.4052	??アイス
-4.8730	??インターンシ??
-4.8730	??エアコン
-4.4052	??ゲー?興味
-4.4052	??スーパ?
-4.8730	??人
-4.4052	??体調
-4.8730	???スポ??なさる
-4.8730	????
-4.1852	???読??
-4.8730	??台風
-4.8730	??図書館
-4.4052	??夏バ??
-4.0399	??多い
-4.4052	??寝る
-4.8730	??忙し????紛らわす
-4.0399	??急
-4.8730	??悩み
-4.4052	??折り?凝る
-3.9312	??暑い
-4.4052	????する
-4.8730	???早?大????
-4.4052	??楽しい
-4.4052	??洋楽
-4.8730	??流行る
-4.4052	??海
-3.8443	??涼しい
-4.8730	??漫画
-4.4052	??熱?!
-4.4052	??熱?予防
-4.8730	??犬
-4.4052	??甘み
-4.8730	??男性
-4.8730	??睡?不足
-4.8730	???行く
-4.8730	??聞く
-4.1852	??興味
-4.4052	??読?面白?本
-4.8730	??読書
-4.0399	??雨
-4.8730	??飲?で?の
-4.8730	??
-4.8730	染め
-4.0399	査読
-4.8730	??水?眩しい
-4.4052	??よく
-3.6075	果物
-4.4052	枝????頼?
-4.8730	枝?美味しい
-4.1852	?*
-4.4052	?変え?
-4.8730	?抱きしめる
-4.8730	???作る
-4.8730	根
-4.8730	格別
-4.4052	格段
-4.8730	格?する
-4.8730	??ある
-4.0399	??価
-4.8730	????
-4.4052	??くだも?
-4.8730	?ある
-4.8730	?きれ???花?する
-4.8730	?な???
-4.8730	??
-4.8730	?マンゴー
-4.8730	?供え?昨日
-4.0399	?好?
-4.8730	?好??
-4.1852	?好?散??美し?
-4.1852	?方
-4.8730	?見れ?温??
-3.5641	梨
-4.8730	?
-4.0399	?
-4.4052	?ほしい
-4.8730	?味
-4.4052	?干???花
-4.4052	?欲しい
-4.4052	???
-4.4052	??酸っぱ?の
-4.8730	森
-4.8730	検査
-4.1852	極める
-4.8730	極?夜中
-4.8730	極楽寺
-3.3681	楽
-3.3425	楽しみ
-2.2158	楽しい
-4.8730	楽しめ?
-4.8730	楽しめ??
-4.1852	楽しめ??勧める
-4.4052	楽しめ?釣り?
-3.0480	楽し?
-4.8730	楽器
-4.4052	概念
-4.4052	模?面白??スイカ
-4.1852	権?めんどくさ?
-4.8730	横断
-4.8730	横?なんか
-4.8730	横?綺?
-4.4052	横目
-4.0399	横須?
-4.8730	横須??
-4.8730	横須?行く
-4.4052	機?
-4.8730	機?電波
-4.8730	機?
-3.8443	機種
-4.4052	?*
-4.4052	?.
-4.4052	?お札
-4.8730	???乾??乾燥
-4.4052	?使???
-4.4052	?便利
-4.4052	?券
-4.8730	?出来?の
-4.1852	?多い
-4.4052	?買?
-4.8730	?電?代
-4.0399	次
-4.1852	欧米
-2.6855	欲しい
-4.8730	??手??
-4.4052	?
-4.1852	?
-4.4052	残す
-4.8730	残り少な?
-3.9312	残る
-3.5247	残念
-4.8730	段??
-4.8730	殺?する
-3.9312	殺虫
-3.8443	歌う
-4.8730	歌姫
-4.8730	歌?
-4.1852	歌?わか?
-4.8730	歌?わか???
-4.1852	歌?わか??楽器
-4.8730	歌?伎座
-4.8730	歌??好?
-4.8730	歌??観
-4.8730	歌??鑑?する
-4.4052	止ま?
-4.4052	止ま?こと
-4.8730	止ま?な?笑う
-4.4052	止める
-4.4052	止??気持ち
-3.8443	正しい
-4.4052	正?
-4.8730	正方形
-4.4052	正解
-4.4052	武士
-4.8730	歩?づらい
-4.8730	歯ごた?ガ?代わり
-4.8730	歯ごた??
-4.8730	歯ごた?大好??皿
-4.8730	歯?衛生
-4.0399	歳
-4.4052	歴史
-4.0399	死ぬ
-4.4052	?難しい
-4.4052	毎回
-3.7100	毎年
-3.5641	毎日
-4.8730	母乳
-3.9312	比?する
-4.8730	?染め
-4.8730	気???
-4.8730	気味
-4.4052	気力
-3.1015	気?
-4.4052	気晴らし
-2.7502	気持ち
-4.4052	気持ち良??海
-4.8730	気持ち良???海
-3.3952	気持ち?
-4.1852	気持ちよい
-3.6557	気温
-4.4052	気軽
-4.8730	気遣?くれ?ありがと?!
-4.8730	気難しい
-4.8730	民?正しい
-4.8730	民?混乱
-4.8730	民?賢?
-3.1792	水
-4.4052	水?
-4.4052	水??塩?ある
-4.4052	水?ち?と
-4.4052	水?と?水?怖い
-4.4052	水?の
-4.0399	水??
-4.4052	水?制?ある
-4.8730	水?出?
-4.4052	水?取る
-4.8730	水?塩?と??付け?て?熱中
-4.8730	水?大?
-4.8730	水?常温
-4.8730	水???キャベツ
-3.4885	水?補給
-4.8730	水?摂る
-4.4052	水?摂取
-4.8730	水?難しい
-4.1852	水族館
-4.8730	水曜日
-4.1852	水泳
-4.4052	水?な??行う
-4.8730	水?な?海
-4.8730	水?はしゃ?
-4.8730	水??姉さ?見る
-4.4052	水?ギャル
-4.4052	水?無?
-4.4052	水??
-4.8730	水??
-4.4052	氷
-4.8730	氷?好??
-4.8730	??
-4.4052	?あう
-4.0399	?する
-2.9892	?つける
-4.8730	?な???泳?の
-4.8730	?な??医?さん
-4.8730	?な?ニュース
-4.4052	?な?新
-4.4052	?な?見た目
-4.4052	?付け??
-4.4052	?付け??感染
-4.8730	?付け??水?補給
-4.1852	?付け??熱中
-4.4052	?付け?ありがと
-4.1852	?付け?あげ??炎天?辛い
-3.7100	?付け?くださる
-4.4052	?付け?て??クーラー
-4.8730	?付け??
-4.8730	?付け???熱中
-4.8730	?付け??付け
-4.8730	?付け?熱中
-4.8730	?人?ど??できる
-4.8730	?休ま?.
-4.8730	?使??
-4.4052	?向く
-3.7720	?合う
-4.8730	?引き???
-4.1852	?抜け?な?寝坊
-4.4052	?楽
-4.8730	?配る
-4.4052	?重い
-4.8730	求め?
-4.8730	求め?の
-4.0399	汚い
-4.4052	江東
-4.8730	決ま?
-4.8730	決ま?くる
-4.4052	決ま??
-4.0399	決める
-4.4052	決断
-4.8730	?かく
-4.8730	???出?しま??カリウ?余?
-4.8730	?出?欲しい
-4.8730	??
-4.8730	?料理
-4.4052	?水?出??
-4.8730	?流す
-4.4052	?電
-4.8730	?頭
-4.4052	沖?!
-4.8730	沖?良?
-4.8730	沖?良???高?
-4.1852	沖?良?ところ
-3.8443	沖?そ?
-4.8730	沖?きれ?海
-4.8730	沖????
-4.0399	沖??
-4.4052	沖?ハワイ
-4.4052	沖?修学??行く
-4.4052	沖?働く
-4.8730	沖?接?する
-4.4052	沖?楽しい
-3.5247	沖?海
-4.4052	沖?行き
-4.4052	沖?行う
-3.7100	沖?行く
-4.4052	沖??
-4.1852	沖?飲?
-4.8730	沈?
-4.1852	没頭
-3.9312	沢山
-4.8730	河川敷
-4.4052	油
-4.1852	油断
-4.8730	治?良?
-4.4052	治?悪?
-4.4052	治?費
-4.8730	泊ま?の
-4.8730	泊ま??
-4.4052	泊ま?方
-4.8730	泊ま?温?入??あ?
-4.4052	泊ま?軽井沢
-3.7720	波
-4.8730	泣ける
-4.1852	泣?
-4.4052	泣?くださる
-4.4052	泣?て?
-4.8730	泣?感動
-4.8730	注?
-4.8730	注?打つ
-4.8730	注?肩
-4.8730	注意?
-4.8730	注?
-4.4052	注?する
-4.4052	注????予防
-4.4052	注???マスクメロン
-3.7720	泳げる
-4.1852	泳?
-4.0399	泳??海
-4.4052	泳?と?要る
-3.6557	泳?の
-4.8730	泳?み?海
-4.8730	泳?レジャー
-4.4052	泳??
-4.8730	泳??涼?予?
-4.8730	泳?得意
-4.4052	泳????眺める
-4.0399	泳?気持ち
-4.8730	泳?気持ち?
-3.7720	泳?海
-4.1852	泳?湘南
-3.8443	泳?行く
-4.0399	?ある
-4.8730	?する
-4.8730	?できる
-4.4052	?わく
-4.8730	???
-4.8730	??
-4.4052	洗う
-3.8443	洋服
-3.8443	洋楽
-4.8730	洋画
-4.8730	洋菓?方
-4.1852	洗濯
-4.8730	洋?どんな
-4.4052	津?
-4.1852	洪水
-4.8730	活きる
-4.1852	活?する
-4.8730	活?できる
-4.4052	活?チェ?
-4.8730	活?溶岩
-4.8730	活?見学
-4.0399	活用
-4.8730	活?.
-4.8730	活?する
-4.8730	活?できる
-3.6557	派
-4.8730	派??水?ビキ?多い
-4.4052	派??
-4.8730	派閥
-4.4052	?ナシ
-3.8443	流す
-4.4052	流れ
-4.8730	流れ?
-4.8730	流れ?の
-4.8730	流れ??
-4.4052	浜風
-4.4052	浪費
-4.8730	浮かれ?こと
-4.4052	浮か?
-4.4052	浮?輪
-4.0399	浴
-4.1852	浴び??シャワー
-4.0399	浴衣
-2.2121	海
-4.8730	海??あな??
-4.0399	海??
-4.8730	海?リゾー?行く
-4.8730	海?サイ?利用
-4.4052	海???行く
-4.8730	海?特に
-4.4052	海?結?多い
-4.4052	海?花火
-3.8443	海岸
-3.5247	海水浴
-4.8730	海?呼ぶ
-4.1852	海難
-3.9312	海鮮
-4.8730	浸?
-4.8730	浸?て?こと
-4.1852	?
-4.8730	?公??
-4.8730	?海
-4.8730	?鰹
-4.0399	?
-4.8730	消化
-4.8730	消去
-4.8730	消す
-4.0399	消費
-4.0399	液
-3.1965	涼しい
-4.8730	涼しげ
-4.4052	涼?
-4.8730	涼?.
-2.8826	深?
-4.1852	深?.
-4.4052	深??そ?
-4.4052	深??奥
-4.1852	深?こと
-4.8730	深?ところ
-4.8730	深?・
-4.4052	深??
-4.8730	深?奥
-4.8730	深??哲学
-4.1852	深??
-4.8730	深める
-4.8730	深??は?
-4.8730	深????よく
-4.8730	深海?見る
-4.8730	混?*
-4.8730	混???の
-4.8730	濁す
-4.8730	濁り
-4.4052	濡れる
-3.6557	?
-4.8730	??
-4.8730	??運動
-4.8730	渋い
-4.4052	済ませる
-4.1852	減ら?
-3.5641	減る
-4.4052	渓?釣?する
-3.9312	渡?
-4.4052	温かい
-4.4052	温度
-4.8730	温?ありがた?
-4.4052	温?入?フルー?牛乳
-4.4052	温?大丈夫
-4.8730	温??飲?牛乳
-4.4052	温?探?
-4.4052	温?無?日帰?行く
-4.4052	温?行く
-4.8730	温?面白?
-4.4052	港
-4.1852	??しい
-4.4052	溜ま?
-4.8730	溜ま?て???
-3.7100	準備
-4.8730	溢れる
-4.4052	溶ける
-4.4052	溶岩
-3.7720	?
-4.8730	?
-3.6075	湘南
-4.8730	湧?の
-4.4052	湾
-4.4052	湿度
-4.8730	湿?暑い
-4.8730	湿??もん
-4.8730	滑り台
-4.8730	?
-4.8730	?打つ
-4.8730	?水
-4.1852	??する
-4.8730	??なめる
-4.1852	??行く
-4.8730	???
-4.4052	演?する
-4.8730	演??聞く
-4.8730	演技
-4.8730	漢?水?海?漢???
-4.4052	漢方
-4.4052	漫??声
-3.4551	漫画
-4.4052	潜水
-4.8730	潜る
-4.8730	潮干狩?かも?みたい
-4.8730	火
-4.8730	火?火?多い
-4.8730	火??よく
-4.0399	災害
-4.8730	炎天?出かけ?予?ある
-4.8730	炎天???
-4.8730	炒め?定?食べ??
-4.1852	点滴
-4.4052	為
-4.8730	烏帽?落ち??
-3.7720	烏龍茶
-3.5641	無
-4.8730	無くな??
-4.1852	無?
-4.8730	無?.
-4.8730	無??良??スイカ
-4.4052	無??縁?
-4.8730	無?の
-4.8730	無??
-4.8730	無人島
-4.8730	無?終え?
-4.8730	無??
-3.7720	無?
-4.4052	無??
-4.4052	無?即?無??
-4.4052	無?更新
-4.4052	無用
-4.8730	無臭
-4.4052	無?する
-4.4052	無?得意
-4.4052	無?貫?の
-4.8730	無??
-4.4052	無?循環
-4.8730	焦がす
-4.8730	焦?
-4.8730	焼き鳥
-4.1852	焼き肉
-4.1852	焼きそば
-4.4052	焼?トウモロコシ
-4.8730	焼?イカ
-4.8730	焼?サザエ
-4.8730	焼?美味しい
-4.8730	焼?美味?
-4.8730	焼????
-3.9312	照れる
-4.4052	照?焼?美味しい
-4.8730	煮詰ま?楽しみ
-4.8730	熟れ?スイカ
-4.4052	熟?
-4.4052	熟?
-3.7720	熱?
-4.1852	熱??
-4.8730	熱??!
-2.6341	熱中
-4.4052	熱帯??健康
-4.4052	??て??スポ???動か?の
-4.8730	??溶岩
-4.4052	?
-4.4052	爬虫?飼??爬虫?持つ
-4.0399	爽?
-4.8730	爽快
-4.1852	牛乳
-4.1852	牡
-4.1852	物
-4.4052	物??する
-4.8730	物件
-4.8730	物好?多い
-4.4052	物?今?
-4.8730	物知?発?動く
-4.1852	特
-3.2146	特に
-3.8443	特別
-4.4052	特急
-4.8730	特??
-4.8730	特?
-4.8730	特用
-4.8730	特番
-4.4052	?タン
-4.1852	?座
-4.8730	?有名
-4.8730	?美味?
-4.1852	狙う
-4.8730	狩?する
-4.8730	狩?行く
-4.8730	独自
-4.4052	独身
-4.8730	狭ま?
-3.3952	犬
-4.8730	犬鳴
-4.8730	状??
-4.8730	状?表??
-4.8730	猛暑
-4.4052	猟犬
-3.2739	猫
-4.8730	珈琲
-4.1852	珍し?
-4.8730	珍し?思う
-4.8730	現在
-4.8730	現?つまらな?
-4.8730	現?見る
-4.8730	現?近づける
-4.8730	現象
-3.9312	瞑想
-4.4052	環?問?シンプル
-4.4052	環?問?重?
-4.4052	環?問?関?高い
-4.1852	?
-4.8730	?
-4.8730	??
-4.4052	癒す
-4.8730	発する
-4.8730	発つ
-4.1852	発売
-4.8730	発?半身
-4.8730	発?
-4.1852	発?する
-4.8730	発表
-4.8730	発?できる
-4.8730	発?難しい
-4.8730	登山
-3.9312	登録
-4.8730	白?ま
-4.4052	白??
-4.8730	白髪
-4.4052	?な?治??な???
-4.1852	?笑う
-4.4052	?酷?
-3.3681	疲れる
-4.8730	疲?感じ?こと
-4.4052	甘味
-3.1625	甘い
-4.4052	甘辛い
-4.4052	生じ??
-4.8730	生き?
-4.4052	生き?て?大丈夫
-4.1852	生き?の
-4.8730	生き??
-4.8730	生き?行け??日本人
-4.8730	生き方
-4.4052	生き物
-4.4052	生まれる
-4.8730	生え?
-4.8730	生え?蔦
-4.4052	生ぬるい
-4.4052	生クリー?嫌い
-4.8730	生る
-4.8730	生?
-4.8730	生産
-4.8730	生音
-3.6075	生活
-4.8730	生?
-4.4052	産
-4.8730	産????
-3.6557	用
-4.4052	用?ある
-4.8730	用?の
-4.1852	用?する
-4.4052	用?機材
-4.4052	田?どんな
-4.4052	田?懐かしい
-4.4052	田?生活
-4.1852	由?さお?*
-4.1852	由?さお???
-3.3681	甲子園
-4.4052	申し訳
-4.4052	男
-4.0399	男性
-4.0399	町並み
-4.4052	画面
-4.4052	?の
-3.7100	??
-4.8730	?わさび
-4.1852	?シラス
-4.4052	?観戦
-4.4052	?食べ?の
-3.5247	痛い
-4.8730	痛め?
-4.4052	痛?
-4.4052	痩せる
-4.1852	?
-3.9312	?
-4.1852	??な?こと
-4.8730	?かか?方
-4.8730	?な??雨
-4.4052	?な?こと
-4.1852	?な?予防
-4.8730	?な?脳
-4.4052	?ぶっ
-3.7100	??
-4.4052	?よい
-4.8730	?よく
-4.8730	?アドバイス
-4.4052	?今年
-4.8730	?人
-4.1852	?倒れ?人
-4.4052	?倒れ?大??クーラー
-4.8730	?出?
-4.4052	?出??
-4.8730	?危険
-4.4052	?命
-3.7100	?大丈夫
-4.1852	?屋?
-4.8730	?対?ある
-4.4052	?対?熱中
-3.6075	???
-3.9312	?起こす
-4.0399	?怖い
-4.1852	?恐ろしい
-4.8730	?掛か?人
-4.1852	?死人
-4.8730	?死?出?て?の
-2.7079	??つける
-4.8730	??つ?
-3.5247	??つ??
-4.8730	??付け????熱中
-4.4052	??付け?熱中
-4.8730	?注?
-4.4052	?注?する
-4.1852	?注???
-4.4052	?疑う
-4.1852	?要注??熱中
-4.8730	?話
-4.8730	????
-4.8730	番
-4.8730	番号
-4.8730	番???見る
-4.8730	番?よく
-4.0399	番?多い
-4.8730	番?見る
-4.8730	異な?レベル
-4.1852	異常
-4.8730	?虫
-4.1852	皮
-4.8730	皮?子供だま?おもち??
-4.8730	皿
-4.8730	皿洗い
-4.8730	?
-4.8730	??ま?見る
-4.1852	??人?幸?
-4.1852	???
-4.4052	?はちみつ
-4.8730	??
-4.8730	?よい
-4.8730	?エレベ?ター
-4.4052	?スト?リー
-4.8730	???遊?
-4.4052	?好??スイカ
-4.4052	?多い
-4.4052	?季??
-4.4052	?感じ
-4.8730	?思索
-4.8730	?聞こえる
-4.8730	?自??人
-4.8730	?行く
-4.8730	?豪雨
-4.8730	????哲学
-4.4052	?難しい
-4.8730	?雰囲?感じ?.
-4.4052	?
-4.4052	省エ??使用
-4.4052	省エ?電?代
-3.8443	省略
-4.4052	真??ひとと???
-4.8730	真??夢
-4.4052	真?風
-4.8730	真理
-4.8730	真面目
-4.8730	眩しい
-4.1852	眺める
-4.8730	眼???の
-4.8730	眼鏡
-4.8730	??な?くる
-4.8730	?住?
-4.8730	????ある
-4.4052	?多い
-4.8730	?尾花沢
-4.8730	?引っ越す
-4.8730	?赤
-4.8730	?来年度
-3.8443	?
-4.8730	??する
-4.4052	盗?
-4.8730	盛り
-4.0399	盛り上が?
-4.1852	盛り上が??
-4.1852	盛り上が??花火
-4.8730	盛り上が?くる
-4.8730	盛り上が?する
-4.8730	盛り上が?て?話?盛る
-4.8730	盛り上が?の
-4.8730	盛る
-4.8730	盛大
-4.4052	目
-4.8730	目?アルコール
-4.8730	目立つ
-4.8730	目玉焼??朝?作る
-4.4052	目玉焼?食べ??
-4.8730	目?口説?の
-4.8730	直??施??公民館
-4.1852	直?くれ?.
-4.8730	直?日?避ける
-3.3681	相性
-4.4052	相??
-4.4052	相撲
-4.8730	相?受け?の
-4.8730	?正?みんな
-4.8730	睡?と?こと
-4.8730	睡?と?の
-4.4052	??しれ?
-4.1852	??の
-4.4052	?
-3.7100	?
-4.8730	??変化
-4.4052	?
-4.8730	神奈??代表
-4.4052	神戸
-4.8730	神?試?ある
-4.8730	神?み
-4.4052	祭?楽しい
-4.4052	祭?行く
-4.8730	??・
-4.8730	??遊?
-4.8730	?こ??舞い降り?.
-4.8730	?なれる
-4.4052	??
-4.4052	社?人
-4.1852	社?復帰
-4.8730	社員
-4.4052	社長
-3.6075	知?
-4.8730	知?*
-3.9312	知?.
-4.0399	知??
-4.4052	知??え?
-4.8730	知??フェイス
-4.4052	知??サザエ
-4.8730	知?????
-4.8730	知??生?
-4.8730	知??越前
-4.4052	知?そっ
-4.8730	知?お?よう
-4.4052	知?こと
-4.8730	知?て?.
-4.0399	知?て??
-4.8730	知?て?こと
-4.8730	知?なんで
-4.8730	知?な?!
-4.8730	知?の
-4.4052	知?は?
-4.8730	知?ま?
-4.1852	知??
-4.4052	知??
-4.4052	知???
-4.8730	知?場?簡?たどり着ける
-3.7720	知?知?
-4.8730	知?知??
-4.8730	知?耳
-4.8730	知?軽金?金?
-4.8730	知?面白?哲学
-4.4052	知人
-4.8730	知?な??大阪
-4.8730	知?不足
-4.8730	知???
-4.4052	短?
-4.4052	短?ほ?嬉し??気持ち
-4.8730	短髪
-4.8730	砂?*
-4.4052	砂?作る
-4.8730	砂?歩?の
-4.8730	砂利
-4.1852	砂?走り回?砂?気持ち
-4.8730	砂?遊?
-4.8730	砂?入れる
-4.8730	砂???
-3.4241	研究
-4.8730	破れる
-4.8730	?付く
-4.4052	?入?の
-4.8730	硬?の
-4.8730	硬?麺
-4.0399	確?
-4.8730	確?!
-3.7720	確?.
-4.8730	確??*
-4.8730	確??????
-4.8730	確?????ぱ?
-4.8730	確??かき氷
-4.8730	確??ぶ?邪?ソファ
-4.8730	確??ネッ?ラジオ
-4.8730	確??アメリカ
-4.8730	確??カスタマイズ
-4.4052	確??全国
-4.8730	確???出???ことわざ
-4.8730	確????ニュース
-4.4052	確???
-4.8730	確??観?できる
-4.1852	確??醤油
-4.8730	確??食べ物
-4.4052	確?あ?
-4.8730	確??
-4.8730	確?ロマンチック
-4.8730	確?サ?ー
-4.4052	確???*
-4.8730	確?便利
-4.4052	確???する
-4.4052	確?安い
-4.8730	確?少な?しれ??ルビ?
-4.8730	確?島
-4.8730	確?準備
-4.8730	確?物件
-4.1852	確?生活
-4.1852	確?用
-4.8730	確???学????忌?しい
-4.8730	確?食????
-4.8730	確信
-4.4052	確?低い
-4.4052	確?変数
-4.4052	禁止
-4.8730	福?漬?入れる
-4.8730	??みたい
-4.4052	????繰り返す
-4.1852	?好????好??平??
-4.8730	??
-4.8730	?氷?ある
-4.4052	私服
-4.8730	秘??な?支?日常
-3.6557	科学
-3.9312	秋田
-4.4052	移?する
-4.8730	?
-4.4052	?!
-3.6075	?*
-4.8730	??
-4.8730	??*
-4.1852	??ある
-4.8730	???話????嫌う
-4.8730	??フルー?中
-4.8730	??ゲー?嫌い
-4.4052	??シュークリー?作る
-4.8730	?ある
-4.8730	?すき
-4.4052	?すご?見る
-4.4052	?がんば???能??
-4.4052	?お?かけ
-4.4052	?お話?する
-4.8730	?ち?ど
-4.8730	?できる
-4.8730	?な?くる
-4.8730	?な??
-4.1852	?な?話し相?増え?
-4.4052	?は?
-4.8730	?ほ???する
-4.8730	?み?こと
-4.8730	??
-4.8730	?パン?方
-4.8730	?パナソニック
-4.8730	?パ??かけ??
-4.4052	?ペッ?遊?
-4.4052	?マグロ
-4.4052	?バイク
-4.8730	?バ?ベキュー
-4.4052	?ファンタジー
-4.1852	?メス
-4.8730	?メタル
-4.4052	?ラジオ
-4.8730	?ロボッ?興味
-4.4052	???面白??視?
-4.8730	?アニメ
-4.4052	?アルバイ?する
-4.8730	?アイス
-4.8730	?アクション
-4.8730	?カフェ?ア
-4.8730	?カレー
-4.8730	?ガ?噛?
-4.8730	?ゲー?紛らわせ??
-4.8730	?サン?方
-4.0399	?スイカ
-4.8730	??.
-4.8730	?上手
-4.8730	???コンビニ
-3.9312	?今年
-4.8730	?今度
-4.4052	??ところ
-4.4052	?京都
-4.4052	?休?
-4.4052	?使??
-4.4052	?初??
-4.4052	?刺?ほしい
-4.4052	?冷たい
-4.8730	?冷え症
-4.8730	?哲学
-4.8730	?味???ある
-4.8730	?収?
-4.4052	?友人
-4.8730	?塩
-4.4052	?好?
-4.1852	?好?*
-4.8730	?好?.
-4.4052	?好??ありがと?
-4.4052	?好??今度
-4.8730	?好??ありがと?
-4.8730	?好???ナシ
-4.0399	?好?嬉し?
-4.8730	?好?線?花火
-4.0399	?夏休み
-4.4052	?夜長
-4.4052	?大丈夫
-4.0399	?大好?!
-4.8730	?大好??揚げ
-4.8730	?大好?食べ物
-4.8730	??家
-4.1852	?家
-4.0399	?山
-4.4052	???熱中
-4.4052	?子???スイカ
-4.1852	?帰?する
-4.8730	??時間
-4.8730	?起こす
-4.0399	?思う
-4.8730	?扱??
-4.4052	?我が家
-4.8730	?携帯
-4.8730	?新?演?
-4.4052	?新?買??新??
-4.8730	?旦那
-4.8730	?時?
-4.8730	??荒れ??
-4.8730	??本
-4.8730	??犬
-4.8730	?来年
-4.8730	?東京
-4.8730	??近海
-4.4052	???ど?行く
-4.8730	???アイス
-4.8730	???海?ドラ?見る
-4.4052	?柔らかい
-4.8730	?果物
-4.8730	??好??大好?
-4.1852	??つける
-4.8730	?泳??釣?する
-4.0399	?海
-4.4052	?海?行く
-4.8730	?焼?好?麦
-4.8730	??丼
-4.8730	?甘い
-4.4052	?用?する
-4.8730	?男
-4.8730	?睡?疲?癒す
-4.4052	??
-4.8730	?耳
-4.8730	?背中
-4.4052	?苦??晴れる
-4.8730	?苦?炭酸
-4.4052	?英?苦??海?ゲー?勉強
-4.1852	?見る
-4.4052	?買?
-4.1852	??骨
-4.4052	?嫌い
-4.4052	?趣味
-4.8730	?農家
-4.8730	?近い
-4.4052	???しる
-4.0399	???する
-4.4052	???な?がち
-4.8730	???
-4.4052	?部?高?能
-4.4052	?釣?*
-4.8730	?雑?見る
-4.8730	?雨
-4.8730	?静か
-4.8730	?韓国
-4.8730	程度
-4.8730	程遠?
-3.5641	種
-4.8730	種?ある
-4.0399	種?ごと
-4.8730	種?こだわる
-4.1852	種?多い
-4.8730	種?菓子パン
-4.4052	種?豊?
-4.8730	稼げる
-4.8730	?上が?値上げ
-4.8730	?好?
-4.4052	?平?
-4.4052	?消費
-3.4241	穏や?
-4.8730	穏や?しれ??海
-4.8730	穏や?な??気?
-4.4052	穏や??
-4.8730	穏や??
-4.4052	穏や?遊?
-4.8730	積?
-4.8730	穴
-3.6557	空
-4.8730	空??
-4.4052	空??
-4.4052	空?くる
-4.8730	空?の
-4.8730	空?み
-4.4052	空??
-4.4052	空???
-4.4052	空腹
-4.8730	空?奥行き
-4.8730	突?
-4.4052	?眺?きれ??電?快適
-4.8730	答え
-4.4052	答え?くれ??
-4.8730	等?
-4.4052	?*
-4.8730	?ペン
-4.4052	?倒れ?人
-4.8730	?書??
-4.8730	?過剰
-4.8730	立て??がんば??
-4.8730	立て???値
-4.8730	立て続け
-4.8730	立ち読み
-3.9312	立派
-4.4052	童?思い出?
-4.4052	童?戻れる
-4.8730	端末
-4.8730	競??こと
-4.8730	競り合??
-4.8730	競?する
-4.8730	競??スポ??結果
-4.4052	競輪
-4.0399	競馬
-4.1852	篭?て??人
-4.8730	??できる
-4.8730	??な???
-4.8730	??続け?
-4.4052	米沢
-4.8730	簡?
-4.8730	簡??リラ?ス
-4.8730	簡?できる
-4.8730	簿
-4.4052	管?かかわる
-4.4052	管?する
-4.0399	管??
-4.8730	管?大丈夫
-4.4052	管?大?
-4.1852	管?大?健康
-4.1852	管?大??体調
-4.8730	管??使?の
-4.8730	箱
-3.6557	箱根
-4.4052	箸
-4.8730	?冷????倒す
-4.1852	?命
-4.8730	?大??
-4.8730	?欲しい
-4.8730	?落ち?微?変化
-4.1852	?高い
-3.7720	糖?
-4.4052	系
-4.1852	??
-4.8730	粘い
-4.4052	精?
-4.8730	精?.
-4.8730	精?ギャラ
-4.8730	精??受け?
-4.1852	納?入れる
-4.8730	紛らわす
-4.4052	紛れ?おな?大?
-4.8730	紫外???大敵
-4.8730	紫外?欲しい
-4.4052	細
-4.8730	細?
-4.8730	細?ある
-4.8730	?9
-3.3184	?らし?
-4.8730	?らし?!
-4.4052	?らし?ありがと
-4.8730	?らし?アドバイス
-4.8730	?
-3.8443	?
-4.1852	?
-4.4052	?
-4.4052	?揚げ?する
-4.8730	?書?
-3.9312	?
-4.8730	終え?風
-4.4052	終わ?
-4.1852	終わ??
-4.8730	終わ???
-4.8730	終わ??終わ??
-4.8730	終わ?ち?
-4.8730	終わ?みたい
-4.8730	終わ?もん
-4.4052	終わ?今日
-4.1852	終わ?惜し?
-3.6557	結?する
-4.8730	結?大?
-4.8730	結?寂し?
-4.8730	結????
-4.8730	結?楽しい
-4.8730	結?直?決める
-4.8730	結???
-4.8730	結?授業
-4.8730	結???ち?
-4.8730	結?高い
-4.8730	結果
-4.4052	結?
-4.4052	結??ありがと??好み
-4.4052	結??冷える
-4.0399	結?ある
-4.8730	結???試?み?下さ?こたつ
-4.8730	結?よく
-4.8730	結?問?ある
-4.8730	結?好???多い
-4.8730	結?慣れる
-4.1852	結?難しい
-4.8730	結?音
-4.4052	結露
-4.8730	経つ
-4.4052	経口
-4.8730	経??ージ
-4.8730	経??援助
-4.8730	絞る
-4.4052	経?ある
-4.8730	経?左右
-4.8730	給?無?良??
-4.8730	給?返??作る
-4.8730	給??あげ?*
-3.7720	絵
-4.4052	絵画
-4.8730	絶える
-4.8730	絶好
-3.7720	絶対
-4.8730	継??
-4.1852	継???
-4.8730	継??重?
-4.4052	継?大?
-4.4052	継?楽しい
-4.4052	継?重?
-3.9312	継?難しい
-3.8443	続け?
-4.8730	続け?の
-4.8730	続け???盛り上が?
-3.5247	続く
-4.8730	続投
-4.4052	網
-3.2532	綺?
-4.4052	綺??
-3.8443	綺??夜景
-4.8730	綺??日本
-4.1852	綺??海
-4.4052	綺??花火
